SNNS network definition file V1.4-3D
generated at Fri Aug 18 14:51:28 2023

network name : dan_letter_unt
source files :
no. of units : 71
no. of connections : 610
no. of unit types : 0
no. of site types : 0


learning function : BackpropMomentum
update function   : Topological_Order
init function     : Randomize_Weights


unit default section :

act      | bias     | st | subnet | layer | act func     | out func
---------|----------|----|--------|-------|--------------|-------------
 0.00000 |  0.00000 | h  |      0 |     1 | Act_Logistic | Out_Identity 
---------|----------|----|--------|-------|--------------|-------------


unit definition section :

no. | typeName | unitName | act      | bias     | st | position | act func | out func | sites
----|----------|----------|----------|----------|----|----------|----------|----------|-------
  1 |          |          |  0.00000 |  0.00000 | i  |  2, 2, 0 |||
  2 |          |          |  0.00000 |  0.00000 | i  |  3, 2, 0 |||
  3 |          |          |  0.00000 |  0.00000 | i  |  4, 2, 0 |||
  4 |          |          |  0.00000 |  0.00000 | i  |  5, 2, 0 |||
  5 |          |          |  0.00000 |  0.00000 | i  |  6, 2, 0 |||
  6 |          |          |  0.00000 |  0.00000 | i  |  2, 3, 0 |||
  7 |          |          |  0.00000 |  0.00000 | i  |  3, 3, 0 |||
  8 |          |          |  0.00000 |  0.00000 | i  |  4, 3, 0 |||
  9 |          |          |  0.00000 |  0.00000 | i  |  5, 3, 0 |||
 10 |          |          |  0.00000 |  0.00000 | i  |  6, 3, 0 |||
 11 |          |          |  0.00000 |  0.00000 | i  |  2, 4, 0 |||
 12 |          |          |  0.00000 |  0.00000 | i  |  3, 4, 0 |||
 13 |          |          |  0.00000 |  0.00000 | i  |  4, 4, 0 |||
 14 |          |          |  0.00000 |  0.00000 | i  |  5, 4, 0 |||
 15 |          |          |  0.00000 |  0.00000 | i  |  6, 4, 0 |||
 16 |          |          |  0.00000 |  0.00000 | i  |  2, 5, 0 |||
 17 |          |          |  0.00000 |  0.00000 | i  |  3, 5, 0 |||
 18 |          |          |  0.00000 |  0.00000 | i  |  4, 5, 0 |||
 19 |          |          |  0.00000 |  0.00000 | i  |  5, 5, 0 |||
 20 |          |          |  0.00000 |  0.00000 | i  |  6, 5, 0 |||
 21 |          |          |  0.00000 |  0.00000 | i  |  2, 6, 0 |||
 22 |          |          |  0.00000 |  0.00000 | i  |  3, 6, 0 |||
 23 |          |          |  0.00000 |  0.00000 | i  |  4, 6, 0 |||
 24 |          |          |  0.00000 |  0.00000 | i  |  5, 6, 0 |||
 25 |          |          |  0.00000 |  0.00000 | i  |  6, 6, 0 |||
 26 |          |          |  0.00000 |  0.00000 | i  |  2, 7, 0 |||
 27 |          |          |  0.00000 |  0.00000 | i  |  3, 7, 0 |||
 28 |          |          |  0.00000 |  0.00000 | i  |  4, 7, 0 |||
 29 |          |          |  0.00000 |  0.00000 | i  |  5, 7, 0 |||
 30 |          |          |  0.00000 |  0.00000 | i  |  6, 7, 0 |||
 31 |          |          |  0.00000 |  0.00000 | i  |  2, 8, 0 |||
 32 |          |          |  0.00000 |  0.00000 | i  |  3, 8, 0 |||
 33 |          |          |  0.00000 |  0.00000 | i  |  4, 8, 0 |||
 34 |          |          |  0.00000 |  0.00000 | i  |  5, 8, 0 |||
 35 |          |          |  0.00000 |  0.00000 | i  |  6, 8, 0 |||
 36 |          |          |  0.00000 |  0.00000 | h  |  9, 2, 0 |||
 37 |          |          |  0.00000 |  0.00000 | h  |  9, 3, 0 |||
 38 |          |          |  0.00000 |  0.00000 | h  |  9, 4, 0 |||
 39 |          |          |  0.00000 |  0.00000 | h  |  9, 5, 0 |||
 40 |          |          |  0.00000 |  0.00000 | h  |  9, 6, 0 |||
 41 |          |          |  0.00000 |  0.00000 | h  |  9, 7, 0 |||
 42 |          |          |  0.00000 |  0.00000 | h  |  9, 8, 0 |||
 43 |          |          |  0.00000 |  0.00000 | h  |  9, 9, 0 |||
 44 |          |          |  0.00000 |  0.00000 | h  |  9,10, 0 |||
 45 |          |          |  0.00000 |  0.00000 | h  |  9,11, 0 |||
 46 |          |          |  0.00000 |  0.00000 | o  | 12, 2, 0 |||
 47 |          |          |  0.00000 |  0.00000 | o  | 13, 2, 0 |||
 48 |          |          |  0.00000 |  0.00000 | o  | 12, 3, 0 |||
 49 |          |          |  0.00000 |  0.00000 | o  | 13, 3, 0 |||
 50 |          |          |  0.00000 |  0.00000 | o  | 12, 4, 0 |||
 51 |          |          |  0.00000 |  0.00000 | o  | 13, 4, 0 |||
 52 |          |          |  0.00000 |  0.00000 | o  | 12, 5, 0 |||
 53 |          |          |  0.00000 |  0.00000 | o  | 13, 5, 0 |||
 54 |          |          |  0.00000 |  0.00000 | o  | 12, 6, 0 |||
 55 |          |          |  0.00000 |  0.00000 | o  | 13, 6, 0 |||
 56 |          |          |  0.00000 |  0.00000 | o  | 12, 7, 0 |||
 57 |          |          |  0.00000 |  0.00000 | o  | 13, 7, 0 |||
 58 |          |          |  0.00000 |  0.00000 | o  | 12, 8, 0 |||
 59 |          |          |  0.00000 |  0.00000 | o  | 13, 8, 0 |||
 60 |          |          |  0.00000 |  0.00000 | o  | 12, 9, 0 |||
 61 |          |          |  0.00000 |  0.00000 | o  | 13, 9, 0 |||
 62 |          |          |  0.00000 |  0.00000 | o  | 12,10, 0 |||
 63 |          |          |  0.00000 |  0.00000 | o  | 13,10, 0 |||
 64 |          |          |  0.00000 |  0.00000 | o  | 12,11, 0 |||
 65 |          |          |  0.00000 |  0.00000 | o  | 13,11, 0 |||
 66 |          |          |  0.00000 |  0.00000 | o  | 12,12, 0 |||
 67 |          |          |  0.00000 |  0.00000 | o  | 13,12, 0 |||
 68 |          |          |  0.00000 |  0.00000 | o  | 12,13, 0 |||
 69 |          |          |  0.00000 |  0.00000 | o  | 13,13, 0 |||
 70 |          |          |  0.00000 |  0.00000 | o  | 12,14, 0 |||
 71 |          |          |  0.00000 |  0.00000 | o  | 13,14, 0 |||
----|----------|----------|----------|----------|----|----------|----------|----------|-------


connection definition section :

target | site | source:weight
-------|------|---------------------------------------------------------------------------------------------------------------------
    36 |      | 35: 0.00000, 34: 0.00000, 33: 0.00000, 32: 0.00000, 31: 0.00000, 30: 0.00000, 29: 0.00000, 28: 0.00000, 27: 0.00000,
                26: 0.00000, 25: 0.00000, 24: 0.00000, 23: 0.00000, 22: 0.00000, 21: 0.00000, 20: 0.00000, 19: 0.00000, 18: 0.00000,
                17: 0.00000, 16: 0.00000, 15: 0.00000, 14: 0.00000, 13: 0.00000, 12: 0.00000, 11: 0.00000, 10: 0.00000,  9: 0.00000,
                 8: 0.00000,  7: 0.00000,  6: 0.00000,  5: 0.00000,  4: 0.00000,  3: 0.00000,  2: 0.00000,  1: 0.00000
    37 |      | 35: 0.00000, 34: 0.00000, 33: 0.00000, 32: 0.00000, 31: 0.00000, 30: 0.00000, 29: 0.00000, 28: 0.00000, 27: 0.00000,
                26: 0.00000, 25: 0.00000, 24: 0.00000, 23: 0.00000, 22: 0.00000, 21: 0.00000, 20: 0.00000, 19: 0.00000, 18: 0.00000,
                17: 0.00000, 16: 0.00000, 15: 0.00000, 14: 0.00000, 13: 0.00000, 12: 0.00000, 11: 0.00000, 10: 0.00000,  9: 0.00000,
                 8: 0.00000,  7: 0.00000,  6: 0.00000,  5: 0.00000,  4: 0.00000,  3: 0.00000,  2: 0.00000,  1: 0.00000
    38 |      | 35: 0.00000, 34: 0.00000, 33: 0.00000, 32: 0.00000, 31: 0.00000, 30: 0.00000, 29: 0.00000, 28: 0.00000, 27: 0.00000,
                26: 0.00000, 25: 0.00000, 24: 0.00000, 23: 0.00000, 22: 0.00000, 21: 0.00000, 20: 0.00000, 19: 0.00000, 18: 0.00000,
                17: 0.00000, 16: 0.00000, 15: 0.00000, 14: 0.00000, 13: 0.00000, 12: 0.00000, 11: 0.00000, 10: 0.00000,  9: 0.00000,
                 8: 0.00000,  7: 0.00000,  6: 0.00000,  5: 0.00000,  4: 0.00000,  3: 0.00000,  2: 0.00000,  1: 0.00000
    39 |      | 35: 0.00000, 34: 0.00000, 33: 0.00000, 32: 0.00000, 31: 0.00000, 30: 0.00000, 29: 0.00000, 28: 0.00000, 27: 0.00000,
                26: 0.00000, 25: 0.00000, 24: 0.00000, 23: 0.00000, 22: 0.00000, 21: 0.00000, 20: 0.00000, 19: 0.00000, 18: 0.00000,
                17: 0.00000, 16: 0.00000, 15: 0.00000, 14: 0.00000, 13: 0.00000, 12: 0.00000, 11: 0.00000, 10: 0.00000,  9: 0.00000,
                 8: 0.00000,  7: 0.00000,  6: 0.00000,  5: 0.00000,  4: 0.00000,  3: 0.00000,  2: 0.00000,  1: 0.00000
    40 |      | 35: 0.00000, 34: 0.00000, 33: 0.00000, 32: 0.00000, 31: 0.00000, 30: 0.00000, 29: 0.00000, 28: 0.00000, 27: 0.00000,
                26: 0.00000, 25: 0.00000, 24: 0.00000, 23: 0.00000, 22: 0.00000, 21: 0.00000, 20: 0.00000, 19: 0.00000, 18: 0.00000,
                17: 0.00000, 16: 0.00000, 15: 0.00000, 14: 0.00000, 13: 0.00000, 12: 0.00000, 11: 0.00000, 10: 0.00000,  9: 0.00000,
                 8: 0.00000,  7: 0.00000,  6: 0.00000,  5: 0.00000,  4: 0.00000,  3: 0.00000,  2: 0.00000,  1: 0.00000
    41 |      | 35: 0.00000, 34: 0.00000, 33: 0.00000, 32: 0.00000, 31: 0.00000, 30: 0.00000, 29: 0.00000, 28: 0.00000, 27: 0.00000,
                26: 0.00000, 25: 0.00000, 24: 0.00000, 23: 0.00000, 22: 0.00000, 21: 0.00000, 20: 0.00000, 19: 0.00000, 18: 0.00000,
                17: 0.00000, 16: 0.00000, 15: 0.00000, 14: 0.00000, 13: 0.00000, 12: 0.00000, 11: 0.00000, 10: 0.00000,  9: 0.00000,
                 8: 0.00000,  7: 0.00000,  6: 0.00000,  5: 0.00000,  4: 0.00000,  3: 0.00000,  2: 0.00000,  1: 0.00000
    42 |      | 35: 0.00000, 34: 0.00000, 33: 0.00000, 32: 0.00000, 31: 0.00000, 30: 0.00000, 29: 0.00000, 28: 0.00000, 27: 0.00000,
                26: 0.00000, 25: 0.00000, 24: 0.00000, 23: 0.00000, 22: 0.00000, 21: 0.00000, 20: 0.00000, 19: 0.00000, 18: 0.00000,
                17: 0.00000, 16: 0.00000, 15: 0.00000, 14: 0.00000, 13: 0.00000, 12: 0.00000, 11: 0.00000, 10: 0.00000,  9: 0.00000,
                 8: 0.00000,  7: 0.00000,  6: 0.00000,  5: 0.00000,  4: 0.00000,  3: 0.00000,  2: 0.00000,  1: 0.00000
    43 |      | 35: 0.00000, 34: 0.00000, 33: 0.00000, 32: 0.00000, 31: 0.00000, 30: 0.00000, 29: 0.00000, 28: 0.00000, 27: 0.00000,
                26: 0.00000, 25: 0.00000, 24: 0.00000, 23: 0.00000, 22: 0.00000, 21: 0.00000, 20: 0.00000, 19: 0.00000, 18: 0.00000,
                17: 0.00000, 16: 0.00000, 15: 0.00000, 14: 0.00000, 13: 0.00000, 12: 0.00000, 11: 0.00000, 10: 0.00000,  9: 0.00000,
                 8: 0.00000,  7: 0.00000,  6: 0.00000,  5: 0.00000,  4: 0.00000,  3: 0.00000,  2: 0.00000,  1: 0.00000
    44 |      | 35: 0.00000, 34: 0.00000, 33: 0.00000, 32: 0.00000, 31: 0.00000, 30: 0.00000, 29: 0.00000, 28: 0.00000, 27: 0.00000,
                26: 0.00000, 25: 0.00000, 24: 0.00000, 23: 0.00000, 22: 0.00000, 21: 0.00000, 20: 0.00000, 19: 0.00000, 18: 0.00000,
                17: 0.00000, 16: 0.00000, 15: 0.00000, 14: 0.00000, 13: 0.00000, 12: 0.00000, 11: 0.00000, 10: 0.00000,  9: 0.00000,
                 8: 0.00000,  7: 0.00000,  6: 0.00000,  5: 0.00000,  4: 0.00000,  3: 0.00000,  2: 0.00000,  1: 0.00000
    45 |      | 35: 0.00000, 34: 0.00000, 33: 0.00000, 32: 0.00000, 31: 0.00000, 30: 0.00000, 29: 0.00000, 28: 0.00000, 27: 0.00000,
                26: 0.00000, 25: 0.00000, 24: 0.00000, 23: 0.00000, 22: 0.00000, 21: 0.00000, 20: 0.00000, 19: 0.00000, 18: 0.00000,
                17: 0.00000, 16: 0.00000, 15: 0.00000, 14: 0.00000, 13: 0.00000, 12: 0.00000, 11: 0.00000, 10: 0.00000,  9: 0.00000,
                 8: 0.00000,  7: 0.00000,  6: 0.00000,  5: 0.00000,  4: 0.00000,  3: 0.00000,  2: 0.00000,  1: 0.00000
    46 |      | 45: 0.00000, 44: 0.00000, 43: 0.00000, 42: 0.00000, 41: 0.00000, 40: 0.00000, 39: 0.00000, 38: 0.00000, 37: 0.00000,
                36: 0.00000
    47 |      | 45: 0.00000, 44: 0.00000, 43: 0.00000, 42: 0.00000, 41: 0.00000, 40: 0.00000, 39: 0.00000, 38: 0.00000, 37: 0.00000,
                36: 0.00000
    48 |      | 45: 0.00000, 44: 0.00000, 43: 0.00000, 42: 0.00000, 41: 0.00000, 40: 0.00000, 39: 0.00000, 38: 0.00000, 37: 0.00000,
                36: 0.00000
    49 |      | 45: 0.00000, 44: 0.00000, 43: 0.00000, 42: 0.00000, 41: 0.00000, 40: 0.00000, 39: 0.00000, 38: 0.00000, 37: 0.00000,
                36: 0.00000
    50 |      | 45: 0.00000, 44: 0.00000, 43: 0.00000, 42: 0.00000, 41: 0.00000, 40: 0.00000, 39: 0.00000, 38: 0.00000, 37: 0.00000,
                36: 0.00000
    51 |      | 45: 0.00000, 44: 0.00000, 43: 0.00000, 42: 0.00000, 41: 0.00000, 40: 0.00000, 39: 0.00000, 38: 0.00000, 37: 0.00000,
                36: 0.00000
    52 |      | 45: 0.00000, 44: 0.00000, 43: 0.00000, 42: 0.00000, 41: 0.00000, 40: 0.00000, 39: 0.00000, 38: 0.00000, 37: 0.00000,
                36: 0.00000
    53 |      | 45: 0.00000, 44: 0.00000, 43: 0.00000, 42: 0.00000, 41: 0.00000, 40: 0.00000, 39: 0.00000, 38: 0.00000, 37: 0.00000,
                36: 0.00000
    54 |      | 45: 0.00000, 44: 0.00000, 43: 0.00000, 42: 0.00000, 41: 0.00000, 40: 0.00000, 39: 0.00000, 38: 0.00000, 37: 0.00000,
                36: 0.00000
    55 |      | 45: 0.00000, 44: 0.00000, 43: 0.00000, 42: 0.00000, 41: 0.00000, 40: 0.00000, 39: 0.00000, 38: 0.00000, 37: 0.00000,
                36: 0.00000
    56 |      | 45: 0.00000, 44: 0.00000, 43: 0.00000, 42: 0.00000, 41: 0.00000, 40: 0.00000, 39: 0.00000, 38: 0.00000, 37: 0.00000,
                36: 0.00000
    57 |      | 45: 0.00000, 44: 0.00000, 43: 0.00000, 42: 0.00000, 41: 0.00000, 40: 0.00000, 39: 0.00000, 38: 0.00000, 37: 0.00000,
                36: 0.00000
    58 |      | 45: 0.00000, 44: 0.00000, 43: 0.00000, 42: 0.00000, 41: 0.00000, 40: 0.00000, 39: 0.00000, 38: 0.00000, 37: 0.00000,
                36: 0.00000
    59 |      | 45: 0.00000, 44: 0.00000, 43: 0.00000, 42: 0.00000, 41: 0.00000, 40: 0.00000, 39: 0.00000, 38: 0.00000, 37: 0.00000,
                36: 0.00000
    60 |      | 45: 0.00000, 44: 0.00000, 43: 0.00000, 42: 0.00000, 41: 0.00000, 40: 0.00000, 39: 0.00000, 38: 0.00000, 37: 0.00000,
                36: 0.00000
    61 |      | 45: 0.00000, 44: 0.00000, 43: 0.00000, 42: 0.00000, 41: 0.00000, 40: 0.00000, 39: 0.00000, 38: 0.00000, 37: 0.00000,
                36: 0.00000
    62 |      | 45: 0.00000, 44: 0.00000, 43: 0.00000, 42: 0.00000, 41: 0.00000, 40: 0.00000, 39: 0.00000, 38: 0.00000, 37: 0.00000,
                36: 0.00000
    63 |      | 45: 0.00000, 44: 0.00000, 43: 0.00000, 42: 0.00000, 41: 0.00000, 40: 0.00000, 39: 0.00000, 38: 0.00000, 37: 0.00000,
                36: 0.00000
    64 |      | 45: 0.00000, 44: 0.00000, 43: 0.00000, 42: 0.00000, 41: 0.00000, 40: 0.00000, 39: 0.00000, 38: 0.00000, 37: 0.00000,
                36: 0.00000
    65 |      | 45: 0.00000, 44: 0.00000, 43: 0.00000, 42: 0.00000, 41: 0.00000, 40: 0.00000, 39: 0.00000, 38: 0.00000, 37: 0.00000,
                36: 0.00000
    66 |      | 45: 0.00000, 44: 0.00000, 43: 0.00000, 42: 0.00000, 41: 0.00000, 40: 0.00000, 39: 0.00000, 38: 0.00000, 37: 0.00000,
                36: 0.00000
    67 |      | 45: 0.00000, 44: 0.00000, 43: 0.00000, 42: 0.00000, 41: 0.00000, 40: 0.00000, 39: 0.00000, 38: 0.00000, 37: 0.00000,
                36: 0.00000
    68 |      | 45: 0.00000, 44: 0.00000, 43: 0.00000, 42: 0.00000, 41: 0.00000, 40: 0.00000, 39: 0.00000, 38: 0.00000, 37: 0.00000,
                36: 0.00000
    69 |      | 45: 0.00000, 44: 0.00000, 43: 0.00000, 42: 0.00000, 41: 0.00000, 40: 0.00000, 39: 0.00000, 38: 0.00000, 37: 0.00000,
                36: 0.00000
    70 |      | 45: 0.00000, 44: 0.00000, 43: 0.00000, 42: 0.00000, 41: 0.00000, 40: 0.00000, 39: 0.00000, 38: 0.00000, 37: 0.00000,
                36: 0.00000
    71 |      | 45: 0.00000, 44: 0.00000, 43: 0.00000, 42: 0.00000, 41: 0.00000, 40: 0.00000, 39: 0.00000, 38: 0.00000, 37: 0.00000,
                36: 0.00000
-------|------|---------------------------------------------------------------------------------------------------------------------
