SNNS network definition file V1.4-3D
generated at Fri Aug 18 15:00:54 2023

network name : dan_letter_ent
source files :
no. of units : 71
no. of connections : 610
no. of unit types : 0
no. of site types : 0


learning function : BackpropMomentum
update function   : Topological_Order
init function     : Randomize_Weights


unit default section :

act      | bias     | st | subnet | layer | act func     | out func
---------|----------|----|--------|-------|--------------|-------------
 0.00000 |  0.00000 | h  |      0 |     1 | Act_Logistic | Out_Identity 
---------|----------|----|--------|-------|--------------|-------------


unit definition section :

no. | typeName | unitName | act      | bias     | st | position | act func | out func | sites
----|----------|----------|----------|----------|----|----------|----------|----------|-------
  1 |          |          |  1.00000 | -0.56862 | i  |  2, 2, 0 |||
  2 |          |          |  1.00000 |  0.89917 | i  |  3, 2, 0 |||
  3 |          |          |  1.00000 | -0.99982 | i  |  4, 2, 0 |||
  4 |          |          |  1.00000 |  0.91219 | i  |  5, 2, 0 |||
  5 |          |          |  1.00000 | -0.70791 | i  |  6, 2, 0 |||
  6 |          |          |  1.00000 |  0.71521 | i  |  2, 3, 0 |||
  7 |          |          |  0.00000 | -0.71312 | i  |  3, 3, 0 |||
  8 |          |          |  0.00000 |  0.17479 | i  |  4, 3, 0 |||
  9 |          |          |  0.00000 |  0.10380 | i  |  5, 3, 0 |||
 10 |          |          |  0.00000 |  0.11011 | i  |  6, 3, 0 |||
 11 |          |          |  1.00000 | -0.80565 | i  |  2, 4, 0 |||
 12 |          |          |  0.00000 | -0.38029 | i  |  3, 4, 0 |||
 13 |          |          |  0.00000 |  0.24353 | i  |  4, 4, 0 |||
 14 |          |          |  0.00000 | -0.45996 | i  |  5, 4, 0 |||
 15 |          |          |  0.00000 |  0.61303 | i  |  6, 4, 0 |||
 16 |          |          |  1.00000 |  0.49959 | i  |  2, 5, 0 |||
 17 |          |          |  1.00000 | -0.22187 | i  |  3, 5, 0 |||
 18 |          |          |  1.00000 |  0.76719 | i  |  4, 5, 0 |||
 19 |          |          |  1.00000 | -0.90040 | i  |  5, 5, 0 |||
 20 |          |          |  0.00000 | -0.61572 | i  |  6, 5, 0 |||
 21 |          |          |  1.00000 |  0.05536 | i  |  2, 6, 0 |||
 22 |          |          |  0.00000 |  0.22057 | i  |  3, 6, 0 |||
 23 |          |          |  0.00000 |  0.37025 | i  |  4, 6, 0 |||
 24 |          |          |  0.00000 | -0.92149 | i  |  5, 6, 0 |||
 25 |          |          |  0.00000 |  0.01051 | i  |  6, 6, 0 |||
 26 |          |          |  1.00000 |  0.10839 | i  |  2, 7, 0 |||
 27 |          |          |  0.00000 | -0.13034 | i  |  3, 7, 0 |||
 28 |          |          |  0.00000 | -0.16380 | i  |  4, 7, 0 |||
 29 |          |          |  0.00000 |  0.16895 | i  |  5, 7, 0 |||
 30 |          |          |  0.00000 |  0.67545 | i  |  6, 7, 0 |||
 31 |          |          |  1.00000 | -0.50404 | i  |  2, 8, 0 |||
 32 |          |          |  1.00000 |  0.99707 | i  |  3, 8, 0 |||
 33 |          |          |  1.00000 |  0.83302 | i  |  4, 8, 0 |||
 34 |          |          |  1.00000 | -0.70007 | i  |  5, 8, 0 |||
 35 |          |          |  1.00000 | -0.30115 | i  |  6, 8, 0 |||
 36 |          |          |  0.93582 | -0.01075 | h  |  9, 2, 0 |||
 37 |          |          |  0.99815 | -0.91879 | h  |  9, 3, 0 |||
 38 |          |          |  0.97227 | -0.79832 | h  |  9, 4, 0 |||
 39 |          |          |  0.89460 |  0.79858 | h  |  9, 5, 0 |||
 40 |          |          |  0.02213 |  0.31402 | h  |  9, 6, 0 |||
 41 |          |          |  0.99914 | -0.45258 | h  |  9, 7, 0 |||
 42 |          |          |  0.05600 |  0.64044 | h  |  9, 8, 0 |||
 43 |          |          |  0.04578 |  0.24082 | h  |  9, 9, 0 |||
 44 |          |          |  0.00319 | -0.20042 | h  |  9,10, 0 |||
 45 |          |          |  0.99397 |  0.71602 | h  |  9,11, 0 |||
 46 |          |          |  0.00015 | -2.01508 | o  | 12, 2, 0 |||
 47 |          |          |  0.00134 | -5.28795 | o  | 13, 2, 0 |||
 48 |          |          |  0.00684 | -0.89950 | o  | 12, 3, 0 |||
 49 |          |          |  0.00475 | -2.59923 | o  | 13, 3, 0 |||
 50 |          |          |  0.94082 | -1.99411 | o  | 12, 4, 0 |||
 51 |          |          |  0.02308 | -0.31052 | o  | 13, 4, 0 |||
 52 |          |          |  0.00395 | -0.49180 | o  | 12, 5, 0 |||
 53 |          |          |  0.00000 | -0.77709 | o  | 13, 5, 0 |||
 54 |          |          |  0.00024 | -0.54217 | o  | 12, 6, 0 |||
 55 |          |          |  0.00001 | -0.44574 | o  | 13, 6, 0 |||
 56 |          |          |  0.01845 | -1.22486 | o  | 12, 7, 0 |||
 57 |          |          |  0.02559 | -0.97466 | o  | 13, 7, 0 |||
 58 |          |          |  0.00002 | -0.39085 | o  | 12, 8, 0 |||
 59 |          |          |  0.00119 | -1.22469 | o  | 13, 8, 0 |||
 60 |          |          |  0.00000 | -0.11329 | o  | 12, 9, 0 |||
 61 |          |          |  0.00389 | -3.10050 | o  | 13, 9, 0 |||
 62 |          |          |  0.00000 | -1.99711 | o  | 12,10, 0 |||
 63 |          |          |  0.00465 | -2.86942 | o  | 13,10, 0 |||
 64 |          |          |  0.00561 | -1.12085 | o  | 12,11, 0 |||
 65 |          |          |  0.00576 | -0.64256 | o  | 13,11, 0 |||
 66 |          |          |  0.00026 | -1.98660 | o  | 12,12, 0 |||
 67 |          |          |  0.00020 | -2.42459 | o  | 13,12, 0 |||
 68 |          |          |  0.00000 | -1.19779 | o  | 12,13, 0 |||
 69 |          |          |  0.00067 | -0.97573 | o  | 13,13, 0 |||
 70 |          |          |  0.00001 | -2.24170 | o  | 12,14, 0 |||
 71 |          |          |  0.02252 | -2.00674 | o  | 13,14, 0 |||
----|----------|----------|----------|----------|----|----------|----------|----------|-------


connection definition section :

target | site | source:weight
-------|------|---------------------------------------------------------------------------------------------------------------------
    36 |      | 35: 4.15179, 34: 0.60557, 33:-0.59051, 32: 0.63265, 31: 0.71735, 30:-0.72731, 29: 2.32359, 28: 0.21974, 27: 0.64835,
                26: 0.59413, 25:-0.42432, 24:-0.09586, 23: 1.43131, 22: 1.60426, 21:-1.53014, 20:-2.60374, 19: 0.61588, 18: 0.00105,
                17: 2.56262, 16:-3.18828, 15: 1.13967, 14: 0.40625, 13: 0.74596, 12:-0.94252, 11:-1.46719, 10: 1.38249,  9: 0.43948,
                 8: 0.13016,  7:-0.36004,  6:-1.31684,  5:-3.21662,  4: 1.82957,  3: 1.50600,  2: 0.03174,  1: 0.75177
    37 |      | 35:-1.61591, 34:-1.99417, 33: 1.61364, 32:-1.10984, 31: 2.04387, 30:-2.52655, 29:-0.42995, 28:-0.00512, 27:-0.05625,
                26:-1.45746, 25:-0.08397, 24: 0.40024, 23:-1.28277, 22:-1.79583, 21: 0.34182, 20: 2.08482, 19: 2.02092, 18: 3.36817,
                17:-0.61517, 16: 1.38697, 15: 0.20971, 14: 0.03191, 13:-1.04790, 12: 0.43711, 11: 0.69233, 10:-1.95853,  9:-2.23689,
                 8: 0.44932,  7:-0.33211,  6: 0.09512,  5:-1.70065,  4: 0.54223,  3: 0.20632,  2: 0.36194,  1: 3.02707
    38 |      | 35: 1.58856, 34: 0.13725, 33: 2.61463, 32: 0.81080, 31: 1.68494, 30:-0.46170, 29:-0.71638, 28:-1.32398, 27: 0.33263,
                26: 0.86253, 25:-1.85017, 24: 1.88772, 23:-2.24118, 22: 0.15518, 21: 1.08355, 20:-0.83969, 19:-3.73967, 18:-0.65336,
                17:-2.61970, 16: 0.42829, 15:-2.81012, 14:-0.01227, 13: 1.25838, 12: 1.30234, 11:-0.35430, 10:-0.14960,  9:-0.03321,
                 8: 0.37069,  7:-0.27693,  6: 0.71574,  5: 0.70703,  4:-0.93496,  3:-0.04689,  2:-1.27881,  1: 3.34972
    39 |      | 35: 0.17280, 34: 0.28162, 33:-0.94788, 32:-0.36903, 31:-1.33219, 30:-0.58968, 29:-0.85984, 28: 0.14215, 27:-0.34963,
                26: 1.44181, 25:-0.29708, 24:-0.03758, 23: 0.64484, 22:-0.64165, 21: 0.60748, 20: 0.32037, 19:-0.09602, 18: 0.75478,
                17:-0.80930, 16:-0.95012, 15:-0.07519, 14: 0.04527, 13: 0.21059, 12:-0.16430, 11: 1.11415, 10: 0.18494,  9: 0.89089,
                 8: 0.90244,  7:-0.79979,  6:-0.22991,  5: 2.10705,  4: 1.12677,  3:-0.37948,  2:-0.24483,  1:-0.90765
    40 |      | 35: 3.25788, 34: 0.53300, 33:-1.15115, 32:-1.04544, 31: 0.13481, 30:-0.89076, 29: 2.97206, 28: 1.61905, 27: 1.15807,
                26:-1.05979, 25: 0.00767, 24:-2.36353, 23: 4.05071, 22:-1.57824, 21:-0.08008, 20: 0.35623, 19: 0.35799, 18:-0.54728,
                17: 0.23924, 16: 0.29840, 15:-0.70022, 14:-0.08528, 13:-0.47372, 12:-0.53899, 11:-0.76472, 10: 0.70779,  9: 1.66031,
                 8:-0.66751,  7: 1.52500,  6: 1.06967,  5:-0.38817,  4:-1.23987,  3:-2.14013,  2:-1.35062,  1:-0.22623
    41 |      | 35: 0.13612, 34: 0.24105, 33:-1.61258, 32: 1.08820, 31: 1.04513, 30: 0.10714, 29: 0.64789, 28:-1.01486, 27: 0.25396,
                26: 0.01973, 25: 0.61793, 24: 0.48905, 23:-0.61693, 22: 0.82529, 21: 1.65860, 20:-0.79122, 19: 1.09648, 18: 0.13139,
                17: 1.01105, 16: 1.90890, 15:-0.47000, 14:-0.32870, 13:-0.62026, 12:-0.64960, 11: 1.72850, 10:-0.11164,  9: 0.09840,
                 8: 0.24149,  7: 0.83950,  6: 2.17959,  5:-1.13627,  4:-0.14857,  3:-0.75746,  2:-0.17536,  1:-0.89973
    42 |      | 35:-0.40894, 34: 0.75382, 33: 2.06668, 32: 1.07334, 31:-1.96742, 30: 0.15471, 29:-1.23607, 28: 1.90794, 27:-0.47423,
                26: 0.78090, 25:-1.35864, 24: 0.44470, 23: 1.74211, 22: 0.01987, 21:-0.54799, 20: 0.31629, 19: 0.25549, 18: 1.11573,
                17:-0.79974, 16:-0.37174, 15:-0.74459, 14:-0.30704, 13: 0.99919, 12: 1.53556, 11:-0.86790, 10:-0.20469,  9:-0.51919,
                 8: 1.18628,  7:-0.03802,  6: 1.29752,  5: 0.15543,  4:-2.39221,  3:-2.84988,  2:-2.04248,  1: 1.28418
    43 |      | 35: 1.63941, 34: 0.71162, 33:-0.00570, 32: 1.31032, 31: 1.34198, 30: 2.32283, 29:-1.50832, 28: 1.17289, 27:-1.04792,
                26:-0.31618, 25: 1.38802, 24:-0.02236, 23: 0.55802, 22: 1.19821, 21:-0.45879, 20:-0.13560, 19:-0.14783, 18: 1.30431,
                17:-0.53870, 16:-1.12242, 15:-0.04943, 14: 1.78288, 13:-0.76049, 12: 0.43314, 11:-1.34804, 10: 2.35197,  9: 0.06343,
                 8:-0.11758,  7: 1.78574,  6:-0.56088,  5:-2.47570,  4: 0.40637,  3:-1.11536,  2: 0.16556,  1:-2.06797
    44 |      | 35:-0.60892, 34:-2.25241, 33:-2.13574, 32:-1.41288, 31: 0.18585, 30: 0.73762, 29: 1.02070, 28: 0.65101, 27: 0.85240,
                26:-0.03687, 25: 1.56086, 24:-0.06784, 23: 1.44995, 22:-0.72588, 21: 0.53317, 20: 1.05198, 19:-1.78442, 18:-1.04466,
                17: 0.39593, 16: 0.81836, 15: 4.08072, 14: 1.23923, 13: 0.27229, 12: 1.00907, 11:-0.91506, 10: 0.96348,  9: 0.87702,
                 8: 0.84619,  7:-0.46069,  6:-0.19596,  5: 1.51002,  4: 0.41233,  3:-0.48921,  2: 0.00678,  1: 1.46877
    45 |      | 35:-1.61752, 34: 1.67679, 33: 1.73246, 32: 1.71752, 31:-0.97604, 30:-1.23802, 29: 1.27702, 28: 0.83651, 27: 0.52974,
                26:-0.36737, 25:-1.21284, 24: 0.41408, 23: 1.58223, 22:-0.11763, 21: 1.09670, 20:-0.59183, 19:-1.07562, 18:-1.92139,
                17:-0.31506, 16: 1.36146, 15: 0.08354, 14:-0.84579, 13: 0.19059, 12:-0.26078, 11:-0.48025, 10:-0.47700,  9: 0.78430,
                 8: 0.76827,  7: 0.83897,  6:-0.85424,  5:-0.22620,  4: 0.98222,  3: 1.58329,  2: 0.66192,  1: 1.41092
    46 |      | 45:-6.19444, 44: 0.84742, 43: 1.47325, 42:-2.39678, 41:-0.63244, 40:-2.22228, 39:-1.05809, 38:-2.93628, 37: 0.93283,
                36: 3.19974
    47 |      | 45: 2.70858, 44:-0.23882, 43: 3.00597, 42:-2.49091, 41:-1.18534, 40:-3.18918, 39:-5.59082, 38:-3.01947, 37: 2.86164,
                36: 2.48210
    48 |      | 45: 0.45036, 44:-4.93977, 43: 0.01231, 42:-1.67904, 41: 1.65194, 40:-1.45553, 39:-0.38087, 38: 2.65973, 37:-4.47380,
                36:-4.07597
    49 |      | 45: 0.95724, 44: 2.08415, 43: 0.89552, 42:-4.26169, 41:-1.53164, 40:-2.89436, 39:-4.26099, 38: 3.18601, 37: 2.29743,
                36:-3.72997
    50 |      | 45:-0.88938, 44:-4.18280, 43:-4.22177, 42:-2.92501, 41: 0.22652, 40:-1.79619, 39:-0.99275, 38: 2.75906, 37: 2.22871,
                36: 1.93310
    51 |      | 45: 0.68226, 44: 0.07057, 43:-8.07096, 42:-2.91974, 41: 1.03126, 40:-3.05614, 39: 1.10820, 38:-2.14393, 37: 0.83039,
                36:-4.57243
    52 |      | 45: 0.03509, 44:-5.42592, 43: 1.73218, 42:-1.39131, 41: 0.13071, 40:-1.28818, 39:-1.51424, 38:-3.01436, 37: 3.23110,
                36:-4.38141
    53 |      | 45:-5.50005, 44: 0.32819, 43:-0.15665, 42:-1.21376, 41:-0.85331, 40: 3.89706, 39:-0.39481, 38:-4.21257, 37: 1.77320,
                36:-3.65998
    54 |      | 45:-0.12018, 44:-3.76912, 43: 0.84750, 42: 4.28423, 41:-3.65169, 40:-0.56644, 39:-1.09503, 38:-3.08398, 37:-0.88071,
                36: 0.63937
    55 |      | 45: 0.04562, 44: 3.42076, 43: 0.62264, 42:-2.14931, 41:-6.12581, 40:-1.56509, 39:-0.02008, 38:-2.09513, 37:-3.31690,
                36: 0.16127
    56 |      | 45:-0.12057, 44: 0.12138, 43:-5.76979, 42:-0.51364, 41:-0.52822, 40: 2.11601, 39:-0.33474, 38: 1.35619, 37:-4.76732,
                36: 2.01279
    57 |      | 45:-1.04162, 44:-5.24532, 43:-2.68661, 42: 4.26677, 41: 0.18332, 40: 1.46937, 39:-2.45043, 38: 1.98883, 37: 0.16935,
                36:-1.98217
    58 |      | 45:-3.94285, 44: 0.64378, 43:-0.23445, 42:-2.30546, 41:-0.41464, 40: 2.82473, 39:-0.28298, 38: 2.02692, 37:-4.70321,
                36:-3.17624
    59 |      | 45:-5.78898, 44:-0.14473, 43:-0.36903, 42: 0.85432, 41:-0.62724, 40:-2.72006, 39:-1.88796, 38: 3.69288, 37: 3.07796,
                36:-4.35422
    60 |      | 45: 0.46073, 44: 2.42053, 43: 0.41235, 42:-3.37153, 41: 1.38761, 40:-3.14000, 39:-1.33987, 38:-3.99788, 37:-4.29143,
                36:-4.77743
    61 |      | 45: 0.07188, 44: 3.37743, 43:-5.29085, 42:-1.97511, 41:-0.22588, 40:-4.69295, 39:-2.10147, 38:-4.25088, 37: 0.37556,
                36: 4.05377
    62 |      | 45:-0.34789, 44: 1.13005, 43: 0.39609, 42:-3.72471, 41:-0.04176, 40: 3.71218, 39:-2.37841, 38:-3.83659, 37:-5.77729,
                36: 1.98086
    63 |      | 45: 0.69604, 44:-1.07939, 43:-3.10450, 42:-3.12349, 41:-1.99708, 40: 5.60539, 39:-3.24151, 38:-3.36583, 37: 2.79372,
                36: 2.55093
    64 |      | 45:-0.71789, 44:-5.56818, 43: 0.80579, 42:-2.60377, 41: 1.83831, 40:-1.29960, 39:-1.77812, 38:-4.07414, 37:-3.08265,
                36: 3.85095
    65 |      | 45:-0.19394, 44: 1.95832, 43:-4.45569, 42: 2.34402, 41:-4.54354, 40:-2.58715, 39:-2.07030, 38:-0.05365, 37: 1.44737,
                36: 0.86314
    66 |      | 45: 0.77833, 44: 1.17480, 43:-2.70833, 42: 4.42665, 41:-0.07643, 40:-4.82233, 39:-1.11283, 38: 1.35332, 37:-2.88994,
                36:-4.73216
    67 |      | 45: 0.79777, 44: 1.83591, 43:-5.46470, 42:-0.39034, 41:-0.60310, 40: 3.52432, 39:-2.29156, 38: 0.29387, 37: 0.98692,
                36:-5.68460
    68 |      | 45: 0.61814, 44: 0.51381, 43:-0.74206, 42: 3.57608, 41:-0.33176, 40: 2.72534, 39:-2.08467, 38:-4.18877, 37:-3.96305,
                36:-3.29338
    69 |      | 45:-4.95302, 44: 0.15245, 43:-0.05313, 42: 2.35721, 41:-0.58020, 40:-2.24858, 39:-2.28513, 38: 1.99410, 37:-3.22912,
                36: 2.58856
    70 |      | 45:-0.99503, 44: 0.41618, 43: 0.85119, 42: 2.65327, 41:-5.46103, 40: 3.23795, 39:-2.44525, 38: 0.92268, 37: 0.82801,
                36:-2.99302
    71 |      | 45:-0.54017, 44:-3.71592, 43: 0.47084, 42:-2.36526, 41:-3.80192, 40:-1.36525, 39:-1.33649, 38: 3.90449, 37:-3.26714,
                36: 3.61740
-------|------|---------------------------------------------------------------------------------------------------------------------
