SNNS network definition file V1.4-3D
generated at Wed Oct 25 18:54:36 2023

network name : lot1_utrd_b
source files :
no. of units : 60
no. of connections : 840
no. of unit types : 0
no. of site types : 0


learning function : JE_BP
update function   : JE_Order
init function     : JE_Weights


unit default section :

act      | bias     | st | subnet | layer | act func     | out func
---------|----------|----|--------|-------|--------------|-------------
 0.00000 |  0.00000 | h  |      0 |     1 | Act_Logistic | Out_Identity 
---------|----------|----|--------|-------|--------------|-------------


unit definition section :

no. | typeName | unitName | act      | bias     | st | position | act func     | out func | sites
----|----------|----------|----------|----------|----|----------|--------------|----------|-------
  1 |          | inp1     |  0.00000 |  0.22984 | i  |  1, 1, 0 | Act_Identity |          | 
  2 |          | inp2     |  0.00000 | -0.93528 | i  |  1, 2, 0 | Act_Identity |          | 
  3 |          | inp3     |  0.00000 | -0.11481 | i  |  1, 3, 0 | Act_Identity |          | 
  4 |          | inp4     |  0.00000 | -0.94252 | i  |  1, 4, 0 | Act_Identity |          | 
  5 |          | inp5     |  0.00000 | -0.60440 | i  |  1, 5, 0 | Act_Identity |          | 
  6 |          | inp6     |  0.00000 | -0.87715 | i  |  1, 6, 0 | Act_Identity |          | 
  7 |          | inp7     |  1.00000 | -0.90423 | i  |  1, 7, 0 | Act_Identity |          | 
  8 |          | inp8     |  0.00000 | -0.18020 | i  |  1, 8, 0 | Act_Identity |          | 
  9 |          | inp9     |  0.00000 |  0.18002 | i  |  1, 9, 0 | Act_Identity |          | 
 10 |          | inp10    |  0.00000 |  0.58390 | i  |  1,10, 0 | Act_Identity |          | 
 11 |          | hid1     |  0.32858 |  0.65435 | h  | 10, 1, 0 |||
 12 |          | hid2     |  0.14686 | -0.64699 | h  | 11, 1, 0 |||
 13 |          | hid3     |  0.43843 |  0.57990 | h  | 12, 1, 0 |||
 14 |          | hid4     |  0.20609 | -0.78819 | h  | 13, 1, 0 |||
 15 |          | hid5     |  0.54323 | -0.73190 | h  | 10, 2, 0 |||
 16 |          | hid6     |  0.64493 | -0.10078 | h  | 11, 2, 0 |||
 17 |          | hid7     |  0.74971 | -0.09393 | h  | 12, 2, 0 |||
 18 |          | hid8     |  0.81116 |  0.34536 | h  | 13, 2, 0 |||
 19 |          | hid9     |  0.56459 |  0.42468 | h  | 10, 3, 0 |||
 20 |          | hid10    |  0.80122 |  0.36118 | h  | 11, 3, 0 |||
 21 |          | hid11    |  0.33838 |  0.83414 | h  | 12, 3, 0 |||
 22 |          | hid12    |  0.22460 | -1.03551 | h  | 13, 3, 0 |||
 23 |          | hid13    |  0.53764 |  0.22044 | h  | 10, 4, 0 |||
 24 |          | hid14    |  0.54251 |  0.25527 | h  | 11, 4, 0 |||
 25 |          | hid15    |  0.40088 | -0.31323 | h  | 12, 4, 0 |||
 26 |          | hid16    |  0.47708 | -0.53876 | h  | 13, 4, 0 |||
 27 |          | hid17    |  0.37123 |  0.56221 | h  | 10, 5, 0 |||
 28 |          | hid18    |  0.47538 |  0.22730 | h  | 11, 5, 0 |||
 29 |          | hid19    |  0.59812 | -0.06738 | h  | 12, 5, 0 |||
 30 |          | hid20    |  0.73699 | -0.38003 | h  | 13, 5, 0 |||
 31 |          | out1     |  0.88532 | -0.02145 | o  | 19, 1, 0 |||
 32 |          | out2     |  0.09902 | -0.16360 | o  | 19, 2, 0 |||
 33 |          | out3     |  0.08154 | -1.38183 | o  | 19, 3, 0 |||
 34 |          | out4     |  0.05404 | -0.36812 | o  | 19, 4, 0 |||
 35 |          | out5     |  0.11879 | -0.72531 | o  | 19, 5, 0 |||
 36 |          | out6     |  0.09930 | -1.08425 | o  | 19, 6, 0 |||
 37 |          | out7     |  0.10972 |  0.06907 | o  | 19, 7, 0 |||
 38 |          | out8     |  0.06797 | -0.80580 | o  | 19, 8, 0 |||
 39 |          | out9     |  0.09968 | -0.43316 | o  | 19, 9, 0 |||
 40 |          | out10    |  0.06246 | -0.74549 | o  | 19,10, 0 |||
 41 |          | con1     |  0.00000 |  0.50000 | sh  |  4,12, 0 | Act_Identity |          | 
 42 |          | con2     |  0.00000 |  0.50000 | sh  |  5,12, 0 | Act_Identity |          | 
 43 |          | con3     |  0.00000 |  0.50000 | sh  |  6,12, 0 | Act_Identity |          | 
 44 |          | con4     |  0.00000 |  0.50000 | sh  |  7,12, 0 | Act_Identity |          | 
 45 |          | con5     |  0.00000 |  0.50000 | sh  |  4,13, 0 | Act_Identity |          | 
 46 |          | con6     |  0.00000 |  0.50000 | sh  |  5,13, 0 | Act_Identity |          | 
 47 |          | con7     |  0.00000 |  0.50000 | sh  |  6,13, 0 | Act_Identity |          | 
 48 |          | con8     |  0.00000 |  0.50000 | sh  |  7,13, 0 | Act_Identity |          | 
 49 |          | con9     |  0.00000 |  0.50000 | sh  |  4,14, 0 | Act_Identity |          | 
 50 |          | con10    |  0.00000 |  0.50000 | sh  |  5,14, 0 | Act_Identity |          | 
 51 |          | con11    |  0.00000 |  0.50000 | sh  |  6,14, 0 | Act_Identity |          | 
 52 |          | con12    |  0.00000 |  0.50000 | sh  |  7,14, 0 | Act_Identity |          | 
 53 |          | con13    |  0.00000 |  0.50000 | sh  |  4,15, 0 | Act_Identity |          | 
 54 |          | con14    |  0.00000 |  0.50000 | sh  |  5,15, 0 | Act_Identity |          | 
 55 |          | con15    |  0.00000 |  0.50000 | sh  |  6,15, 0 | Act_Identity |          | 
 56 |          | con16    |  0.00000 |  0.50000 | sh  |  7,15, 0 | Act_Identity |          | 
 57 |          | con17    |  0.00000 |  0.50000 | sh  |  4,16, 0 | Act_Identity |          | 
 58 |          | con18    |  0.00000 |  0.50000 | sh  |  5,16, 0 | Act_Identity |          | 
 59 |          | con19    |  0.00000 |  0.50000 | sh  |  6,16, 0 | Act_Identity |          | 
 60 |          | con20    |  0.00000 |  0.50000 | sh  |  7,16, 0 | Act_Identity |          | 
----|----------|----------|----------|----------|----|----------|--------------|----------|-------


connection definition section :

target | site | source:weight
-------|------|---------------------------------------------------------------------------------------------------------------------
    11 |      |  1: 0.77237,  2: 0.56545,  3:-0.34230,  4: 0.59021,  5: 0.83464,  6: 0.02362,  7:-1.37086,  8: 0.71009,  9: 0.74649,
                10: 0.61599, 41: 0.76102, 42:-0.07479, 43: 0.15960, 44:-0.88292, 45: 0.32867, 46:-0.71286, 47: 0.70403, 48: 0.61861,
                49: 0.19931, 50: 0.77871, 51:-0.38078, 52:-0.51251, 53:-0.40404, 54:-0.82219, 55: 0.23648, 56: 0.72625, 57:-0.03467,
                58:-0.41950, 59: 0.13694, 60: 0.66877
    12 |      |  1: 0.55312,  2: 0.32173,  3: 0.61419,  4:-0.93985,  5: 1.09773,  6: 0.72139,  7:-1.11328,  8:-0.11822,  9:-0.74115,
                10:-0.47230, 41: 0.19510, 42:-0.54946, 43:-0.22020, 44: 0.31638, 45:-0.09520, 46:-0.49474, 47:-0.27401, 48:-0.13659,
                49:-0.62921, 50: 0.58453, 51:-0.01082, 52:-0.61915, 53:-0.15396, 54: 0.60003, 55:-0.04025, 56: 0.16673, 57: 0.61219,
                58:-0.38845, 59: 0.15029, 60: 0.15500
    13 |      |  1: 0.99728,  2:-0.29094,  3: 0.18537,  4:-0.32195,  5:-0.75132,  6:-0.05504,  7:-0.82880,  8: 0.98658,  9:-0.88756,
                10: 0.32690, 41: 0.30895, 42:-0.21178, 43: 0.12148, 44:-0.03692, 45: 0.88989, 46: 0.56924, 47: 0.28069, 48:-0.43679,
                49:-0.91530, 50:-0.73886, 51:-0.38454, 52:-0.31242, 53: 0.92521, 54: 0.65571, 55:-0.43846, 56: 0.13328, 57:-0.71126,
                58: 0.00578, 59:-0.47523, 60: 0.63496
    14 |      |  1:-0.99959,  2: 1.65221,  3:-0.82971,  4: 0.89518,  5: 0.21504,  6:-0.18498,  7:-0.56236,  8:-0.94042,  9: 0.04404,
                10: 0.07989, 41:-0.35332, 42: 0.12708, 43: 0.25689, 44:-0.05761, 45: 0.77065, 46: 0.16000, 47:-0.07115, 48:-0.81298,
                49: 0.33072, 50: 0.05255, 51:-0.92400, 52: 0.12900, 53:-0.05129, 54:-0.01650, 55: 0.55028, 56:-0.00382, 57:-0.62227,
                58:-0.09383, 59: 0.80317, 60:-0.49347
    15 |      |  1: 0.65221,  2:-0.46816,  3:-0.88606,  4:-0.09065,  5:-0.75257,  6: 0.27107,  7: 0.90671,  8:-0.47259,  9:-0.74572,
                10: 0.22185, 41:-0.71944, 42: 0.20629, 43:-0.55913, 44:-0.10543, 45: 0.64174, 46:-0.48453, 47:-0.39435, 48:-0.88722,
                49:-0.73363, 50: 0.59867, 51: 0.73815, 52:-0.55998, 53:-0.29564, 54: 0.96830, 55:-0.53055, 56:-0.53463, 57:-0.02881,
                58:-0.21551, 59:-0.82350, 60:-0.01737
    16 |      |  1: 0.18792,  2: 1.45157,  3: 0.40179,  4: 0.14583,  5:-1.30925,  6: 0.82789,  7: 0.69776,  8:-0.31996,  9: 0.64008,
                10: 0.47194, 41:-0.51208, 42: 0.82440, 43: 0.61499, 44:-0.25715, 45: 0.26419, 46:-0.16401, 47:-0.30690, 48:-0.80467,
                49: 0.87796, 50:-0.83638, 51:-0.01268, 52:-0.52212, 53: 0.53461, 54: 0.00475, 55: 0.71848, 56:-0.79458, 57: 0.43016,
                58:-0.06953, 59: 0.70286, 60:-0.90609
    17 |      |  1:-0.56773,  2:-0.16515,  3: 0.32688,  4:-0.67205,  5: 0.55670,  6: 0.04184,  7: 1.19215,  8: 0.35932,  9: 0.66964,
                10: 0.43223, 41:-0.22535, 42:-0.34793, 43:-0.46265, 44:-0.82053, 45:-0.33679, 46:-0.31579, 47: 0.03735, 48:-0.76712,
                49:-0.95533, 50: 0.94962, 51: 0.77382, 52:-0.36013, 53:-0.70606, 54: 0.21483, 55:-0.45117, 56: 0.43915, 57:-0.23448,
                58: 0.13245, 59: 0.82442, 60: 0.79689
    18 |      |  1:-0.31909,  2:-1.47290,  3:-0.48010,  4:-0.68496,  5: 0.24858,  6: 0.92365,  7: 1.11423,  8:-0.08051,  9:-0.07972,
                10:-0.91230, 41:-0.64402, 42: 0.37930, 43: 0.44288, 44:-0.13147, 45: 0.69121, 46: 0.56596, 47:-0.63694, 48: 0.34119,
                49: 0.83498, 50: 0.44138, 51: 0.38528, 52: 0.44426, 53: 0.15628, 54:-0.54263, 55:-0.47530, 56: 0.91182, 57: 0.96535,
                58:-0.56396, 59:-0.74271, 60:-0.45553
    19 |      |  1:-0.12758,  2: 1.00841,  3:-0.63882,  4: 0.89202,  5:-0.03158,  6:-0.35703,  7:-0.16462,  8: 0.44561,  9:-0.21279,
                10:-0.60827, 41: 0.72397, 42: 0.12323, 43:-0.19841, 44: 0.85796, 45:-0.39792, 46: 0.92466, 47: 0.63722, 48:-0.81799,
                49:-0.20681, 50:-0.60651, 51:-0.76280, 52:-0.03795, 53: 0.73127, 54:-0.01208, 55:-0.70690, 56: 0.61097, 57:-0.64374,
                58: 0.89050, 59:-0.70697, 60:-0.40109
    20 |      |  1: 0.55943,  2: 0.49307,  3: 0.17918,  4: 0.53640,  5:-1.60625,  6: 0.41524,  7: 1.03456,  8:-0.98299,  9: 0.51834,
                10: 0.06603, 41:-0.17825, 42:-0.65542, 43:-0.08815, 44:-0.38278, 45: 0.78767, 46:-0.62632, 47:-0.15356, 48: 0.46572,
                49: 0.12656, 50:-0.56384, 51:-0.49467, 52: 0.60713, 53:-0.41245, 54:-0.28834, 55:-0.70671, 56:-0.77269, 57: 0.03531,
                58:-0.10744, 59:-0.43437, 60:-0.60295
    21 |      |  1:-0.52664,  2: 0.49908,  3: 0.78466,  4: 0.20699,  5: 0.65217,  6:-0.85289,  7:-1.50779,  8: 0.08889,  9: 0.18397,
                10:-0.13877, 41: 0.05271, 42: 0.54137, 43: 0.59235, 44: 0.90792, 45:-0.15977, 46:-0.08769, 47: 0.99180, 48: 0.53544,
                49:-0.88447, 50: 0.36619, 51: 0.03653, 52: 0.06522, 53: 0.17587, 54:-0.26588, 55: 0.84887, 56: 0.25456, 57: 0.07686,
                58: 0.48494, 59:-0.23087, 60:-0.06551
    22 |      |  1: 0.74168,  2:-0.59262,  3:-0.87212,  4: 0.94873,  5:-0.39226,  6: 0.98916,  7:-0.20348,  8: 0.19493,  9: 0.54151,
                10: 0.45134, 41:-0.74864, 42: 0.85778, 43: 0.19940, 44: 0.81687, 45: 0.18378, 46: 0.91852, 47: 0.87264, 48:-0.43637,
                49: 0.81385, 50:-0.30908, 51:-0.01746, 52: 0.49053, 53: 0.94649, 54: 0.51138, 55:-0.10345, 56: 0.41382, 57: 0.85512,
                58:-0.41899, 59:-0.11830, 60:-0.60775
    23 |      |  1: 0.49985,  2:-0.83180,  3: 0.37520,  4:-0.36695,  5:-0.87406,  6:-0.55596,  7:-0.06832,  8: 0.79123,  9:-0.70758,
                10: 0.88007, 41: 0.73901, 42: 0.64116, 43: 0.18330, 44: 0.69570, 45:-0.16588, 46:-0.08787, 47: 0.34663, 48:-0.28600,
                49: 0.42564, 50: 0.58915, 51:-0.60659, 52:-0.65389, 53:-0.08991, 54: 0.76787, 55:-0.01435, 56:-0.92680, 57:-0.53954,
                58:-0.88197, 59:-0.82474, 60: 0.88955
    24 |      |  1:-0.64543,  2:-0.54611,  3:-0.91840,  4: 0.33830,  5: 0.79318,  6: 0.70374,  7:-0.08477,  8:-0.81361,  9:-0.99401,
                10:-0.90739, 41: 0.55030, 42:-0.86689, 43: 0.75232, 44: 0.84287, 45:-0.98704, 46: 0.61595, 47: 0.91598, 48: 0.89563,
                49: 0.60371, 50:-0.12108, 51:-0.09299, 52:-0.92896, 53: 0.14132, 54: 0.38836, 55: 0.74622, 56:-0.99729, 57:-0.72941,
                58:-0.64410, 59: 0.80543, 60: 0.00743
    25 |      |  1:-0.18045,  2:-0.35374,  3: 0.70294,  4: 0.53658,  5: 0.88727,  6:-0.58961,  7:-0.08887,  8: 0.70325,  9:-0.43056,
                10: 0.89495, 41: 0.69234, 42:-0.42035, 43:-0.18137, 44:-0.36936, 45: 0.02370, 46:-0.05321, 47: 0.90907, 48: 0.55461,
                49:-0.53979, 50:-0.17801, 51: 0.72911, 52: 0.71517, 53:-0.74015, 54: 0.04002, 55:-0.55496, 56:-0.36481, 57: 0.59374,
                58:-0.96857, 59:-0.13460, 60:-0.42110
    26 |      |  1:-0.06087,  2:-1.02494,  3:-0.04480,  4:-0.19260,  5: 1.75496,  6: 0.47937,  7: 0.44773,  8:-0.87223,  9: 0.68393,
                10: 0.02175, 41:-0.63317, 42:-0.56163, 43: 0.24204, 44: 0.06662, 45:-0.83811, 46: 0.29100, 47: 0.73439, 48:-0.21610,
                49:-0.05459, 50:-0.47698, 51: 0.02633, 52:-0.36889, 53:-0.66177, 54:-0.28257, 55: 0.02346, 56:-0.84878, 57: 0.74982,
                58: 0.37943, 59:-0.01399, 60: 0.79192
    27 |      |  1:-0.67012,  2: 0.41322,  3:-0.39286,  4: 0.48326,  5: 0.17432,  6: 0.11282,  7:-1.09147,  8:-0.50485,  9: 0.36064,
                10:-0.61216, 41:-0.37404, 42:-0.87626, 43:-0.80169, 44:-0.75396, 45: 0.27611, 46: 0.54850, 47:-0.66551, 48: 0.58155,
                49: 0.11297, 50:-0.47833, 51: 0.23612, 52:-0.21076, 53:-0.76161, 54: 0.66335, 55:-0.55119, 56:-0.64728, 57: 0.93410,
                58: 0.07706, 59: 0.89950, 60:-0.57281
    28 |      |  1: 0.71596,  2: 0.59309,  3: 0.17483,  4:-0.88650,  5:-0.67634,  6:-0.86200,  7:-0.32603,  8:-0.73085,  9:-0.96066,
                10: 0.67165, 41: 0.60280, 42:-0.70950, 43: 0.43970, 44: 0.49880, 45:-0.55355, 46: 0.07079, 47:-0.25270, 48:-0.54291,
                49: 0.08812, 50:-0.02092, 51:-0.07364, 52:-0.88034, 53:-0.59051, 54: 0.15708, 55:-0.96303, 56: 0.22443, 57:-0.81252,
                58:-0.93876, 59: 0.47223, 60:-0.69056
    29 |      |  1: 0.01662,  2:-0.53809,  3:-0.15533,  4: 0.90075,  5: 1.28868,  6:-0.06476,  7: 0.46560,  8:-0.68150,  9: 0.95731,
                10:-0.76279, 41: 0.91359, 42: 0.50532, 43: 0.19871, 44: 0.52511, 45:-0.46922, 46: 0.07939, 47:-0.54976, 48:-0.13192,
                49:-0.19417, 50:-0.42804, 51: 0.01313, 52:-0.75824, 53:-0.62227, 54:-0.00325, 55:-0.29537, 56: 0.87235, 57: 0.59035,
                58:-0.14664, 59:-0.19543, 60: 0.94150
    30 |      |  1: 0.86662,  2: 0.44242,  3: 0.94208,  4:-0.34658,  5:-1.00039,  6: 0.94445,  7: 1.41272,  8:-0.65115,  9:-0.95915,
                10:-0.35475, 41: 0.74329, 42:-0.15799, 43: 0.87716, 44:-0.56233, 45:-0.52293, 46:-0.97803, 47: 0.52074, 48:-0.00402,
                49:-0.46681, 50: 0.34494, 51:-0.70873, 52:-0.33836, 53:-0.44490, 54: 0.83141, 55: 0.82970, 56: 0.47332, 57:-0.03183,
                58:-0.62938, 59: 0.75759, 60:-0.71588
    31 |      | 11:-1.71771, 12:-1.48354, 13: 0.37295, 14:-0.84035, 15: 1.57216, 16:-0.46494, 17: 0.46443, 18: 1.50781, 19: 0.05077,
                20: 0.62899, 21:-1.38672, 22:-0.37488, 23: 1.18300, 24: 0.37916, 25:-0.23098, 26:-0.00612, 27:-0.62189, 28: 0.20087,
                29:-0.63607, 30: 0.72950
    32 |      | 11: 0.10279, 12:-0.80858, 13:-0.49621, 14:-0.78710, 15:-0.22169, 16:-0.71469, 17: 0.07866, 18:-0.80318, 19:-0.48686,
                20: 0.50324, 21:-0.31718, 22: 0.42110, 23:-0.03236, 24: 0.03547, 25: 0.41672, 26:-0.59545, 27:-1.23221, 28:-0.37418,
                29:-0.39232, 30: 0.62915
    33 |      | 11:-0.05958, 12: 0.40501, 13:-0.69290, 14:-0.66103, 15: 0.70054, 16: 0.36750, 17:-0.98114, 18:-0.01493, 19: 0.13850,
                20:-0.85288, 21:-0.35409, 22: 0.70151, 23:-0.40079, 24: 0.00191, 25: 0.39899, 26:-0.91410, 27: 0.14713, 28: 0.71027,
                29: 0.06437, 30: 0.15966
    34 |      | 11: 0.19173, 12: 0.25123, 13: 0.73373, 14: 0.10423, 15:-0.24667, 16: 0.11874, 17:-1.16475, 18:-1.09970, 19:-0.10341,
                20: 0.60899, 21:-1.18392, 22:-0.26467, 23: 0.51473, 24:-0.08567, 25: 0.25742, 26:-0.30727, 27:-1.06490, 28:-0.01982,
                29:-0.04940, 30:-1.13535
    35 |      | 11:-0.17463, 12:-0.37542, 13: 0.88338, 14: 1.50882, 15: 0.39694, 16: 0.94431, 17:-0.87226, 18:-1.61071, 19: 0.58415,
                20:-0.02493, 21: 1.19361, 22:-0.13948, 23: 0.08356, 24:-0.37136, 25:-0.05870, 26:-1.75109, 27: 0.64346, 28: 1.01362,
                29:-1.52505, 30:-0.29921
    36 |      | 11:-0.81359, 12:-0.79952, 13:-0.83328, 14: 0.71964, 15:-0.64539, 16: 0.18348, 17:-0.85858, 18: 0.39339, 19:-0.95684,
                20: 0.73438, 21:-0.34165, 22:-0.95293, 23:-0.61971, 24: 0.74298, 25: 0.43611, 26: 0.57134, 27:-1.05615, 28:-0.79027,
                29: 0.76460, 30: 0.15251
    37 |      | 11: 0.30855, 12: 0.33973, 13: 0.65701, 14: 0.03883, 15:-0.12399, 16:-1.76752, 17: 0.08796, 18: 0.44209, 19:-0.86955,
                20:-1.91464, 21: 0.34741, 22:-0.33690, 23:-0.00572, 24: 0.78737, 25: 0.09919, 26: 1.35717, 27: 0.87622, 28:-0.78807,
                29: 0.51939, 30:-1.67046
    38 |      | 11:-0.59760, 12: 0.15068, 13: 0.69275, 14: 0.55506, 15:-0.83080, 16:-0.19305, 17:-0.51598, 18: 0.26219, 19:-0.64966,
                20: 0.07020, 21:-1.01145, 22: 0.21944, 23:-0.69258, 24: 0.28922, 25:-0.45972, 26:-0.26011, 27: 0.32089, 28: 0.49737,
                29:-1.10307, 30: 0.16977
    39 |      | 11:-1.24576, 12:-0.00335, 13:-0.77005, 14:-0.06197, 15: 0.16939, 16:-0.27670, 17:-0.41068, 18: 0.28258, 19: 0.02598,
                20: 0.29364, 21: 0.27736, 22:-0.21233, 23: 0.34286, 24: 0.11602, 25:-0.21144, 26:-0.66895, 27: 0.18431, 28: 0.06036,
                29:-0.19355, 30:-1.30686
    40 |      | 11: 0.15795, 12:-0.37480, 13: 0.03920, 14: 0.11047, 15:-0.33964, 16:-0.10957, 17: 0.58911, 18:-1.30874, 19:-0.00395,
                20:-0.03471, 21:-0.21534, 22: 0.57351, 23:-0.33729, 24: 0.13179, 25:-0.35827, 26: 0.31125, 27: 0.14708, 28:-1.31118,
                29:-1.11394, 30: 0.25670
    41 |      | 11: 0.00000, 41: 1.00000
    42 |      | 12: 0.00000, 42: 1.00000
    43 |      | 13: 0.00000, 43: 1.00000
    44 |      | 14: 0.00000, 44: 1.00000
    45 |      | 15: 0.00000, 45: 1.00000
    46 |      | 16: 0.00000, 46: 1.00000
    47 |      | 17: 0.00000, 47: 1.00000
    48 |      | 18: 0.00000, 48: 1.00000
    49 |      | 19: 0.00000, 49: 1.00000
    50 |      | 20: 0.00000, 50: 1.00000
    51 |      | 21: 0.00000, 51: 1.00000
    52 |      | 22: 0.00000, 52: 1.00000
    53 |      | 23: 0.00000, 53: 1.00000
    54 |      | 24: 0.00000, 54: 1.00000
    55 |      | 25: 0.00000, 55: 1.00000
    56 |      | 26: 0.00000, 56: 1.00000
    57 |      | 27: 0.00000, 57: 1.00000
    58 |      | 28: 0.00000, 58: 1.00000
    59 |      | 29: 0.00000, 59: 1.00000
    60 |      | 30: 0.00000, 60: 1.00000
-------|------|---------------------------------------------------------------------------------------------------------------------
