SNNS network definition file V1.4-3D
generated at Wed Oct 25 21:00:40 2023

network name : lot1_utrd_ver_init
source files :
no. of units : 60
no. of connections : 840
no. of unit types : 0
no. of site types : 0


learning function : JE_BP
update function   : JE_Order
init function     : JE_Weights


unit default section :

act      | bias     | st | subnet | layer | act func     | out func
---------|----------|----|--------|-------|--------------|-------------
 0.00000 |  0.00000 | h  |      0 |     1 | Act_Logistic | Out_Identity 
---------|----------|----|--------|-------|--------------|-------------


unit definition section :

no. | typeName | unitName | act      | bias     | st | position | act func     | out func | sites
----|----------|----------|----------|----------|----|----------|--------------|----------|-------
  1 |          | inp1     |  0.00000 |  0.82335 | i  |  1, 1, 0 | Act_Identity |          | 
  2 |          | inp2     |  0.00000 | -0.79265 | i  |  1, 2, 0 | Act_Identity |          | 
  3 |          | inp3     |  0.00000 | -0.07013 | i  |  1, 3, 0 | Act_Identity |          | 
  4 |          | inp4     |  0.00000 |  0.73556 | i  |  1, 4, 0 | Act_Identity |          | 
  5 |          | inp5     |  0.00000 | -0.16284 | i  |  1, 5, 0 | Act_Identity |          | 
  6 |          | inp6     |  0.00000 |  0.89324 | i  |  1, 6, 0 | Act_Identity |          | 
  7 |          | inp7     |  0.00000 |  0.85732 | i  |  1, 7, 0 | Act_Identity |          | 
  8 |          | inp8     |  0.00000 |  0.93172 | i  |  1, 8, 0 | Act_Identity |          | 
  9 |          | inp9     |  0.00000 | -0.76848 | i  |  1, 9, 0 | Act_Identity |          | 
 10 |          | inp10    |  0.00000 | -0.00632 | i  |  1,10, 0 | Act_Identity |          | 
 11 |          | hid1     |  0.00000 | -0.43098 | h  | 10, 1, 0 |||
 12 |          | hid2     |  0.00000 | -0.76057 | h  | 11, 1, 0 |||
 13 |          | hid3     |  0.00000 |  0.81814 | h  | 12, 1, 0 |||
 14 |          | hid4     |  0.00000 |  0.67351 | h  | 13, 1, 0 |||
 15 |          | hid5     |  0.00000 |  0.56956 | h  | 10, 2, 0 |||
 16 |          | hid6     |  0.00000 |  0.23542 | h  | 11, 2, 0 |||
 17 |          | hid7     |  0.00000 |  0.56758 | h  | 12, 2, 0 |||
 18 |          | hid8     |  0.00000 |  0.03313 | h  | 13, 2, 0 |||
 19 |          | hid9     |  0.00000 |  0.98897 | h  | 10, 3, 0 |||
 20 |          | hid10    |  0.00000 | -0.04648 | h  | 11, 3, 0 |||
 21 |          | hid11    |  0.00000 |  0.99803 | h  | 12, 3, 0 |||
 22 |          | hid12    |  0.00000 | -0.52053 | h  | 13, 3, 0 |||
 23 |          | hid13    |  0.00000 | -0.77853 | h  | 10, 4, 0 |||
 24 |          | hid14    |  0.00000 |  0.58666 | h  | 11, 4, 0 |||
 25 |          | hid15    |  0.00000 |  0.79572 | h  | 12, 4, 0 |||
 26 |          | hid16    |  0.00000 | -0.54496 | h  | 13, 4, 0 |||
 27 |          | hid17    |  0.00000 | -0.99515 | h  | 10, 5, 0 |||
 28 |          | hid18    |  0.00000 | -0.64764 | h  | 11, 5, 0 |||
 29 |          | hid19    |  0.00000 | -0.03856 | h  | 12, 5, 0 |||
 30 |          | hid20    |  0.00000 | -0.96603 | h  | 13, 5, 0 |||
 31 |          | out1     |  0.00000 |  0.56767 | o  | 19, 1, 0 |||
 32 |          | out2     |  0.00000 | -0.46758 | o  | 19, 2, 0 |||
 33 |          | out3     |  0.00000 | -0.16545 | o  | 19, 3, 0 |||
 34 |          | out4     |  0.00000 |  0.17448 | o  | 19, 4, 0 |||
 35 |          | out5     |  0.00000 |  0.40088 | o  | 19, 5, 0 |||
 36 |          | out6     |  0.00000 | -0.01031 | o  | 19, 6, 0 |||
 37 |          | out7     |  0.00000 |  0.33231 | o  | 19, 7, 0 |||
 38 |          | out8     |  0.00000 | -0.49711 | o  | 19, 8, 0 |||
 39 |          | out9     |  0.00000 |  0.55431 | o  | 19, 9, 0 |||
 40 |          | out10    |  0.00000 |  0.43270 | o  | 19,10, 0 |||
 41 |          | con1     |  0.00000 |  0.50000 | sh  |  4,12, 0 | Act_Identity |          | 
 42 |          | con2     |  0.00000 |  0.50000 | sh  |  5,12, 0 | Act_Identity |          | 
 43 |          | con3     |  0.00000 |  0.50000 | sh  |  6,12, 0 | Act_Identity |          | 
 44 |          | con4     |  0.00000 |  0.50000 | sh  |  7,12, 0 | Act_Identity |          | 
 45 |          | con5     |  0.00000 |  0.50000 | sh  |  4,13, 0 | Act_Identity |          | 
 46 |          | con6     |  0.00000 |  0.50000 | sh  |  5,13, 0 | Act_Identity |          | 
 47 |          | con7     |  0.00000 |  0.50000 | sh  |  6,13, 0 | Act_Identity |          | 
 48 |          | con8     |  0.00000 |  0.50000 | sh  |  7,13, 0 | Act_Identity |          | 
 49 |          | con9     |  0.00000 |  0.50000 | sh  |  4,14, 0 | Act_Identity |          | 
 50 |          | con10    |  0.00000 |  0.50000 | sh  |  5,14, 0 | Act_Identity |          | 
 51 |          | con11    |  0.00000 |  0.50000 | sh  |  6,14, 0 | Act_Identity |          | 
 52 |          | con12    |  0.00000 |  0.50000 | sh  |  7,14, 0 | Act_Identity |          | 
 53 |          | con13    |  0.00000 |  0.50000 | sh  |  4,15, 0 | Act_Identity |          | 
 54 |          | con14    |  0.00000 |  0.50000 | sh  |  5,15, 0 | Act_Identity |          | 
 55 |          | con15    |  0.00000 |  0.50000 | sh  |  6,15, 0 | Act_Identity |          | 
 56 |          | con16    |  0.00000 |  0.50000 | sh  |  7,15, 0 | Act_Identity |          | 
 57 |          | con17    |  0.00000 |  0.50000 | sh  |  4,16, 0 | Act_Identity |          | 
 58 |          | con18    |  0.00000 |  0.50000 | sh  |  5,16, 0 | Act_Identity |          | 
 59 |          | con19    |  0.00000 |  0.50000 | sh  |  6,16, 0 | Act_Identity |          | 
 60 |          | con20    |  0.00000 |  0.50000 | sh  |  7,16, 0 | Act_Identity |          | 
----|----------|----------|----------|----------|----|----------|--------------|----------|-------


connection definition section :

target | site | source:weight
-------|------|---------------------------------------------------------------------------------------------------------------------
    11 |      |  1:-0.73370,  2:-0.56121,  3: 0.94545,  4: 0.72775,  5: 0.61375,  6:-0.80063,  7:-0.86869,  8:-0.39943,  9:-0.94579,
                10:-0.77829, 41:-0.93393, 42: 0.28346, 43:-0.62898, 44:-0.31689, 45: 0.09759, 46: 0.94065, 47:-0.20296, 48:-0.14265,
                49:-0.77940, 50:-0.27170, 51: 0.11467, 52: 0.75731, 53:-0.87533, 54:-0.72656, 55: 0.69077, 56:-0.62319, 57: 0.94112,
                58:-0.40056, 59:-0.08503, 60: 0.31818
    12 |      |  1:-0.49835,  2: 0.39756,  3: 0.80636,  4: 0.78790,  5:-0.30537,  6: 0.73504,  7: 0.41652,  8: 0.29614,  9:-0.96337,
                10:-0.30695, 41:-0.52671, 42:-0.12825, 43:-0.91152, 44: 0.28957, 45:-0.19713, 46: 0.04768, 47: 0.83069, 48:-0.05056,
                49:-0.78412, 50:-0.01779, 51: 0.03390, 52:-0.91738, 53: 0.24228, 54: 0.53365, 55: 0.38807, 56:-0.98450, 57:-0.19978,
                58: 0.31733, 59:-0.27766, 60:-0.94830
    13 |      |  1:-0.76652,  2:-0.48736,  3:-0.10391,  4:-0.39810,  5:-0.80005,  6:-0.75796,  7:-0.94405,  8: 0.79398,  9:-0.45985,
                10:-0.74078, 41: 0.91350, 42: 0.05440, 43: 0.49131, 44: 0.62606, 45: 0.69401, 46:-0.36043, 47: 0.15514, 48:-0.54794,
                49: 0.74922, 50:-0.50337, 51: 0.67645, 52: 0.62201, 53: 0.62308, 54: 0.55186, 55:-0.01260, 56: 0.21788, 57:-0.08051,
                58:-0.12956, 59:-0.20274, 60:-0.25667
    14 |      |  1:-0.78625,  2: 0.05935,  3: 0.25245,  4:-0.17044,  5: 0.22489,  6:-0.45256,  7:-0.72298,  8: 0.61373,  9: 0.63317,
                10: 0.78010, 41: 0.99856, 42:-0.41927, 43: 0.17736, 44: 0.92005, 45:-0.77427, 46: 0.41862, 47:-0.30806, 48:-0.25884,
                49:-0.44019, 50:-0.82842, 51: 0.36242, 52:-0.18824, 53: 0.65183, 54:-0.67022, 55:-0.49132, 56:-0.07769, 57: 0.00872,
                58:-0.36168, 59:-0.53227, 60:-0.06064
    15 |      |  1:-0.13079,  2:-0.11789,  3: 0.86502,  4: 0.76878,  5: 0.02176,  6: 0.71224,  7: 0.31247,  8: 0.39580,  9: 0.27865,
                10:-0.06953, 41:-0.02139, 42: 0.95953, 43:-0.17283, 44: 0.56511, 45:-0.66725, 46: 0.02343, 47: 0.60449, 48: 0.58031,
                49:-0.31106, 50: 0.98993, 51:-0.13978, 52:-0.86520, 53:-0.64637, 54: 0.82096, 55:-0.16572, 56:-0.21797, 57: 0.62191,
                58: 0.26929, 59:-0.02327, 60: 0.97598
    16 |      |  1: 0.29020,  2: 0.11326,  3: 0.24215,  4:-0.56587,  5:-0.32336,  6:-0.62465,  7:-0.93198,  8: 0.06987,  9: 0.72869,
                10:-0.86957, 41: 0.06144, 42: 0.26035, 43: 0.38829, 44:-0.40806, 45:-0.58816, 46:-0.17614, 47: 0.04668, 48:-0.73858,
                49: 0.95551, 50:-0.95782, 51:-0.19012, 52: 0.32109, 53:-0.92695, 54: 0.16595, 55: 0.87828, 56:-0.00902, 57: 0.70879,
                58: 0.23532, 59:-0.30680, 60:-0.40570
    17 |      |  1:-0.80940,  2: 0.30451,  3: 0.51122,  4: 0.17527,  5:-0.43806,  6:-0.96054,  7: 0.68666,  8: 0.24171,  9:-0.85654,
                10: 0.87096, 41: 0.20184, 42: 0.48853, 43: 0.58283, 44:-0.90022, 45: 0.40260, 46:-0.25795, 47: 0.57730, 48: 0.13564,
                49:-0.05292, 50:-0.81886, 51: 0.90843, 52:-0.31986, 53:-0.89167, 54:-0.19838, 55:-0.36798, 56: 0.72276, 57: 0.92932,
                58: 0.63789, 59:-0.14954, 60:-0.95802
    18 |      |  1: 0.38667,  2: 0.33314,  3:-0.21407,  4:-0.33743,  5: 0.71936,  6:-0.76413,  7:-0.03898,  8:-0.04714,  9: 0.75482,
                10: 0.94187, 41:-0.10039, 42: 0.58944, 43:-0.50779, 44: 0.96198, 45:-0.03379, 46:-0.60107, 47:-0.83189, 48:-0.53392,
                49: 0.70016, 50: 0.56333, 51:-0.21063, 52: 0.66697, 53: 0.42666, 54: 0.00250, 55: 0.88597, 56: 0.45531, 57: 0.08823,
                58: 0.97311, 59: 0.79814, 60: 0.62193
    19 |      |  1:-0.51214,  2: 0.63091,  3:-0.84626,  4:-0.51794,  5:-0.85944,  6:-0.96373,  7: 0.62085,  8: 0.88838,  9:-0.82891,
                10:-0.02403, 41:-0.02590, 42:-0.52390, 43: 0.93157, 44:-0.07440, 45:-0.74769, 46: 0.86643, 47: 0.59908, 48:-0.95388,
                49: 0.08150, 50: 0.31268, 51:-0.73025, 52:-0.28992, 53:-0.51851, 54: 0.82420, 55:-0.81911, 56:-0.44309, 57:-0.36016,
                58:-0.18592, 59: 0.42713, 60:-0.31045
    20 |      |  1: 0.92426,  2:-0.68221,  3: 0.53162,  4:-0.02535,  5:-0.14943,  6:-0.41062,  7: 0.65270,  8: 0.84926,  9:-0.37425,
                10:-0.36997, 41:-0.95556, 42:-0.45517, 43:-0.96499, 44:-0.74648, 45: 0.99240, 46: 0.48184, 47:-0.90370, 48: 0.40773,
                49: 0.03037, 50:-0.80793, 51: 0.13720, 52: 0.51430, 53:-0.72650, 54: 0.11736, 55: 0.59072, 56: 0.38006, 57:-0.41669,
                58: 0.65027, 59:-0.29816, 60: 0.23088
    21 |      |  1:-0.26450,  2:-0.27958,  3: 0.30122,  4:-0.76764,  5:-0.25157,  6: 0.53109,  7: 0.43840,  8:-0.02544,  9: 0.61563,
                10: 0.05924, 41: 0.69344, 42: 0.44213, 43: 0.12929, 44:-0.94139, 45: 0.17983, 46:-0.95159, 47:-0.25832, 48:-0.76004,
                49: 0.36653, 50:-0.97388, 51: 0.63215, 52:-0.80595, 53: 0.18126, 54: 0.98630, 55: 0.06371, 56: 0.59258, 57:-0.94945,
                58: 0.29329, 59:-0.24829, 60:-0.04221
    22 |      |  1: 0.03361,  2:-0.36348,  3:-0.54068,  4:-0.36803,  5:-0.43399,  6:-0.21360,  7: 0.15298,  8: 0.23366,  9: 0.07474,
                10:-0.42406, 41: 0.59266, 42:-0.92400, 43:-0.78609, 44:-0.57206, 45:-0.56257, 46: 0.51386, 47: 0.42640, 48:-0.36968,
                49:-0.49798, 50: 0.14676, 51: 0.54087, 52: 0.62020, 53:-0.53932, 54: 0.85627, 55:-0.91897, 56: 0.96004, 57: 0.26079,
                58: 0.50383, 59: 0.74384, 60:-0.47085
    23 |      |  1: 0.81179,  2:-0.30798,  3: 0.45025,  4:-0.88026,  5:-0.34192,  6:-0.26976,  7: 0.41682,  8:-0.52092,  9: 0.58659,
                10: 0.75436, 41:-0.44826, 42:-0.70589, 43:-0.38864, 44: 0.83653, 45:-0.89924, 46:-0.08327, 47: 0.18447, 48:-0.71557,
                49:-0.74744, 50:-0.49926, 51:-0.21591, 52:-0.56598, 53:-0.49319, 54:-0.19164, 55: 0.20859, 56: 0.83913, 57:-0.67230,
                58:-0.78190, 59:-0.94863, 60: 0.03887
    24 |      |  1: 0.18006,  2: 0.66579,  3: 0.93971,  4: 0.49667,  5:-0.77393,  6:-0.63729,  7:-0.13861,  8:-0.42734,  9: 0.88539,
                10: 0.73980, 41:-0.12263, 42: 0.53878, 43: 0.75366, 44: 0.51226, 45: 0.73582, 46:-0.81878, 47:-0.37112, 48:-0.44004,
                49:-0.52237, 50:-0.22682, 51: 0.52212, 52: 0.15559, 53: 0.06508, 54: 0.95236, 55:-0.22514, 56:-0.50943, 57: 0.68724,
                58:-0.39413, 59: 0.11712, 60:-0.86407
    25 |      |  1: 0.42623,  2:-0.23116,  3:-0.59899,  4: 0.82239,  5: 0.07808,  6: 0.45779,  7:-0.41275,  8: 0.50685,  9: 0.30915,
                10:-0.82332, 41:-0.24984, 42: 0.97868, 43: 0.52051, 44:-0.34819, 45: 0.12298, 46: 0.45245, 47:-0.82994, 48: 0.71174,
                49: 0.12913, 50:-0.54663, 51:-0.47471, 52:-0.76511, 53: 0.69887, 54: 0.84015, 55:-0.46562, 56: 0.17297, 57:-0.84570,
                58: 0.06705, 59: 0.49240, 60:-0.31071
    26 |      |  1: 0.76006,  2: 0.50625,  3: 0.95743,  4: 0.28823,  5: 0.99691,  6: 0.98976,  7:-0.77998,  8: 0.99654,  9:-0.00415,
                10: 0.25099, 41: 0.73805, 42:-0.71096, 43: 0.14570, 44: 0.08614, 45: 0.03905, 46: 0.16384, 47:-0.54393, 48: 0.80855,
                49:-0.98709, 50:-0.45041, 51:-0.83004, 52:-0.32668, 53:-0.13346, 54:-0.62648, 55:-0.84300, 56:-0.21543, 57:-0.46493,
                58: 0.58541, 59: 0.07853, 60:-0.41081
    27 |      |  1:-0.92334,  2:-0.43074,  3: 0.47980,  4:-0.87788,  5: 0.36634,  6:-0.21334,  7: 0.08537,  8:-0.82507,  9:-0.21361,
                10:-0.29135, 41:-0.03075, 42: 0.02240, 43: 0.05970, 44:-0.82672, 45: 0.85343, 46:-0.67377, 47: 0.46802, 48:-0.39214,
                49:-0.46834, 50: 0.87999, 51: 0.06319, 52: 0.03867, 53:-0.56923, 54:-0.15986, 55:-0.13542, 56:-0.25153, 57:-0.34439,
                58:-0.60644, 59: 0.95406, 60:-0.10335
    28 |      |  1:-0.05628,  2: 0.54704,  3:-0.33579,  4: 0.61252,  5: 0.00398,  6: 0.16645,  7: 0.76030,  8:-0.10304,  9:-0.26588,
                10: 0.13315, 41: 0.24428, 42:-0.71211, 43: 0.37384, 44: 0.83193, 45:-0.00788, 46: 0.69620, 47:-0.01407, 48: 0.21046,
                49:-0.72838, 50:-0.39928, 51:-0.96328, 52:-0.72129, 53: 0.88925, 54:-0.16742, 55:-0.12774, 56:-0.97167, 57:-0.57563,
                58:-0.58252, 59:-0.60274, 60: 0.18322
    29 |      |  1:-0.65293,  2: 0.87733,  3: 0.99072,  4: 0.34958,  5:-0.61978,  6: 0.25306,  7:-0.69691,  8: 0.83405,  9:-0.69025,
                10: 0.51192, 41: 0.38563, 42:-0.51346, 43: 0.52010, 44: 0.18712, 45:-0.90620, 46:-0.62936, 47: 0.77646, 48:-0.03526,
                49: 0.62900, 50: 0.07314, 51:-0.08405, 52: 0.54508, 53: 0.32165, 54: 0.95894, 55:-0.93776, 56:-0.46832, 57:-0.41981,
                58:-0.78821, 59: 0.98367, 60:-0.73623
    30 |      |  1: 0.94162,  2:-0.19296,  3: 0.56138,  4: 0.20280,  5: 0.00243,  6:-0.75387,  7:-0.44160,  8: 0.93265,  9: 0.89736,
                10:-0.70843, 41: 0.73963, 42:-0.00096, 43:-0.43138, 44:-0.36577, 45:-0.59714, 46: 0.32069, 47: 0.89022, 48:-0.61873,
                49: 0.80652, 50: 0.23772, 51:-0.69180, 52:-0.49149, 53:-0.14669, 54: 0.35134, 55: 0.90479, 56: 0.33354, 57:-0.74084,
                58:-0.97512, 59: 0.89387, 60: 0.66692
    31 |      | 11:-0.69186, 12:-0.52842, 13:-0.50131, 14:-0.76047, 15: 0.73332, 16:-0.57058, 17:-0.38207, 18:-0.63593, 19: 0.07903,
                20:-0.03802, 21: 0.67695, 22: 0.64073, 23: 0.21127, 24:-0.26396, 25: 0.34941, 26:-0.66119, 27: 0.86143, 28:-0.80603,
                29:-0.43570, 30: 0.48651
    32 |      | 11: 0.99882, 12:-0.28766, 13:-0.07009, 14: 0.44507, 15: 0.83952, 16:-0.67293, 17:-0.15197, 18:-0.17134, 19: 0.94699,
                20: 0.36472, 21:-0.63520, 22:-0.83197, 23:-0.33822, 24: 0.89010, 25:-0.04195, 26: 0.96388, 27:-0.62772, 28:-0.01564,
                29:-0.82891, 30: 0.82642
    33 |      | 11:-0.99409, 12:-0.23304, 13:-0.53878, 14: 0.10807, 15: 0.16090, 16: 0.85703, 17:-0.55833, 18:-0.49118, 19:-0.40795,
                20:-0.04349, 21: 0.18829, 22: 0.59807, 23: 0.01569, 24: 0.48353, 25:-0.15045, 26: 0.39079, 27: 0.18134, 28: 0.38586,
                29:-0.16614, 30: 0.87641
    34 |      | 11: 0.65237, 12: 0.57340, 13:-0.61733, 14:-0.37546, 15:-0.90863, 16: 0.17640, 17:-0.83815, 18: 0.23155, 19:-0.57466,
                20:-0.62068, 21:-0.68746, 22:-0.58248, 23:-0.70456, 24: 0.54943, 25:-0.66242, 26:-0.70490, 27:-0.13297, 28: 0.28443,
                29:-0.55881, 30:-0.80526
    35 |      | 11:-0.25013, 12: 0.34330, 13: 0.59225, 14: 0.26884, 15:-0.40051, 16:-0.21611, 17:-0.96140, 18:-0.34310, 19:-0.08446,
                20: 0.95030, 21:-0.56161, 22:-0.33497, 23:-0.16444, 24: 0.32199, 25:-0.70127, 26:-0.92136, 27: 0.61414, 28:-0.47950,
                29:-0.86087, 30:-0.00867
    36 |      | 11: 0.90372, 12: 0.59801, 13:-0.71343, 14: 0.54084, 15:-0.83067, 16:-0.40572, 17:-0.83525, 18: 0.84779, 19: 0.04594,
                20: 0.62195, 21: 0.20349, 22: 0.81304, 23: 0.25774, 24: 0.51209, 25: 0.47826, 26: 0.50335, 27: 0.94788, 28: 0.14543,
                29: 0.00561, 30:-0.11962
    37 |      | 11:-0.78200, 12:-0.99308, 13: 0.28876, 14: 0.81549, 15: 0.54580, 16: 0.37110, 17:-0.46519, 18: 0.51298, 19: 0.05587,
                20:-0.78802, 21: 0.75139, 22:-0.93102, 23: 0.78370, 24:-0.09692, 25: 0.40974, 26: 0.89669, 27: 0.33092, 28:-0.39239,
                29:-0.82013, 30:-0.83110
    38 |      | 11: 0.62571, 12:-0.30070, 13:-0.19937, 14: 0.63219, 15: 0.21975, 16: 0.49635, 17:-0.35481, 18:-0.49213, 19: 0.66103,
                20:-0.39231, 21: 0.61247, 22:-0.80160, 23: 0.61959, 24: 0.07863, 25: 0.45117, 26:-0.57709, 27:-0.40945, 28: 0.25593,
                29:-0.35423, 30: 0.75512
    39 |      | 11: 0.26165, 12: 0.98865, 13: 0.81850, 14:-0.41021, 15:-0.57307, 16: 0.71684, 17:-0.04816, 18:-0.37456, 19:-0.10910,
                20: 0.06276, 21: 0.51138, 22:-0.80478, 23:-0.37778, 24:-0.83430, 25: 0.16667, 26:-0.91956, 27: 0.36060, 28:-0.37539,
                29:-0.89860, 30:-0.47787
    40 |      | 11:-0.26341, 12: 0.02219, 13:-0.41405, 14: 0.06793, 15:-0.55313, 16: 0.10357, 17: 0.89862, 18:-0.80758, 19:-0.88526,
                20: 0.46992, 21:-0.15893, 22: 0.14991, 23: 0.85220, 24:-0.73382, 25:-0.78549, 26:-0.71098, 27: 0.98430, 28: 0.75194,
                29: 0.06727, 30:-0.25747
    41 |      | 11: 1.00000, 41: 1.00000
    42 |      | 12: 1.00000, 42: 1.00000
    43 |      | 13: 1.00000, 43: 1.00000
    44 |      | 14: 1.00000, 44: 1.00000
    45 |      | 15: 1.00000, 45: 1.00000
    46 |      | 16: 1.00000, 46: 1.00000
    47 |      | 17: 1.00000, 47: 1.00000
    48 |      | 18: 1.00000, 48: 1.00000
    49 |      | 19: 1.00000, 49: 1.00000
    50 |      | 20: 1.00000, 50: 1.00000
    51 |      | 21: 1.00000, 51: 1.00000
    52 |      | 22: 1.00000, 52: 1.00000
    53 |      | 23: 1.00000, 53: 1.00000
    54 |      | 24: 1.00000, 54: 1.00000
    55 |      | 25: 1.00000, 55: 1.00000
    56 |      | 26: 1.00000, 56: 1.00000
    57 |      | 27: 1.00000, 57: 1.00000
    58 |      | 28: 1.00000, 58: 1.00000
    59 |      | 29: 1.00000, 59: 1.00000
    60 |      | 30: 1.00000, 60: 1.00000
-------|------|---------------------------------------------------------------------------------------------------------------------
