SNNS network definition file V1.4-3D
generated at Wed Oct 25 21:05:10 2023

network name : lot1_utrd_ver2
source files :
no. of units : 60
no. of connections : 840
no. of unit types : 0
no. of site types : 0


learning function : JE_BP
update function   : JE_Order
init function     : JE_Weights


unit default section :

act      | bias     | st | subnet | layer | act func     | out func
---------|----------|----|--------|-------|--------------|-------------
 0.00000 |  0.00000 | h  |      0 |     1 | Act_Logistic | Out_Identity 
---------|----------|----|--------|-------|--------------|-------------


unit definition section :

no. | typeName | unitName | act      | bias     | st | position | act func     | out func | sites
----|----------|----------|----------|----------|----|----------|--------------|----------|-------
  1 |          | inp1     |  0.00000 |  0.82750 | i  |  1, 1, 0 | Act_Identity |          | 
  2 |          | inp2     |  0.00000 | -0.46046 | i  |  1, 2, 0 | Act_Identity |          | 
  3 |          | inp3     |  0.00000 | -0.86960 | i  |  1, 3, 0 | Act_Identity |          | 
  4 |          | inp4     |  0.00000 |  0.47342 | i  |  1, 4, 0 | Act_Identity |          | 
  5 |          | inp5     |  0.00000 |  0.61578 | i  |  1, 5, 0 | Act_Identity |          | 
  6 |          | inp6     |  0.00000 | -0.85608 | i  |  1, 6, 0 | Act_Identity |          | 
  7 |          | inp7     |  1.00000 |  0.93792 | i  |  1, 7, 0 | Act_Identity |          | 
  8 |          | inp8     |  0.00000 | -0.99793 | i  |  1, 8, 0 | Act_Identity |          | 
  9 |          | inp9     |  0.00000 | -0.03878 | i  |  1, 9, 0 | Act_Identity |          | 
 10 |          | inp10    |  0.00000 |  0.57263 | i  |  1,10, 0 | Act_Identity |          | 
 11 |          | hid1     |  0.22859 | -0.50072 | h  | 10, 1, 0 |||
 12 |          | hid2     |  0.76293 | -0.64140 | h  | 11, 1, 0 |||
 13 |          | hid3     |  0.03207 |  0.56443 | h  | 12, 1, 0 |||
 14 |          | hid4     |  0.13277 | -0.22686 | h  | 13, 1, 0 |||
 15 |          | hid5     |  0.87476 | -0.02725 | h  | 10, 2, 0 |||
 16 |          | hid6     |  0.91827 | -0.91164 | h  | 11, 2, 0 |||
 17 |          | hid7     |  0.99339 | -0.31863 | h  | 12, 2, 0 |||
 18 |          | hid8     |  0.99896 | -0.39705 | h  | 13, 2, 0 |||
 19 |          | hid9     |  0.90782 |  0.27260 | h  | 10, 3, 0 |||
 20 |          | hid10    |  0.89773 | -0.69461 | h  | 11, 3, 0 |||
 21 |          | hid11    |  0.04833 |  0.86195 | h  | 12, 3, 0 |||
 22 |          | hid12    |  0.99338 |  0.52952 | h  | 13, 3, 0 |||
 23 |          | hid13    |  0.13999 | -0.22149 | h  | 10, 4, 0 |||
 24 |          | hid14    |  0.00426 |  0.52465 | h  | 11, 4, 0 |||
 25 |          | hid15    |  0.16231 | -0.37967 | h  | 12, 4, 0 |||
 26 |          | hid16    |  0.08386 | -0.18867 | h  | 13, 4, 0 |||
 27 |          | hid17    |  0.97643 |  0.08660 | h  | 10, 5, 0 |||
 28 |          | hid18    |  0.98312 |  0.32136 | h  | 11, 5, 0 |||
 29 |          | hid19    |  0.84841 | -0.84951 | h  | 12, 5, 0 |||
 30 |          | hid20    |  0.95091 |  0.28812 | h  | 13, 5, 0 |||
 31 |          | out1     |  0.90008 | -0.28095 | o  | 19, 1, 0 |||
 32 |          | out2     |  0.09463 |  0.49062 | o  | 19, 2, 0 |||
 33 |          | out3     |  0.06948 | -0.77386 | o  | 19, 3, 0 |||
 34 |          | out4     |  0.02691 |  0.06312 | o  | 19, 4, 0 |||
 35 |          | out5     |  0.02971 | -0.18640 | o  | 19, 5, 0 |||
 36 |          | out6     |  0.06367 | -0.24289 | o  | 19, 6, 0 |||
 37 |          | out7     |  0.09881 | -0.31204 | o  | 19, 7, 0 |||
 38 |          | out8     |  0.08640 | -0.84442 | o  | 19, 8, 0 |||
 39 |          | out9     |  0.01457 | -0.15015 | o  | 19, 9, 0 |||
 40 |          | out10    |  0.04457 |  0.03126 | o  | 19,10, 0 |||
 41 |          | con1     |  1.46040 |  0.50000 | sh  |  4,12, 0 | Act_Identity |          | 
 42 |          | con2     |  1.45474 |  0.50000 | sh  |  5,12, 0 | Act_Identity |          | 
 43 |          | con3     |  0.92059 |  0.50000 | sh  |  6,12, 0 | Act_Identity |          | 
 44 |          | con4     |  1.48792 |  0.50000 | sh  |  7,12, 0 | Act_Identity |          | 
 45 |          | con5     |  1.72690 |  0.50000 | sh  |  4,13, 0 | Act_Identity |          | 
 46 |          | con6     |  1.82280 |  0.50000 | sh  |  5,13, 0 | Act_Identity |          | 
 47 |          | con7     |  2.24765 |  0.50000 | sh  |  6,13, 0 | Act_Identity |          | 
 48 |          | con8     |  2.65642 |  0.50000 | sh  |  7,13, 0 | Act_Identity |          | 
 49 |          | con9     |  2.14738 |  0.50000 | sh  |  4,14, 0 | Act_Identity |          | 
 50 |          | con10    |  1.62851 |  0.50000 | sh  |  5,14, 0 | Act_Identity |          | 
 51 |          | con11    |  1.18165 |  0.50000 | sh  |  6,14, 0 | Act_Identity |          | 
 52 |          | con12    |  2.61553 |  0.50000 | sh  |  7,14, 0 | Act_Identity |          | 
 53 |          | con13    |  0.71317 |  0.50000 | sh  |  4,15, 0 | Act_Identity |          | 
 54 |          | con14    |  0.91815 |  0.50000 | sh  |  5,15, 0 | Act_Identity |          | 
 55 |          | con15    |  0.99591 |  0.50000 | sh  |  6,15, 0 | Act_Identity |          | 
 56 |          | con16    |  0.80143 |  0.50000 | sh  |  7,15, 0 | Act_Identity |          | 
 57 |          | con17    |  2.66720 |  0.50000 | sh  |  4,16, 0 | Act_Identity |          | 
 58 |          | con18    |  2.36733 |  0.50000 | sh  |  5,16, 0 | Act_Identity |          | 
 59 |          | con19    |  1.45530 |  0.50000 | sh  |  6,16, 0 | Act_Identity |          | 
 60 |          | con20    |  1.72289 |  0.50000 | sh  |  7,16, 0 | Act_Identity |          | 
----|----------|----------|----------|----------|----|----------|--------------|----------|-------


connection definition section :

target | site | source:weight
-------|------|---------------------------------------------------------------------------------------------------------------------
    11 |      |  1:-0.86048,  2: 0.67161,  3: 0.26715,  4:-0.03440,  5: 1.43507,  6:-0.95960,  7: 0.26680,  8: 0.83533,  9: 0.23619,
                10: 0.62324, 41:-0.41496, 42: 0.09370, 43: 1.09060, 44: 0.85429, 45:-0.13120, 46:-0.41799, 47:-0.38648, 48:-0.72099,
                49: 0.32993, 50: 0.02444, 51:-0.41709, 52:-0.29986, 53:-0.30127, 54:-0.16104, 55: 0.12049, 56: 1.06690, 57: 0.24020,
                58: 0.09396, 59:-0.81498, 60:-0.71058
    12 |      |  1: 0.00536,  2:-0.15101,  3:-0.21189,  4:-0.02266,  5:-0.04336,  6: 0.90354,  7: 1.20202,  8: 0.37860,  9: 0.77277,
                10:-0.10188, 41: 0.87512, 42: 0.32473, 43:-0.82016, 44:-0.04975, 45: 0.30685, 46:-0.40664, 47:-0.33034, 48:-0.20707,
                49: 0.36908, 50:-0.72617, 51: 0.10756, 52: 0.30604, 53: 0.25929, 54: 0.65798, 55:-0.17610, 56:-0.96908, 57: 0.27384,
                58:-0.33857, 59:-0.40561, 60: 0.99025
    13 |      |  1:-0.47035,  2: 0.23975,  3:-0.85468,  4:-0.27769,  5:-0.52522,  6: 0.48921,  7:-0.53577,  8: 0.47765,  9: 0.84843,
                10:-0.76584, 41: 0.72035, 42: 0.11273, 43: 0.06263, 44: 0.32351, 45: 0.32623, 46:-0.05159, 47:-0.99662, 48:-0.25765,
                49:-0.32739, 50:-0.36602, 51: 0.65176, 52:-0.96474, 53:-0.76958, 54:-0.14704, 55:-0.67631, 56:-0.67456, 57:-0.24527,
                58: 0.66900, 59:-0.48697, 60:-0.70277
    14 |      |  1: 0.46252,  2: 0.70476,  3: 0.40829,  4: 0.53579,  5: 1.46375,  6: 0.64502,  7:-0.04066,  8: 0.00608,  9: 0.81362,
                10: 0.27801, 41: 0.11335, 42: 0.71778, 43:-0.52764, 44: 0.49702, 45: 0.79634, 46: 0.06411, 47: 0.27979, 48:-0.91152,
                49:-0.76048, 50: 0.07200, 51:-0.77139, 52: 0.09770, 53:-0.14023, 54: 1.12859, 55:-0.30935, 56: 0.14632, 57:-0.12326,
                58:-0.55909, 59: 0.56271, 60:-0.74917
    15 |      |  1:-0.45576,  2: 0.15644,  3: 0.15562,  4: 0.21374,  5:-1.27155,  6:-0.49793,  7:-0.10521,  8:-0.98033,  9: 0.05972,
                10:-0.52769, 41: 0.81272, 42:-0.23765, 43: 0.25446, 44:-0.97306, 45: 0.08845, 46: 0.25650, 47: 0.60110, 48: 0.06403,
                49:-0.84285, 50: 0.58159, 51:-0.83008, 52:-0.09922, 53:-0.38031, 54:-0.35374, 55: 0.60710, 56: 0.76743, 57: 0.55508,
                58: 0.70215, 59:-0.29384, 60: 0.82698
    16 |      |  1:-0.37882,  2:-0.45105,  3:-0.79393,  4: 0.42258,  5: 0.40613,  6: 0.69913,  7:-0.20956,  8: 0.98400,  9: 0.90908,
                10: 0.03115, 41: 0.59530, 42: 0.68568, 43: 0.63293, 44: 1.02301, 45: 0.81579, 46:-0.15729, 47: 0.40329, 48:-0.10799,
                49: 0.39850, 50:-0.86042, 51:-0.60642, 52: 0.30323, 53: 0.35658, 54: 0.59123, 55: 0.59946, 56:-0.95695, 57:-0.87000,
                58: 0.96794, 59:-0.20604, 60:-0.60512
    17 |      |  1:-0.92240,  2:-0.51812,  3:-0.85581,  4: 0.40416,  5: 0.90005,  6:-0.07069,  7: 0.80575,  8: 0.29329,  9:-0.01551,
                10: 0.87273, 41:-0.06088, 42: 0.12877, 43: 0.75437, 44: 0.62297, 45: 1.02945, 46:-0.03096, 47: 0.40994, 48:-0.22815,
                49: 0.55142, 50: 1.00286, 51: 0.84433, 52: 0.56466, 53: 0.28030, 54:-0.38292, 55:-0.10705, 56:-0.57350, 57: 0.11652,
                58:-0.14035, 59:-0.73656, 60:-0.18539
    18 |      |  1: 0.72472,  2: 1.17758,  3:-0.30670,  4: 0.58405,  5: 0.43434,  6:-0.70024,  7: 0.91948,  8:-0.91404,  9:-0.08652,
                10: 0.40538, 41: 0.82748, 42:-0.68944, 43: 0.84269, 44:-0.97188, 45: 0.77007, 46: 0.18314, 47:-0.66908, 48: 0.99473,
                49: 0.71252, 50:-0.41106, 51: 0.14461, 52: 0.97337, 53:-0.04344, 54: 0.88685, 55: 0.06985, 56: 0.59700, 57: 0.34039,
                58: 0.56646, 59: 0.70286, 60:-0.83800
    19 |      |  1:-0.75244,  2:-0.77241,  3: 0.77868,  4: 0.44065,  5: 0.41900,  6:-0.85089,  7: 0.23072,  8:-0.61715,  9:-0.61152,
                10:-0.83434, 41:-0.66420, 42:-0.15077, 43:-0.49618, 44: 0.28502, 45: 0.80292, 46: 0.41086, 47: 0.44914, 48:-0.08154,
                49:-0.41915, 50: 0.51116, 51:-0.29556, 52: 0.42752, 53:-0.48119, 54: 1.10178, 55:-0.79328, 56:-0.40842, 57: 0.87566,
                58:-0.81920, 59: 0.28822, 60: 0.99269
    20 |      |  1: 0.84459,  2: 0.95859,  3:-0.93510,  4: 0.54202,  5:-0.96380,  6: 0.92905,  7: 0.87715,  8: 0.67566,  9: 0.45817,
                10: 0.81653, 41:-0.60133, 42:-0.10500, 43:-0.44001, 44:-0.68789, 45: 0.10907, 46: 0.16609, 47: 0.71962, 48: 0.16089,
                49: 0.65114, 50: 0.43619, 51:-0.84081, 52: 0.13474, 53:-0.32933, 54: 0.37225, 55:-0.16774, 56:-0.71801, 57: 1.31618,
                58: 0.50953, 59:-0.64939, 60: 0.37476
    21 |      |  1:-0.58346,  2: 0.70586,  3:-0.41420,  4:-0.87535,  5:-0.60948,  6:-0.68041,  7:-0.20789,  8:-0.92621,  9: 0.35767,
                10: 0.30207, 41: 0.49671, 42:-1.01092, 43:-0.10390, 44:-0.84623, 45:-0.24597, 46: 0.94084, 47:-0.88779, 48:-0.93946,
                49:-0.29701, 50:-0.99921, 51: 0.84435, 52:-1.08126, 53: 0.66060, 54: 0.69412, 55:-1.04685, 56: 0.13113, 57: 0.71608,
                58: 0.45559, 59: 0.40184, 60:-0.91028
    22 |      |  1:-0.61227,  2: 0.11945,  3: 0.07636,  4:-0.00147,  5: 0.51350,  6: 0.60316,  7: 0.04183,  8: 0.74974,  9:-0.60126,
                10:-0.03992, 41:-0.78063, 42:-0.11049, 43:-0.38753, 44:-0.55030, 45: 0.03199, 46:-0.10229, 47:-0.08059, 48: 0.60036,
                49: 0.89769, 50:-0.47426, 51: 0.61247, 52: 1.02185, 53: 0.52461, 54: 0.59012, 55: 0.52068, 56: 0.65771, 57: 0.06220,
                58:-0.14759, 59: 0.42398, 60: 0.92913
    23 |      |  1: 0.95270,  2:-0.05944,  3:-0.51920,  4:-0.41206,  5: 0.01598,  6:-0.29534,  7: 0.29263,  8: 0.17756,  9: 0.22273,
                10:-0.36947, 41: 0.86878, 42:-0.83669, 43:-0.80133, 44:-1.00586, 45:-0.01809, 46: 0.71576, 47:-0.53165, 48: 0.39756,
                49:-0.25054, 50: 0.56326, 51:-0.76006, 52: 0.43590, 53:-0.00247, 54:-1.05804, 55:-0.61502, 56: 0.64534, 57:-0.03441,
                58: 0.26953, 59: 0.53080, 60:-0.63834
    24 |      |  1:-0.09275,  2: 1.27329,  3: 0.74793,  4: 0.17978,  5:-0.53279,  6: 0.06347,  7:-0.97110,  8:-0.66067,  9:-0.07827,
                10: 0.54024, 41:-0.85408, 42: 0.17634, 43:-0.54494, 44:-0.73150, 45:-0.91743, 46:-0.03695, 47:-0.52401, 48: 0.30431,
                49: 0.78499, 50:-0.42946, 51:-0.52952, 52:-0.87230, 53: 0.48344, 54:-0.53988, 55: 0.04573, 56: 0.28335, 57: 0.12236,
                58:-0.49348, 59:-0.17766, 60: 0.36286
    25 |      |  1: 0.87315,  2:-0.02634,  3:-0.07890,  4:-0.78269,  5: 0.20699,  6: 0.17590,  7:-0.34232,  8: 0.07469,  9: 0.06574,
                10:-0.77043, 41:-0.50859, 42:-0.75779, 43: 0.04055, 44: 0.46521, 45:-0.77901, 46: 0.37372, 47: 0.04672, 48: 0.16361,
                49: 0.63541, 50: 0.28394, 51:-0.13316, 52:-0.89847, 53: 0.87916, 54: 0.76733, 55:-0.80163, 56: 0.95039, 57:-0.71598,
                58: 0.64396, 59:-0.00309, 60:-0.93722
    26 |      |  1:-0.79338,  2: 0.11307,  3:-0.15740,  4: 0.04834,  5: 0.19137,  6:-0.31763,  7: 0.34745,  8:-0.01468,  9: 0.05637,
                10: 0.43351, 41:-0.25929, 42:-0.74560, 43: 0.77977, 44:-0.71181, 45: 0.60685, 46:-0.46638, 47: 0.91043, 48:-0.86860,
                49:-0.88584, 50:-0.73895, 51: 0.24391, 52: 0.26001, 53:-0.95692, 54:-0.53371, 55: 0.70295, 56: 0.54600, 57:-0.93171,
                58: 0.29746, 59: 0.38468, 60: 0.89130
    27 |      |  1: 0.06149,  2: 0.93576,  3: 0.62940,  4: 0.29332,  5: 0.83092,  6:-0.80608,  7: 0.27528,  8:-0.14000,  9: 0.33414,
                10: 0.32873, 41:-0.48983, 42:-0.02872, 43: 0.34524, 44:-0.05235, 45:-0.31935, 46: 0.92727, 47:-0.72195, 48: 0.40823,
                49:-0.10324, 50:-0.11595, 51: 0.79413, 52:-0.84066, 53: 0.68535, 54: 0.64138, 55: 0.93468, 56:-0.25462, 57: 0.73591,
                58: 0.93549, 59: 0.69308, 60:-0.57901
    28 |      |  1: 0.35020,  2:-0.56950,  3:-0.93640,  4:-0.86535,  5: 0.43398,  6:-0.95607,  7:-0.63605,  8:-0.63806,  9: 0.26134,
                10:-0.39598, 41: 0.91832, 42: 0.62222, 43: 0.75970, 44:-0.14554, 45: 0.42850, 46: 0.06326, 47: 0.82458, 48: 0.57790,
                49: 0.27118, 50: 0.65911, 51:-0.53581, 52: 0.86300, 53:-0.19788, 54: 0.64366, 55:-0.44384, 56:-0.17911, 57: 0.35972,
                58:-0.74583, 59:-0.80590, 60:-0.96883
    29 |      |  1: 0.46714,  2: 0.45078,  3:-0.17260,  4:-0.09493,  5:-1.20820,  6: 0.02035,  7: 0.49967,  8: 0.00463,  9:-0.79607,
                10: 0.04835, 41: 0.17074, 42:-0.19858, 43: 0.58099, 44:-0.20456, 45: 0.82991, 46:-0.01154, 47:-0.51469, 48:-0.08653,
                49:-0.21840, 50:-0.15781, 51:-0.90890, 52: 0.66145, 53:-0.19918, 54:-0.08419, 55:-0.64552, 56: 0.80122, 57: 0.30433,
                58: 1.17922, 59:-0.96685, 60: 1.02289
    30 |      |  1:-0.44026,  2:-0.97973,  3: 0.88508,  4: 0.05423,  5:-0.50886,  6:-0.93541,  7: 0.71411,  8: 0.96576,  9:-0.13550,
                10:-0.51179, 41: 0.93136, 42: 0.55611, 43:-0.58246, 44: 0.67375, 45: 0.19490, 46: 0.42567, 47: 0.71819, 48: 0.65215,
                49:-0.63349, 50:-0.09867, 51:-0.67499, 52:-0.80766, 53:-0.92575, 54:-0.28804, 55: 0.16463, 56:-0.89254, 57: 0.29952,
                58: 0.19301, 59: 0.71822, 60: 0.67544
    31 |      | 11:-0.50246, 12: 0.58942, 13:-0.43241, 14:-1.34630, 15: 0.36011, 16: 0.63162, 17:-0.04161, 18:-0.73363, 19: 0.12089,
                20: 1.50844, 21:-1.33453, 22:-0.30329, 23:-0.57614, 24:-0.59646, 25:-1.09197, 26:-0.97606, 27:-0.68769, 28: 0.95910,
                29: 0.85179, 30: 0.49012
    32 |      | 11:-1.04957, 12:-0.81322, 13: 0.81745, 14:-1.00769, 15:-0.19233, 16:-0.18371, 17:-0.25114, 18:-0.95257, 19: 0.76440,
                20:-0.10146, 21:-0.91976, 22: 0.27918, 23: 0.83027, 24:-0.31534, 25:-0.09852, 26:-0.20334, 27:-0.67655, 28:-0.07461,
                29:-1.05956, 30: 0.49663
    33 |      | 11:-1.09625, 12:-0.89253, 13: 0.40943, 14:-0.16501, 15:-0.23210, 16:-0.11986, 17: 0.46026, 18:-0.30102, 19:-0.35480,
                20:-0.01161, 21: 0.12259, 22:-0.47918, 23:-0.16855, 24:-0.50857, 25: 0.03240, 26: 0.75794, 27:-0.49436, 28: 0.72687,
                29: 0.72596, 30:-0.85420
    34 |      | 11:-0.36866, 12: 0.39870, 13:-0.62634, 14: 0.15902, 15:-0.91792, 16:-0.85219, 17:-1.23155, 18:-0.19009, 19: 0.31782,
                20: 0.25315, 21: 0.11999, 22:-0.54102, 23: 0.68300, 24:-0.61879, 25: 0.64871, 26:-1.02081, 27: 0.47807, 28:-0.67377,
                29:-0.21066, 30:-0.62637
    35 |      | 11:-0.36566, 12: 0.40297, 13: 1.51854, 14: 0.04309, 15:-0.09884, 16:-0.98654, 17:-0.95550, 18: 0.34079, 19:-0.87944,
                20:-0.09828, 21: 0.93527, 22:-0.37341, 23: 0.46707, 24: 1.63553, 25: 0.28262, 26:-0.20758, 27: 0.70269, 28:-0.51331,
                29: 0.17635, 30:-1.25823
    36 |      | 11:-0.74509, 12: 0.33654, 13:-0.16498, 14:-0.60753, 15:-1.05961, 16: 0.61468, 17:-0.87533, 18: 0.10771, 19:-0.29962,
                20: 0.06344, 21:-0.50231, 22:-0.41492, 23:-0.51871, 24: 0.25871, 25: 0.78566, 26: 0.80033, 27:-0.30406, 28:-0.14741,
                29:-0.66562, 30: 0.22455
    37 |      | 11: 0.88827, 12:-0.90085, 13: 0.21137, 14: 0.78846, 15:-1.17829, 16:-0.53341, 17: 0.52669, 18: 0.43347, 19: 0.78163,
                20:-1.79469, 21:-0.89551, 22: 0.62007, 23:-0.53349, 24:-1.29544, 25: 1.07182, 26:-0.93600, 27: 0.67868, 28: 0.72688,
                29:-1.32512, 30:-0.94729
    38 |      | 11: 0.54329, 12: 0.52088, 13:-0.10596, 14: 0.47795, 15:-0.59288, 16: 0.72499, 17:-0.82388, 18: 0.19673, 19: 0.41805,
                20:-0.19536, 21:-0.76687, 22:-0.15307, 23:-0.97493, 24:-0.73747, 25:-0.72235, 26: 0.05637, 27:-0.77609, 28:-0.70642,
                29: 0.45645, 30:-0.33508
    39 |      | 11:-0.29241, 12:-0.47559, 13:-1.12289, 14: 0.50950, 15: 0.08878, 16:-0.56151, 17: 0.56446, 18:-1.20053, 19:-0.43683,
                20:-0.63796, 21:-0.13746, 22:-0.18872, 23: 0.11140, 24: 0.56567, 25: 0.71621, 26: 0.50036, 27:-0.56547, 28:-0.18912,
                29:-1.11251, 30: 0.08406
    40 |      | 11: 0.64978, 12:-0.65848, 13:-0.21717, 14:-0.22982, 15:-0.38494, 16: 0.32682, 17:-0.64931, 18: 0.01311, 19:-0.50617,
                20:-0.73849, 21:-1.08479, 22: 0.52979, 23:-0.74876, 24:-0.14641, 25: 0.32788, 26:-0.88421, 27:-1.22247, 28: 0.33649,
                29: 0.70907, 30:-1.05195
    41 |      | 11: 1.00000, 41: 1.00000
    42 |      | 12: 1.00000, 42: 1.00000
    43 |      | 13: 1.00000, 43: 1.00000
    44 |      | 14: 1.00000, 44: 1.00000
    45 |      | 15: 1.00000, 45: 1.00000
    46 |      | 16: 1.00000, 46: 1.00000
    47 |      | 17: 1.00000, 47: 1.00000
    48 |      | 18: 1.00000, 48: 1.00000
    49 |      | 19: 1.00000, 49: 1.00000
    50 |      | 20: 1.00000, 50: 1.00000
    51 |      | 21: 1.00000, 51: 1.00000
    52 |      | 22: 1.00000, 52: 1.00000
    53 |      | 23: 1.00000, 53: 1.00000
    54 |      | 24: 1.00000, 54: 1.00000
    55 |      | 25: 1.00000, 55: 1.00000
    56 |      | 26: 1.00000, 56: 1.00000
    57 |      | 27: 1.00000, 57: 1.00000
    58 |      | 28: 1.00000, 58: 1.00000
    59 |      | 29: 1.00000, 59: 1.00000
    60 |      | 30: 1.00000, 60: 1.00000
-------|------|---------------------------------------------------------------------------------------------------------------------
