SNNS network definition file V1.4-3D
generated at Wed Oct 25 18:54:56 2023

network name : lot1_utrd
source files :
no. of units : 60
no. of connections : 840
no. of unit types : 0
no. of site types : 0


learning function : JE_BP
update function   : JE_Order
init function     : JE_Weights


unit default section :

act      | bias     | st | subnet | layer | act func     | out func
---------|----------|----|--------|-------|--------------|-------------
 0.00000 |  0.00000 | h  |      0 |     1 | Act_Logistic | Out_Identity 
---------|----------|----|--------|-------|--------------|-------------


unit definition section :

no. | typeName | unitName | act      | bias     | st | position | act func     | out func | sites
----|----------|----------|----------|----------|----|----------|--------------|----------|-------
  1 |          | inp1     |  0.00000 |  0.18329 | i  |  1, 1, 0 | Act_Identity |          | 
  2 |          | inp2     |  0.00000 |  0.82140 | i  |  1, 2, 0 | Act_Identity |          | 
  3 |          | inp3     |  0.00000 | -0.85302 | i  |  1, 3, 0 | Act_Identity |          | 
  4 |          | inp4     |  0.00000 |  0.96729 | i  |  1, 4, 0 | Act_Identity |          | 
  5 |          | inp5     |  0.00000 | -0.38452 | i  |  1, 5, 0 | Act_Identity |          | 
  6 |          | inp6     |  0.00000 |  0.59834 | i  |  1, 6, 0 | Act_Identity |          | 
  7 |          | inp7     |  0.00000 | -0.97481 | i  |  1, 7, 0 | Act_Identity |          | 
  8 |          | inp8     |  0.00000 | -0.61949 | i  |  1, 8, 0 | Act_Identity |          | 
  9 |          | inp9     |  0.00000 |  0.59905 | i  |  1, 9, 0 | Act_Identity |          | 
 10 |          | inp10    |  0.00000 |  0.90765 | i  |  1,10, 0 | Act_Identity |          | 
 11 |          | hid1     |  0.00000 | -0.80245 | h  | 10, 1, 0 |||
 12 |          | hid2     |  0.00000 | -0.74072 | h  | 11, 1, 0 |||
 13 |          | hid3     |  0.00000 |  0.81529 | h  | 12, 1, 0 |||
 14 |          | hid4     |  0.00000 |  0.92697 | h  | 13, 1, 0 |||
 15 |          | hid5     |  0.00000 |  0.37711 | h  | 10, 2, 0 |||
 16 |          | hid6     |  0.00000 |  0.21844 | h  | 11, 2, 0 |||
 17 |          | hid7     |  0.00000 |  0.39024 | h  | 12, 2, 0 |||
 18 |          | hid8     |  0.00000 | -0.44215 | h  | 13, 2, 0 |||
 19 |          | hid9     |  0.00000 |  0.38402 | h  | 10, 3, 0 |||
 20 |          | hid10    |  0.00000 | -0.80722 | h  | 11, 3, 0 |||
 21 |          | hid11    |  0.00000 |  0.90716 | h  | 12, 3, 0 |||
 22 |          | hid12    |  0.00000 |  0.56468 | h  | 13, 3, 0 |||
 23 |          | hid13    |  0.00000 |  0.72443 | h  | 10, 4, 0 |||
 24 |          | hid14    |  0.00000 | -0.67443 | h  | 11, 4, 0 |||
 25 |          | hid15    |  0.00000 | -0.48602 | h  | 12, 4, 0 |||
 26 |          | hid16    |  0.00000 |  0.26827 | h  | 13, 4, 0 |||
 27 |          | hid17    |  0.00000 | -0.15514 | h  | 10, 5, 0 |||
 28 |          | hid18    |  0.00000 | -0.50489 | h  | 11, 5, 0 |||
 29 |          | hid19    |  0.00000 | -0.49424 | h  | 12, 5, 0 |||
 30 |          | hid20    |  0.00000 |  0.12580 | h  | 13, 5, 0 |||
 31 |          | out1     |  0.00000 | -0.56234 | o  | 19, 1, 0 |||
 32 |          | out2     |  0.00000 |  0.16340 | o  | 19, 2, 0 |||
 33 |          | out3     |  0.00000 | -0.04573 | o  | 19, 3, 0 |||
 34 |          | out4     |  0.00000 | -0.83763 | o  | 19, 4, 0 |||
 35 |          | out5     |  0.00000 | -0.29129 | o  | 19, 5, 0 |||
 36 |          | out6     |  0.00000 |  0.42636 | o  | 19, 6, 0 |||
 37 |          | out7     |  0.00000 | -0.70669 | o  | 19, 7, 0 |||
 38 |          | out8     |  0.00000 |  0.70085 | o  | 19, 8, 0 |||
 39 |          | out9     |  0.00000 | -0.67897 | o  | 19, 9, 0 |||
 40 |          | out10    |  0.00000 |  0.92636 | o  | 19,10, 0 |||
 41 |          | con1     |  0.00000 |  0.50000 | sh  |  4,12, 0 | Act_Identity |          | 
 42 |          | con2     |  0.00000 |  0.50000 | sh  |  5,12, 0 | Act_Identity |          | 
 43 |          | con3     |  0.00000 |  0.50000 | sh  |  6,12, 0 | Act_Identity |          | 
 44 |          | con4     |  0.00000 |  0.50000 | sh  |  7,12, 0 | Act_Identity |          | 
 45 |          | con5     |  0.00000 |  0.50000 | sh  |  4,13, 0 | Act_Identity |          | 
 46 |          | con6     |  0.00000 |  0.50000 | sh  |  5,13, 0 | Act_Identity |          | 
 47 |          | con7     |  0.00000 |  0.50000 | sh  |  6,13, 0 | Act_Identity |          | 
 48 |          | con8     |  0.00000 |  0.50000 | sh  |  7,13, 0 | Act_Identity |          | 
 49 |          | con9     |  0.00000 |  0.50000 | sh  |  4,14, 0 | Act_Identity |          | 
 50 |          | con10    |  0.00000 |  0.50000 | sh  |  5,14, 0 | Act_Identity |          | 
 51 |          | con11    |  0.00000 |  0.50000 | sh  |  6,14, 0 | Act_Identity |          | 
 52 |          | con12    |  0.00000 |  0.50000 | sh  |  7,14, 0 | Act_Identity |          | 
 53 |          | con13    |  0.00000 |  0.50000 | sh  |  4,15, 0 | Act_Identity |          | 
 54 |          | con14    |  0.00000 |  0.50000 | sh  |  5,15, 0 | Act_Identity |          | 
 55 |          | con15    |  0.00000 |  0.50000 | sh  |  6,15, 0 | Act_Identity |          | 
 56 |          | con16    |  0.00000 |  0.50000 | sh  |  7,15, 0 | Act_Identity |          | 
 57 |          | con17    |  0.00000 |  0.50000 | sh  |  4,16, 0 | Act_Identity |          | 
 58 |          | con18    |  0.00000 |  0.50000 | sh  |  5,16, 0 | Act_Identity |          | 
 59 |          | con19    |  0.00000 |  0.50000 | sh  |  6,16, 0 | Act_Identity |          | 
 60 |          | con20    |  0.00000 |  0.50000 | sh  |  7,16, 0 | Act_Identity |          | 
----|----------|----------|----------|----------|----|----------|--------------|----------|-------


connection definition section :

target | site | source:weight
-------|------|---------------------------------------------------------------------------------------------------------------------
    11 |      |  1: 0.48207,  2: 0.84921,  3: 0.06361,  4: 0.52952,  5: 0.61764,  6: 0.35862,  7: 0.71219,  8: 0.43309,  9: 0.45482,
                10: 0.01602, 41:-0.62143, 42:-0.69113, 43:-0.59327, 44: 0.18269, 45:-0.93419, 46: 0.45485, 47:-0.44914, 48: 0.23427,
                49:-0.53799, 50: 0.84281, 51:-0.42687, 52:-0.63708, 53: 0.36415, 54: 0.64790, 55:-0.58356, 56: 0.66899, 57:-0.88112,
                58:-0.36458, 59:-0.49545, 60: 0.78749
    12 |      |  1:-0.64239,  2:-0.63617,  3:-0.87524,  4:-0.65499,  5:-0.66771,  6:-0.13780,  7:-0.05061,  8:-0.72518,  9:-0.95094,
                10:-0.71942, 41: 0.90602, 42:-0.76523, 43:-0.29547, 44:-0.84878, 45: 0.41462, 46: 0.89434, 47:-0.72245, 48: 0.82992,
                49: 0.38607, 50:-0.39702, 51: 0.03410, 52:-0.32242, 53: 0.82727, 54:-0.96980, 55:-0.74243, 56:-0.46167, 57: 0.41909,
                58:-0.99156, 59: 0.23754, 60:-0.08411
    13 |      |  1: 0.07492,  2: 0.96396,  3: 0.33327,  4: 0.11045,  5: 0.38023,  6:-0.94454,  7:-0.75121,  8:-0.86435,  9: 0.96958,
                10: 0.03310, 41: 0.49819, 42:-0.47079, 43: 0.89909, 44: 0.81291, 45:-0.58871, 46:-0.94054, 47: 0.89375, 48:-0.74675,
                49: 0.85408, 50: 0.70214, 51:-0.82524, 52: 0.62077, 53:-0.21607, 54:-0.65263, 55: 0.28869, 56: 0.14245, 57: 0.25549,
                58:-0.32783, 59: 0.08651, 60: 0.44137
    14 |      |  1: 0.20265,  2:-0.02936,  3: 0.00846,  4: 0.20658,  5: 0.53525,  6: 0.91750,  7:-0.81846,  8: 0.43300,  9: 0.31391,
                10:-0.92653, 41: 0.96966, 42:-0.44377, 43:-0.81261, 44: 0.61513, 45: 0.90404, 46:-0.70126, 47:-0.48836, 48: 0.47969,
                49:-0.31302, 50:-0.17633, 51: 0.02017, 52:-0.85207, 53: 0.36368, 54:-0.42286, 55:-0.33781, 56: 0.25647, 57: 0.01601,
                58:-0.26497, 59: 0.99584, 60: 0.00570
    15 |      |  1:-0.93104,  2: 0.21011,  3:-0.59199,  4:-0.56495,  5:-0.98193,  6:-0.58560,  7:-0.09638,  8:-0.97459,  9: 0.24868,
                10: 0.25424, 41:-0.01174, 42:-0.06143, 43: 0.40685, 44: 0.25293, 45:-0.29820, 46: 0.36649, 47: 0.49247, 48: 0.20509,
                49:-0.71221, 50:-0.89259, 51:-0.85046, 52:-0.78603, 53:-0.55939, 54: 0.19943, 55: 0.98659, 56: 0.92069, 57:-0.58413,
                58:-0.72439, 59:-0.90780, 60:-0.43770
    16 |      |  1: 0.47574,  2: 0.44274,  3: 0.75520,  4:-0.85580,  5: 0.11060,  6:-0.37202,  7:-0.53886,  8: 0.40188,  9: 0.19258,
                10: 0.93204, 41:-0.82098, 42: 0.36056, 43: 0.50732, 44: 0.45548, 45: 0.83646, 46:-0.64020, 47:-0.96911, 48: 0.77302,
                49:-0.45840, 50: 0.90110, 51:-0.53177, 52:-0.81804, 53:-0.19555, 54: 0.55125, 55: 0.61658, 56:-0.53124, 57:-0.85261,
                58: 0.88707, 59: 0.60035, 60: 0.33616
    17 |      |  1:-0.62657,  2:-0.91453,  3: 0.18710,  4: 0.10259,  5: 0.98684,  6:-0.99319,  7:-0.67750,  8:-0.35297,  9:-0.31038,
                10:-0.37674, 41: 0.21288, 42:-0.63478, 43: 0.25652, 44: 0.68445, 45:-0.74742, 46:-0.64705, 47: 0.40798, 48: 0.82923,
                49:-0.82559, 50:-0.90726, 51: 0.38231, 52:-0.93957, 53: 0.43174, 54:-0.78091, 55:-0.12896, 56: 0.11767, 57: 0.65699,
                58: 0.73125, 59: 0.25519, 60:-0.99013
    18 |      |  1: 0.98519,  2:-0.85825,  3: 0.92402,  4:-0.93585,  5: 0.32764,  6:-0.14651,  7:-0.40710,  8: 0.40605,  9:-0.08941,
                10:-0.46446, 41: 0.22249, 42: 0.27300, 43: 0.27007, 44:-0.60870, 45: 0.83373, 46:-0.07227, 47:-0.01371, 48: 0.94921,
                49: 0.79017, 50:-0.24690, 51: 0.07504, 52: 0.61056, 53:-0.86447, 54:-0.71641, 55:-0.30014, 56:-0.32394, 57: 0.76732,
                58:-0.62140, 59:-0.06186, 60:-0.04792
    19 |      |  1: 0.36014,  2: 0.37824,  3:-0.52736,  4:-0.63308,  5: 0.16187,  6:-0.44660,  7: 0.13588,  8:-0.56066,  9: 0.78563,
                10:-0.98559, 41:-0.34335, 42: 0.07609, 43: 0.57189, 44:-0.81986, 45:-0.58681, 46:-0.45059, 47: 0.36582, 48: 0.05220,
                49: 0.96611, 50:-0.62971, 51: 0.97416, 52: 0.09880, 53: 0.42298, 54:-0.76026, 55:-0.79839, 56:-0.14050, 57:-0.20094,
                58:-0.17382, 59: 0.03905, 60:-0.55339
    20 |      |  1:-0.55644,  2: 0.53013,  3:-0.43674,  4: 0.27901,  5:-0.42826,  6: 0.71389,  7:-0.03893,  8:-0.63125,  9: 0.03249,
                10:-0.45255, 41: 0.55074, 42:-0.64504, 43:-0.74739, 44:-0.46053, 45: 0.38389, 46:-0.75763, 47: 0.49226, 48:-0.87460,
                49: 0.25972, 50: 0.84628, 51:-0.87873, 52:-0.28535, 53:-0.80981, 54:-0.43904, 55: 0.25909, 56: 0.42695, 57:-0.11364,
                58:-0.01900, 59: 0.47081, 60:-0.62665
    21 |      |  1: 0.46665,  2: 0.19172,  3: 0.95365,  4: 0.33252,  5: 0.55258,  6:-0.56184,  7: 0.03643,  8: 0.57381,  9: 0.20346,
                10:-0.19982, 41: 0.52573, 42: 0.09543, 43: 0.33380, 44:-0.80875, 45: 0.13612, 46:-0.13232, 47: 0.46447, 48:-0.81330,
                49:-0.90065, 50: 0.87100, 51: 0.83742, 52: 0.69297, 53: 0.88411, 54: 0.08686, 55:-0.57898, 56: 0.17543, 57:-0.83227,
                58:-0.60243, 59: 0.90220, 60: 0.59959
    22 |      |  1: 0.52499,  2:-0.41677,  3:-0.18328,  4:-0.22810,  5:-0.48925,  6:-0.09123,  7:-0.59588,  8: 0.58246,  9:-0.18585,
                10:-0.31377, 41:-0.65182, 42: 0.86363, 43: 0.51042, 44:-0.30617, 45:-0.32439, 46: 0.27987, 47: 0.53518, 48:-0.22129,
                49: 0.77878, 50:-0.08244, 51: 0.75961, 52: 0.43195, 53:-0.82746, 54:-0.33763, 55:-0.19302, 56: 0.61043, 57:-0.46653,
                58:-0.71889, 59: 0.94067, 60: 0.89325
    23 |      |  1:-0.26987,  2: 0.66606,  3: 0.27275,  4:-0.94475,  5: 0.78036,  6:-0.41233,  7:-0.43874,  8: 0.07782,  9:-0.88702,
                10: 0.83464, 41: 0.84107, 42:-0.09230, 43:-0.43353, 44: 0.39454, 45: 0.10883, 46: 0.39349, 47:-0.85925, 48: 0.95021,
                49:-0.49925, 50:-0.24493, 51: 0.09195, 52: 0.36727, 53: 0.68145, 54:-0.24067, 55:-0.64561, 56:-0.50830, 57: 0.30750,
                58:-0.38138, 59:-0.55250, 60: 0.14376
    24 |      |  1:-0.05142,  2:-0.22631,  3: 0.48677,  4: 0.34134,  5: 0.01689,  6:-0.93021,  7: 0.74892,  8:-0.27383,  9: 0.70566,
                10: 0.98559, 41: 0.62212, 42:-0.44253, 43:-0.00625, 44:-0.95298, 45: 0.68289, 46: 0.18104, 47: 0.08258, 48: 0.30238,
                49: 0.60307, 50:-0.87970, 51: 0.62258, 52:-0.09641, 53:-0.44097, 54: 0.44071, 55:-0.22410, 56:-0.13757, 57:-0.47896,
                58: 0.42657, 59: 0.34594, 60: 0.83705
    25 |      |  1:-0.31837,  2:-0.96982,  3: 0.60642,  4: 0.58687,  5: 0.38097,  6: 0.46941,  7: 0.90954,  8:-0.69454,  9: 0.45605,
                10:-0.52385, 41: 0.56016, 42:-0.12473, 43:-0.21734, 44:-0.72555, 45: 0.66308, 46: 0.39450, 47:-0.02372, 48: 0.26206,
                49: 0.79069, 50: 0.70024, 51: 0.91333, 52: 0.54954, 53: 0.03207, 54:-0.62318, 55:-0.45845, 56: 0.01479, 57:-0.22468,
                58: 0.90327, 59:-0.41236, 60: 0.85984
    26 |      |  1: 0.88444,  2:-0.69509,  3:-0.46802,  4: 0.73373,  5: 0.68598,  6: 0.03397,  7:-0.41494,  8: 0.87290,  9:-0.47864,
                10: 0.90343, 41: 0.65974, 42: 0.72169, 43: 0.65575, 44: 0.01864, 45: 0.65132, 46:-0.75282, 47: 0.52856, 48: 0.73873,
                49: 0.55021, 50: 0.96987, 51:-0.52243, 52: 0.60901, 53: 0.96716, 54: 0.92694, 55: 0.69154, 56:-0.10381, 57: 0.42141,
                58:-0.92509, 59:-0.06235, 60:-0.10922
    27 |      |  1:-0.14118,  2:-0.49030,  3: 0.82956,  4: 0.05676,  5:-0.79001,  6:-0.67652,  7: 0.81235,  8: 0.14780,  9:-0.79522,
                10:-0.15992, 41: 0.01418, 42:-0.41543, 43: 0.52046, 44: 0.81262, 45: 0.12389, 46:-0.44951, 47:-0.37148, 48:-0.89094,
                49:-0.21456, 50: 0.56784, 51: 0.30549, 52:-0.96310, 53: 0.11130, 54:-0.86768, 55:-0.07849, 56: 0.75352, 57:-0.46951,
                58:-0.88728, 59:-0.54019, 60:-0.84931
    28 |      |  1: 0.54734,  2: 0.16855,  3: 0.80952,  4: 0.28965,  5: 0.56890,  6: 0.96018,  7: 0.58178,  8: 0.47177,  9: 0.22144,
                10: 0.43148, 41: 0.50916, 42:-0.34957, 43: 0.44822, 44:-0.07077, 45: 0.18035, 46:-0.58024, 47:-0.57523, 48: 0.14701,
                49: 0.37776, 50:-0.41960, 51:-0.57217, 52:-0.00520, 53: 0.70607, 54:-0.72468, 55: 0.65115, 56:-0.91130, 57: 0.64141,
                58: 0.54668, 59:-0.26808, 60:-0.71383
    29 |      |  1: 0.00257,  2:-0.49200,  3:-0.16531,  4: 0.76120,  5: 0.90821,  6:-0.19831,  7: 0.46883,  8: 0.83316,  9:-0.05984,
                10:-0.72126, 41: 0.21266, 42:-0.39665, 43:-0.85670, 44:-0.03468, 45: 0.71770, 46:-0.44987, 47:-0.89849, 48: 0.46679,
                49: 0.15964, 50:-0.86423, 51:-0.01154, 52:-0.18959, 53:-0.53575, 54:-0.07755, 55:-0.26172, 56:-0.03635, 57: 0.83910,
                58: 0.60958, 59: 0.01595, 60: 0.13908
    30 |      |  1: 0.88621,  2:-0.35368,  3: 0.00550,  4: 0.69919,  5: 0.94026,  6:-0.43407,  7: 0.75080,  8: 0.83609,  9: 0.50993,
                10:-0.19895, 41:-0.20859, 42:-0.56443, 43: 0.44618, 44: 0.27524, 45:-0.14889, 46: 0.44418, 47:-0.58526, 48:-0.04591,
                49: 0.53300, 50: 0.53889, 51:-0.76658, 52: 0.70885, 53:-0.37545, 54:-0.26584, 55:-0.36019, 56:-0.19480, 57:-0.21086,
                58: 0.26132, 59: 0.33384, 60: 0.80065
    31 |      | 11:-0.05867, 12:-0.14808, 13:-0.71616, 14:-0.78908, 15:-0.57166, 16:-0.79044, 17: 0.94948, 18:-0.74657, 19:-0.79897,
                20:-0.10195, 21:-0.66834, 22:-0.71890, 23: 0.55138, 24:-0.57004, 25:-0.30794, 26:-0.85898, 27: 0.56438, 28:-0.51325,
                29: 0.37258, 30:-0.72141
    32 |      | 11:-0.79134, 12: 0.88837, 13: 0.25518, 14: 0.65058, 15:-0.74127, 16:-0.61075, 17: 0.53269, 18:-0.79565, 19:-0.94425,
                20:-0.69387, 21: 0.33703, 22:-0.12133, 23:-0.33078, 24: 0.19473, 25: 0.05317, 26: 0.62451, 27:-0.94305, 28: 0.37965,
                29: 0.65364, 30:-0.46790
    33 |      | 11:-0.90447, 12:-0.16871, 13:-0.84628, 14:-0.76575, 15:-0.25531, 16:-0.65391, 17:-0.34255, 18:-0.00976, 19:-0.31266,
                20: 0.50339, 21:-0.59915, 22: 0.07385, 23: 0.91434, 24: 0.39638, 25: 0.98438, 26: 0.08036, 27: 0.00684, 28: 0.65252,
                29:-0.89771, 30: 0.62521
    34 |      | 11:-0.14914, 12:-0.32337, 13:-0.38567, 14: 0.68317, 15: 0.79533, 16: 0.43005, 17: 0.58125, 18: 0.31905, 19:-0.44655,
                20:-0.21524, 21:-0.85341, 22: 0.08997, 23: 0.06014, 24:-0.20053, 25: 0.44272, 26: 0.76060, 27:-0.55565, 28: 0.76916,
                29:-0.27409, 30:-0.20619
    35 |      | 11:-0.41703, 12: 0.25100, 13:-0.61286, 14: 0.47052, 15: 0.39748, 16: 0.28367, 17: 0.82733, 18: 0.98830, 19:-0.45888,
                20: 0.44160, 21:-0.16478, 22:-0.66848, 23: 0.69368, 24: 0.55020, 25: 0.48512, 26:-0.67799, 27:-0.37651, 28: 0.12670,
                29:-0.44044, 30:-0.35004
    36 |      | 11:-0.68176, 12: 0.44813, 13: 0.55427, 14:-0.92838, 15: 0.55846, 16:-0.25511, 17:-0.29181, 18:-0.12771, 19:-0.09035,
                20: 0.08704, 21:-0.13492, 22:-0.52722, 23: 0.65547, 24: 0.27255, 25: 0.63331, 26: 0.27627, 27: 0.42613, 28:-0.22252,
                29: 0.05038, 30:-0.43222
    37 |      | 11:-0.83262, 12: 0.84035, 13:-0.44807, 14:-0.22321, 15:-0.01987, 16:-0.86253, 17:-0.79218, 18:-0.43409, 19: 0.08945,
                20: 0.65839, 21:-0.67185, 22:-0.42493, 23: 0.69580, 24:-0.23657, 25: 0.88445, 26:-0.58224, 27: 0.51112, 28:-0.63241,
                29: 0.44422, 30: 0.78453
    38 |      | 11: 0.39096, 12:-0.27603, 13: 0.92803, 14:-0.76631, 15:-0.63517, 16: 0.43227, 17: 0.46778, 18: 0.70057, 19:-0.73001,
                20: 0.74133, 21:-0.90430, 22: 0.84901, 23: 0.85390, 24:-0.60166, 25: 0.15476, 26:-0.79208, 27: 0.07488, 28:-0.50901,
                29: 0.23113, 30: 0.64023
    39 |      | 11: 0.02447, 12:-0.80365, 13: 0.56281, 14:-0.64378, 15:-0.96920, 16: 0.00232, 17: 0.24179, 18:-0.89064, 19:-0.83830,
                20: 0.00624, 21:-0.94822, 22: 0.34238, 23: 0.33254, 24:-0.18450, 25: 0.14268, 26:-0.35356, 27: 0.66991, 28:-0.68117,
                29:-0.42980, 30:-0.78965
    40 |      | 11:-0.47244, 12:-0.18191, 13: 0.30615, 14:-0.21695, 15: 0.50268, 16:-0.31043, 17: 0.71640, 18:-0.34140, 19: 0.49407,
                20:-0.08689, 21:-0.49784, 22: 0.33921, 23: 0.56907, 24: 0.34928, 25: 0.03662, 26:-0.02847, 27:-0.35018, 28:-0.52153,
                29:-0.58773, 30:-0.28723
    41 |      | 11: 0.00000, 41: 1.00000
    42 |      | 12: 0.00000, 42: 1.00000
    43 |      | 13: 0.00000, 43: 1.00000
    44 |      | 14: 0.00000, 44: 1.00000
    45 |      | 15: 0.00000, 45: 1.00000
    46 |      | 16: 0.00000, 46: 1.00000
    47 |      | 17: 0.00000, 47: 1.00000
    48 |      | 18: 0.00000, 48: 1.00000
    49 |      | 19: 0.00000, 49: 1.00000
    50 |      | 20: 0.00000, 50: 1.00000
    51 |      | 21: 0.00000, 51: 1.00000
    52 |      | 22: 0.00000, 52: 1.00000
    53 |      | 23: 0.00000, 53: 1.00000
    54 |      | 24: 0.00000, 54: 1.00000
    55 |      | 25: 0.00000, 55: 1.00000
    56 |      | 26: 0.00000, 56: 1.00000
    57 |      | 27: 0.00000, 57: 1.00000
    58 |      | 28: 0.00000, 58: 1.00000
    59 |      | 29: 0.00000, 59: 1.00000
    60 |      | 30: 0.00000, 60: 1.00000
-------|------|---------------------------------------------------------------------------------------------------------------------
