SNNS network definition file V1.4-3D
generated at Wed Oct 25 20:53:33 2023

network name : lot1_utrd_c
source files :
no. of units : 60
no. of connections : 840
no. of unit types : 0
no. of site types : 0


learning function : JE_BP
update function   : JE_Order
init function     : JE_Weights


unit default section :

act      | bias     | st | subnet | layer | act func     | out func
---------|----------|----|--------|-------|--------------|-------------
 0.00000 |  0.00000 | h  |      0 |     1 | Act_Logistic | Out_Identity 
---------|----------|----|--------|-------|--------------|-------------


unit definition section :

no. | typeName | unitName | act      | bias     | st | position | act func     | out func | sites
----|----------|----------|----------|----------|----|----------|--------------|----------|-------
  1 |          | inp1     |  0.00000 | -0.19803 | i  |  1, 1, 0 | Act_Identity |          | 
  2 |          | inp2     |  1.00000 |  0.68758 | i  |  1, 2, 0 | Act_Identity |          | 
  3 |          | inp3     |  0.00000 |  0.81350 | i  |  1, 3, 0 | Act_Identity |          | 
  4 |          | inp4     |  0.00000 |  0.08057 | i  |  1, 4, 0 | Act_Identity |          | 
  5 |          | inp5     |  0.00000 |  0.69968 | i  |  1, 5, 0 | Act_Identity |          | 
  6 |          | inp6     |  0.00000 |  0.77198 | i  |  1, 6, 0 | Act_Identity |          | 
  7 |          | inp7     |  0.00000 | -0.27632 | i  |  1, 7, 0 | Act_Identity |          | 
  8 |          | inp8     |  0.00000 |  0.22154 | i  |  1, 8, 0 | Act_Identity |          | 
  9 |          | inp9     |  0.00000 | -0.08940 | i  |  1, 9, 0 | Act_Identity |          | 
 10 |          | inp10    |  0.00000 |  0.75878 | i  |  1,10, 0 | Act_Identity |          | 
 11 |          | hid1     |  0.00000 | -0.26126 | h  | 10, 1, 0 |||
 12 |          | hid2     |  0.00000 |  0.36072 | h  | 11, 1, 0 |||
 13 |          | hid3     |  0.00000 | -0.76279 | h  | 12, 1, 0 |||
 14 |          | hid4     |  0.00000 |  0.91879 | h  | 13, 1, 0 |||
 15 |          | hid5     |  0.00000 | -0.91428 | h  | 10, 2, 0 |||
 16 |          | hid6     |  0.00000 | -0.37203 | h  | 11, 2, 0 |||
 17 |          | hid7     |  0.00000 | -0.79042 | h  | 12, 2, 0 |||
 18 |          | hid8     |  0.00000 |  0.80335 | h  | 13, 2, 0 |||
 19 |          | hid9     |  0.00000 |  0.39899 | h  | 10, 3, 0 |||
 20 |          | hid10    |  0.00000 | -0.33067 | h  | 11, 3, 0 |||
 21 |          | hid11    |  0.00000 | -0.94617 | h  | 12, 3, 0 |||
 22 |          | hid12    |  0.00000 | -0.38570 | h  | 13, 3, 0 |||
 23 |          | hid13    |  0.00000 |  0.58206 | h  | 10, 4, 0 |||
 24 |          | hid14    |  0.00000 |  0.50635 | h  | 11, 4, 0 |||
 25 |          | hid15    |  0.00000 | -0.13298 | h  | 12, 4, 0 |||
 26 |          | hid16    |  0.00000 |  0.42364 | h  | 13, 4, 0 |||
 27 |          | hid17    |  0.00000 | -0.75570 | h  | 10, 5, 0 |||
 28 |          | hid18    |  0.00000 | -0.36440 | h  | 11, 5, 0 |||
 29 |          | hid19    |  0.00000 |  0.44142 | h  | 12, 5, 0 |||
 30 |          | hid20    |  0.00000 | -0.75499 | h  | 13, 5, 0 |||
 31 |          | out1     |  0.00000 | -0.18738 | o  | 19, 1, 0 |||
 32 |          | out2     |  0.00000 |  0.22494 | o  | 19, 2, 0 |||
 33 |          | out3     |  0.00000 |  0.70529 | o  | 19, 3, 0 |||
 34 |          | out4     |  0.00000 |  0.30679 | o  | 19, 4, 0 |||
 35 |          | out5     |  1.00000 |  0.84059 | o  | 19, 5, 0 |||
 36 |          | out6     |  0.00000 | -0.01867 | o  | 19, 6, 0 |||
 37 |          | out7     |  0.00000 | -0.29896 | o  | 19, 7, 0 |||
 38 |          | out8     |  0.00000 | -0.34807 | o  | 19, 8, 0 |||
 39 |          | out9     |  0.00000 |  0.92584 | o  | 19, 9, 0 |||
 40 |          | out10    |  0.00000 | -0.63972 | o  | 19,10, 0 |||
 41 |          | con1     |  0.00000 |  0.50000 | sh  |  4,12, 0 | Act_Identity |          | 
 42 |          | con2     |  0.00000 |  0.50000 | sh  |  5,12, 0 | Act_Identity |          | 
 43 |          | con3     |  0.00000 |  0.50000 | sh  |  6,12, 0 | Act_Identity |          | 
 44 |          | con4     |  0.00000 |  0.50000 | sh  |  7,12, 0 | Act_Identity |          | 
 45 |          | con5     |  0.00000 |  0.50000 | sh  |  4,13, 0 | Act_Identity |          | 
 46 |          | con6     |  0.00000 |  0.50000 | sh  |  5,13, 0 | Act_Identity |          | 
 47 |          | con7     |  0.00000 |  0.50000 | sh  |  6,13, 0 | Act_Identity |          | 
 48 |          | con8     |  0.00000 |  0.50000 | sh  |  7,13, 0 | Act_Identity |          | 
 49 |          | con9     |  0.00000 |  0.50000 | sh  |  4,14, 0 | Act_Identity |          | 
 50 |          | con10    |  0.00000 |  0.50000 | sh  |  5,14, 0 | Act_Identity |          | 
 51 |          | con11    |  0.00000 |  0.50000 | sh  |  6,14, 0 | Act_Identity |          | 
 52 |          | con12    |  0.00000 |  0.50000 | sh  |  7,14, 0 | Act_Identity |          | 
 53 |          | con13    |  0.00000 |  0.50000 | sh  |  4,15, 0 | Act_Identity |          | 
 54 |          | con14    |  0.00000 |  0.50000 | sh  |  5,15, 0 | Act_Identity |          | 
 55 |          | con15    |  0.00000 |  0.50000 | sh  |  6,15, 0 | Act_Identity |          | 
 56 |          | con16    |  0.00000 |  0.50000 | sh  |  7,15, 0 | Act_Identity |          | 
 57 |          | con17    |  0.00000 |  0.50000 | sh  |  4,16, 0 | Act_Identity |          | 
 58 |          | con18    |  0.00000 |  0.50000 | sh  |  5,16, 0 | Act_Identity |          | 
 59 |          | con19    |  0.00000 |  0.50000 | sh  |  6,16, 0 | Act_Identity |          | 
 60 |          | con20    |  0.00000 |  0.50000 | sh  |  7,16, 0 | Act_Identity |          | 
----|----------|----------|----------|----------|----|----------|--------------|----------|-------


connection definition section :

target | site | source:weight
-------|------|---------------------------------------------------------------------------------------------------------------------
    11 |      |  1:-0.17141,  2: 0.56590,  3: 0.59041,  4:-0.03345,  5: 0.15492,  6: 0.26756,  7: 0.05348,  8:-0.47580,  9: 0.83882,
                10:-0.00589, 41: 0.48519, 42: 0.36890, 43: 0.37937, 44:-0.85438, 45:-0.15366, 46: 0.82158, 47: 0.86726, 48: 0.66307,
                49: 0.54172, 50:-0.28188, 51:-0.27410, 52:-0.09727, 53:-0.55946, 54:-0.45188, 55: 0.97220, 56:-0.72523, 57: 0.66546,
                58:-0.54492, 59: 0.04961, 60: 0.78997
    12 |      |  1:-0.84054,  2:-0.72738,  3:-0.08072,  4:-0.48070,  5: 0.15413,  6:-0.02574,  7:-0.53105,  8: 0.46593,  9:-0.31755,
                10:-0.34059, 41:-0.48510, 42: 0.39537, 43:-0.34200, 44: 0.89581, 45:-0.57504, 46:-0.18824, 47: 0.77940, 48:-0.14780,
                49:-0.68256, 50:-0.61939, 51:-0.56122, 52:-0.18363, 53:-0.75094, 54:-0.11460, 55: 0.76215, 56: 0.66175, 57: 0.37330,
                58: 0.18906, 59:-0.75310, 60:-0.98396
    13 |      |  1:-0.42972,  2:-0.69217,  3:-0.77811,  4: 0.35953,  5:-0.01500,  6:-0.21254,  7: 0.44277,  8: 0.91634,  9: 0.86640,
                10: 0.65027, 41:-0.70299, 42:-0.49048, 43:-0.59011, 44:-0.97145, 45:-0.98873, 46:-0.04285, 47:-0.99992, 48: 0.22922,
                49:-0.44979, 50: 0.26685, 51:-0.14804, 52:-0.20088, 53:-0.25029, 54:-0.52972, 55:-0.89802, 56:-0.82303, 57:-0.12585,
                58: 0.94038, 59:-0.23877, 60: 0.57386
    14 |      |  1: 0.90733,  2:-0.88583,  3:-0.39500,  4: 0.54085,  5:-0.04810,  6:-0.48625,  7:-0.22942,  8: 0.85064,  9:-0.29988,
                10: 0.00752, 41:-0.57448, 42:-0.98144, 43: 0.27392, 44: 0.96757, 45: 0.50065, 46: 0.31550, 47: 0.37140, 48:-0.25242,
                49: 0.40129, 50: 0.83302, 51:-0.65182, 52:-0.57075, 53:-0.48406, 54: 0.72244, 55:-0.86296, 56: 0.74253, 57:-0.73621,
                58:-0.18260, 59: 0.15646, 60: 0.26306
    15 |      |  1:-0.60438,  2: 0.99473,  3:-0.26125,  4:-0.92623,  5:-0.50073,  6: 0.18367,  7:-0.17344,  8:-0.28514,  9: 0.54083,
                10: 0.95589, 41: 0.29977, 42: 0.51966, 43:-0.78507, 44: 0.76896, 45: 0.80479, 46: 0.97999, 47: 0.32760, 48:-0.57248,
                49:-0.88818, 50: 0.55828, 51:-0.17932, 52:-0.21600, 53:-0.65874, 54:-0.68722, 55: 0.75996, 56:-0.21254, 57: 0.40373,
                58: 0.69886, 59: 0.58733, 60:-0.29151
    16 |      |  1:-0.70013,  2:-0.30504,  3:-0.07855,  4:-0.24805,  5:-0.68463,  6:-0.98123,  7: 0.99118,  8: 0.81767,  9: 0.99682,
                10:-0.50943, 41: 0.90225, 42:-0.53918, 43:-0.35655, 44: 0.92678, 45:-0.90926, 46:-0.73992, 47:-0.13157, 48: 0.32554,
                49:-0.90921, 50: 0.56591, 51:-0.42250, 52:-0.87583, 53: 0.78392, 54: 0.14033, 55: 0.27067, 56: 0.23162, 57: 0.72656,
                58:-0.69665, 59:-0.97029, 60:-0.43549
    17 |      |  1: 0.61130,  2:-0.12017,  3: 0.31413,  4: 0.54875,  5: 0.61996,  6:-0.55291,  7:-0.33850,  8:-0.31466,  9:-0.53733,
                10:-0.84816, 41: 0.51001, 42: 0.15202, 43:-0.03046, 44: 0.10359, 45: 0.86249, 46:-0.41051, 47: 0.25843, 48: 0.76039,
                49: 0.54290, 50:-0.36969, 51:-0.75248, 52: 0.99403, 53: 0.33021, 54:-0.45578, 55:-0.29962, 56:-0.98512, 57: 0.48298,
                58:-0.40074, 59:-0.73831, 60: 0.55229
    18 |      |  1:-0.23300,  2: 0.73934,  3: 0.49970,  4:-0.49543,  5:-0.08786,  6:-0.38154,  7: 0.00095,  8:-0.63889,  9: 0.77548,
                10: 0.65635, 41: 0.60384, 42: 0.05809, 43: 0.29690, 44:-0.67522, 45: 0.91039, 46: 0.90842, 47:-0.36319, 48:-0.02468,
                49: 0.22535, 50:-0.26725, 51: 0.74077, 52:-0.23750, 53: 0.50483, 54: 0.72823, 55:-0.35397, 56: 0.64458, 57: 0.73754,
                58: 0.58524, 59:-0.26332, 60:-0.01239
    19 |      |  1: 0.41337,  2: 0.69874,  3:-0.56170,  4:-0.70547,  5:-0.35562,  6: 0.47989,  7: 0.53866,  8: 0.78323,  9: 0.89573,
                10:-0.30823, 41: 0.98020, 42: 0.73093, 43: 0.67559, 44: 0.76557, 45: 0.10874, 46:-0.40376, 47:-0.86873, 48:-0.95862,
                49: 0.18040, 50: 0.67613, 51: 0.09876, 52:-0.31238, 53:-0.45682, 54: 0.93375, 55:-0.72045, 56: 0.85186, 57: 0.20268,
                58:-0.94380, 59:-0.79807, 60:-0.72396
    20 |      |  1: 0.83773,  2: 0.93270,  3: 0.39835,  4:-0.65726,  5:-0.10338,  6: 0.47799,  7:-0.06508,  8:-0.55207,  9:-0.30503,
                10: 0.10335, 41:-0.59404, 42: 0.39963, 43: 0.26688, 44: 0.03535, 45: 0.95519, 46: 0.85512, 47: 0.74516, 48:-0.72738,
                49:-0.88687, 50:-0.73914, 51: 0.32322, 52: 0.59346, 53:-0.52426, 54: 0.76149, 55:-0.34249, 56: 0.82876, 57:-0.69936,
                58:-0.50190, 59:-0.29159, 60: 0.57269
    21 |      |  1:-0.13018,  2: 0.78182,  3:-0.30629,  4: 0.34840,  5: 0.78386,  6:-0.94218,  7: 0.22304,  8: 0.48020,  9: 0.50526,
                10:-0.48659, 41:-0.16081, 42: 0.95063, 43: 0.89086, 44:-0.96129, 45:-0.39031, 46: 0.63639, 47: 0.72186, 48:-0.76686,
                49:-0.26426, 50: 0.37581, 51:-0.07551, 52:-0.78502, 53:-0.41628, 54: 0.04149, 55:-0.20342, 56:-0.50742, 57:-0.44272,
                58:-0.89886, 59:-0.73537, 60:-0.91789
    22 |      |  1: 0.27255,  2:-0.27302,  3:-0.48907,  4: 0.18089,  5:-0.71780,  6: 0.45735,  7:-0.14235,  8:-0.45559,  9: 0.66752,
                10: 0.83121, 41:-0.36564, 42: 0.67539, 43: 0.83685, 44: 0.99751, 45: 0.04004, 46:-0.04497, 47:-0.36832, 48: 0.96864,
                49:-0.82041, 50:-0.93553, 51:-0.07198, 52: 0.58243, 53: 0.36379, 54:-0.11659, 55:-0.53174, 56:-0.74275, 57: 0.04304,
                58: 0.67905, 59: 0.32386, 60: 0.99287
    23 |      |  1:-0.86111,  2: 0.94081,  3: 0.45847,  4:-0.39713,  5:-0.61913,  6: 0.49411,  7:-0.72895,  8:-0.50248,  9:-0.60447,
                10: 0.74972, 41:-0.56727, 42:-0.22452, 43:-0.65716, 44: 0.37026, 45:-0.68319, 46: 0.84047, 47:-0.38632, 48:-0.23271,
                49: 0.23906, 50:-0.39047, 51: 0.91439, 52:-0.54735, 53:-0.58837, 54: 0.95817, 55:-0.84677, 56: 0.22541, 57:-0.44093,
                58: 0.50936, 59:-0.62147, 60: 0.39137
    24 |      |  1:-0.16784,  2: 0.18930,  3: 0.08689,  4:-0.82885,  5: 0.07634,  6: 0.12464,  7:-0.70181,  8: 0.37218,  9: 0.68069,
                10:-0.27325, 41: 0.55638, 42:-0.81743, 43: 0.64057, 44:-0.08482, 45:-0.13436, 46:-0.08436, 47:-0.66910, 48: 0.63279,
                49: 0.09844, 50: 0.64747, 51:-0.17310, 52:-0.48384, 53: 0.87481, 54: 0.09696, 55: 0.66080, 56: 0.66772, 57:-0.56937,
                58:-0.94388, 59: 0.95808, 60:-0.00925
    25 |      |  1: 0.96731,  2:-0.28626,  3: 0.49169,  4: 0.74577,  5: 0.97538,  6: 0.74467,  7:-0.57800,  8:-0.36471,  9: 0.35433,
                10:-0.42163, 41: 0.06100, 42: 0.89291, 43: 0.85336, 44: 0.54475, 45: 0.73504, 46: 0.75987, 47: 0.67612, 48: 0.80475,
                49:-0.29943, 50: 0.40808, 51:-0.32947, 52:-0.50131, 53: 0.63095, 54: 0.66815, 55: 0.25302, 56:-0.00750, 57:-0.55048,
                58: 0.13582, 59:-0.27257, 60:-0.94748
    26 |      |  1:-0.35780,  2: 0.31220,  3: 0.23973,  4: 0.02527,  5: 0.71952,  6: 0.40379,  7: 0.78041,  8:-0.21192,  9: 0.82866,
                10: 0.64411, 41:-0.61839, 42: 0.93660, 43:-0.53688, 44: 0.20648, 45:-0.99948, 46: 0.08242, 47: 0.62336, 48:-0.42906,
                49:-0.62486, 50:-0.10039, 51:-0.02099, 52: 0.84343, 53: 0.45005, 54: 0.99821, 55:-0.19039, 56:-0.47434, 57:-0.19787,
                58: 0.77074, 59: 0.63631, 60:-0.58179
    27 |      |  1: 0.82252,  2: 0.52191,  3: 0.11683,  4: 0.26484,  5: 0.70928,  6: 0.11120,  7:-0.86503,  8: 0.49095,  9: 0.56221,
                10:-0.51211, 41: 0.06752, 42: 0.43916, 43:-0.78277, 44: 0.31518, 45:-0.86448, 46: 0.26490, 47:-0.41475, 48: 0.06985,
                49:-0.13162, 50: 0.72799, 51: 0.07746, 52: 0.63951, 53: 0.26078, 54:-0.82965, 55:-0.72449, 56: 0.38269, 57: 0.37315,
                58: 0.82246, 59: 0.02157, 60: 0.80358
    28 |      |  1:-0.57407,  2:-0.52321,  3: 0.20886,  4: 0.89128,  5: 0.03161,  6:-0.79289,  7: 0.63218,  8:-0.97839,  9:-0.69500,
                10: 0.21885, 41:-0.43860, 42:-0.40405, 43:-0.01864, 44: 0.26915, 45:-0.18896, 46:-0.13554, 47:-0.15264, 48: 0.37222,
                49: 0.56477, 50:-0.73295, 51:-0.78889, 52: 0.83432, 53:-0.91765, 54:-0.11774, 55:-0.96989, 56:-0.52939, 57:-0.17096,
                58: 0.52706, 59: 0.31192, 60: 0.94604
    29 |      |  1:-0.10075,  2: 0.04422,  3: 0.96876,  4: 0.68599,  5: 0.80438,  6:-0.44754,  7:-0.15236,  8:-0.31711,  9:-0.57644,
                10: 0.97003, 41: 0.67075, 42:-0.46278, 43: 0.27192, 44: 0.42980, 45: 0.00553, 46: 0.11933, 47:-0.79947, 48: 0.97880,
                49: 0.96768, 50: 0.13193, 51:-0.03978, 52: 0.25914, 53: 0.12797, 54:-0.54273, 55: 0.64289, 56:-0.79100, 57:-0.13427,
                58:-0.15145, 59: 0.13282, 60: 0.78234
    30 |      |  1: 0.66546,  2:-0.35348,  3: 0.67474,  4:-0.43526,  5: 0.99738,  6: 0.83800,  7:-0.17238,  8: 0.66373,  9: 0.20698,
                10:-0.15463, 41: 0.96069, 42: 0.56433, 43:-0.20762, 44:-0.68552, 45:-0.70690, 46:-0.20193, 47:-0.76841, 48:-0.15821,
                49: 0.04140, 50:-0.07120, 51:-0.04134, 52: 0.62996, 53:-0.84550, 54:-0.50408, 55:-0.76313, 56: 0.36799, 57:-0.66539,
                58: 0.43397, 59: 0.94792, 60: 0.57001
    31 |      | 11: 0.54631, 12:-0.69376, 13: 0.69234, 14:-0.94291, 15: 0.84825, 16: 0.42765, 17:-0.62903, 18:-0.10096, 19:-0.45206,
                20:-0.68103, 21: 0.87869, 22:-0.90188, 23: 0.56718, 24:-0.90940, 25:-0.59569, 26:-0.35152, 27:-0.74431, 28: 0.50206,
                29:-0.26063, 30:-0.04059
    32 |      | 11: 0.89946, 12:-0.62913, 13:-0.87575, 14:-0.10536, 15:-0.64402, 16:-0.50714, 17: 0.83229, 18:-0.25202, 19:-0.36242,
                20:-0.04777, 21:-0.05167, 22:-0.25795, 23:-0.66438, 24:-0.75612, 25:-0.40874, 26: 0.59545, 27:-0.92020, 28:-0.80735,
                29: 0.74022, 30:-0.47458
    33 |      | 11: 0.44919, 12: 0.38019, 13:-0.35219, 14:-0.77152, 15: 0.14850, 16: 0.20932, 17:-0.12951, 18: 0.71083, 19: 0.51439,
                20: 0.55094, 21: 0.35913, 22: 0.87799, 23: 0.54353, 24:-0.22711, 25: 0.15608, 26:-0.37560, 27:-0.41284, 28:-0.01412,
                29: 0.38073, 30:-0.72292
    34 |      | 11:-0.31281, 12: 0.69324, 13:-0.68331, 14: 0.46976, 15: 0.29476, 16:-0.10720, 17: 0.85144, 18:-0.05374, 19: 0.98196,
                20: 0.14398, 21:-0.20119, 22: 0.36837, 23:-0.97727, 24:-0.65246, 25: 0.83013, 26: 0.72501, 27:-0.02129, 28: 0.53087,
                29:-0.34955, 30:-0.07043
    35 |      | 11:-0.76822, 12: 0.18761, 13: 0.55768, 14: 0.85109, 15:-0.93865, 16: 0.41316, 17:-0.31611, 18:-0.29064, 19:-0.20145,
                20:-0.43102, 21:-0.56601, 22: 0.55063, 23:-0.69861, 24: 0.87709, 25: 0.62400, 26:-0.77918, 27:-0.50321, 28:-0.19052,
                29:-0.99812, 30:-0.52590
    36 |      | 11: 0.72675, 12: 0.18983, 13: 0.71166, 14:-0.95537, 15:-0.70978, 16: 0.70685, 17: 0.48887, 18:-0.09813, 19: 0.23598,
                20:-0.58444, 21: 0.33312, 22:-0.25340, 23:-0.30978, 24:-0.41498, 25: 0.36039, 26: 0.03152, 27:-0.38584, 28:-0.58681,
                29:-0.97055, 30:-0.25369
    37 |      | 11: 0.44613, 12:-0.75887, 13: 0.94750, 14: 0.20578, 15:-0.27525, 16:-0.66252, 17: 0.43597, 18: 0.96329, 19:-0.24092,
                20:-0.31685, 21:-0.73041, 22: 0.03208, 23:-0.62958, 24: 0.06603, 25:-0.78947, 26:-0.13456, 27: 0.06592, 28: 0.62652,
                29: 0.67258, 30: 0.13845
    38 |      | 11: 0.24798, 12: 0.15867, 13: 0.91366, 14: 0.20171, 15:-0.00623, 16:-0.56425, 17:-0.12676, 18:-0.05933, 19:-0.72081,
                20:-0.87521, 21: 0.13702, 22:-0.01380, 23:-0.11441, 24:-0.70187, 25: 0.57326, 26:-0.21247, 27: 0.86761, 28:-0.14485,
                29: 0.43625, 30: 0.37932
    39 |      | 11:-0.36316, 12: 0.16830, 13: 0.73598, 14: 0.31209, 15:-0.34162, 16: 0.91450, 17:-0.64349, 18:-0.95581, 19: 0.67095,
                20:-0.05816, 21:-0.79718, 22:-0.28519, 23: 0.16472, 24:-0.95253, 25:-0.03936, 26: 0.91224, 27:-0.48355, 28:-0.90324,
                29:-0.28939, 30: 0.00239
    40 |      | 11: 0.05576, 12: 0.12624, 13:-0.63538, 14:-0.52134, 15: 0.87516, 16:-0.38666, 17: 0.08986, 18:-0.89828, 19: 0.03577,
                20:-0.05203, 21:-0.56130, 22:-0.03394, 23:-0.23228, 24: 0.25176, 25: 0.16818, 26:-0.21634, 27: 0.28641, 28:-0.92142,
                29:-0.84251, 30:-0.15446
    41 |      | 11: 1.00000, 41: 1.00000
    42 |      | 12: 1.00000, 42: 1.00000
    43 |      | 13: 1.00000, 43: 1.00000
    44 |      | 14: 1.00000, 44: 1.00000
    45 |      | 15: 1.00000, 45: 1.00000
    46 |      | 16: 1.00000, 46: 1.00000
    47 |      | 17: 1.00000, 47: 1.00000
    48 |      | 18: 1.00000, 48: 1.00000
    49 |      | 19: 1.00000, 49: 1.00000
    50 |      | 20: 1.00000, 50: 1.00000
    51 |      | 21: 1.00000, 51: 1.00000
    52 |      | 22: 1.00000, 52: 1.00000
    53 |      | 23: 1.00000, 53: 1.00000
    54 |      | 24: 1.00000, 54: 1.00000
    55 |      | 25: 1.00000, 55: 1.00000
    56 |      | 26: 1.00000, 56: 1.00000
    57 |      | 27: 1.00000, 57: 1.00000
    58 |      | 28: 1.00000, 58: 1.00000
    59 |      | 29: 1.00000, 59: 1.00000
    60 |      | 30: 1.00000, 60: 1.00000
-------|------|---------------------------------------------------------------------------------------------------------------------
