SNNS network definition file V1.4-3D
generated at Wed Oct 25 21:01:51 2023

network name : lot1_utrd_d
source files :
no. of units : 60
no. of connections : 840
no. of unit types : 0
no. of site types : 0


learning function : JE_BP
update function   : JE_Order
init function     : JE_Weights


unit default section :

act      | bias     | st | subnet | layer | act func     | out func
---------|----------|----|--------|-------|--------------|-------------
 0.00000 |  0.00000 | h  |      0 |     1 | Act_Logistic | Out_Identity 
---------|----------|----|--------|-------|--------------|-------------


unit definition section :

no. | typeName | unitName | act      | bias     | st | position | act func     | out func | sites
----|----------|----------|----------|----------|----|----------|--------------|----------|-------
  1 |          | inp1     |  0.00000 |  0.82335 | i  |  1, 1, 0 | Act_Identity |          | 
  2 |          | inp2     |  0.00000 | -0.79265 | i  |  1, 2, 0 | Act_Identity |          | 
  3 |          | inp3     |  0.00000 | -0.07013 | i  |  1, 3, 0 | Act_Identity |          | 
  4 |          | inp4     |  0.00000 |  0.73556 | i  |  1, 4, 0 | Act_Identity |          | 
  5 |          | inp5     |  0.00000 | -0.16284 | i  |  1, 5, 0 | Act_Identity |          | 
  6 |          | inp6     |  0.00000 |  0.89324 | i  |  1, 6, 0 | Act_Identity |          | 
  7 |          | inp7     |  1.00000 |  0.85732 | i  |  1, 7, 0 | Act_Identity |          | 
  8 |          | inp8     |  0.00000 |  0.93172 | i  |  1, 8, 0 | Act_Identity |          | 
  9 |          | inp9     |  0.00000 | -0.76848 | i  |  1, 9, 0 | Act_Identity |          | 
 10 |          | inp10    |  0.00000 | -0.00632 | i  |  1,10, 0 | Act_Identity |          | 
 11 |          | hid1     |  0.01529 | -0.45912 | h  | 10, 1, 0 |||
 12 |          | hid2     |  0.00948 | -0.35629 | h  | 11, 1, 0 |||
 13 |          | hid3     |  0.99170 |  1.15356 | h  | 12, 1, 0 |||
 14 |          | hid4     |  0.11844 |  1.01428 | h  | 13, 1, 0 |||
 15 |          | hid5     |  0.98496 |  0.37012 | h  | 10, 2, 0 |||
 16 |          | hid6     |  0.13636 |  0.42251 | h  | 11, 2, 0 |||
 17 |          | hid7     |  0.97105 |  0.58266 | h  | 12, 2, 0 |||
 18 |          | hid8     |  0.96418 | -0.10269 | h  | 13, 2, 0 |||
 19 |          | hid9     |  0.39012 |  0.90664 | h  | 10, 3, 0 |||
 20 |          | hid10    |  0.23374 |  0.33326 | h  | 11, 3, 0 |||
 21 |          | hid11    |  0.91805 |  0.82820 | h  | 12, 3, 0 |||
 22 |          | hid12    |  0.86840 | -0.67666 | h  | 13, 3, 0 |||
 23 |          | hid13    |  0.00320 | -0.92759 | h  | 10, 4, 0 |||
 24 |          | hid14    |  0.11426 |  0.54580 | h  | 11, 4, 0 |||
 25 |          | hid15    |  0.93917 |  0.52979 | h  | 12, 4, 0 |||
 26 |          | hid16    |  0.16141 | -0.46780 | h  | 13, 4, 0 |||
 27 |          | hid17    |  0.31984 | -1.05482 | h  | 10, 5, 0 |||
 28 |          | hid18    |  0.03615 | -0.57518 | h  | 11, 5, 0 |||
 29 |          | hid19    |  0.87959 |  0.10121 | h  | 12, 5, 0 |||
 30 |          | hid20    |  0.83134 | -1.19467 | h  | 13, 5, 0 |||
 31 |          | out1     |  0.84720 |  0.43620 | o  | 19, 1, 0 |||
 32 |          | out2     |  0.02340 | -0.86973 | o  | 19, 2, 0 |||
 33 |          | out3     |  0.08887 | -0.45216 | o  | 19, 3, 0 |||
 34 |          | out4     |  0.00495 |  0.17448 | o  | 19, 4, 0 |||
 35 |          | out5     |  0.06364 |  0.71482 | o  | 19, 5, 0 |||
 36 |          | out6     |  0.03214 | -0.55383 | o  | 19, 6, 0 |||
 37 |          | out7     |  0.15629 |  0.04380 | o  | 19, 7, 0 |||
 38 |          | out8     |  0.04170 | -0.86478 | o  | 19, 8, 0 |||
 39 |          | out9     |  0.05473 |  0.29317 | o  | 19, 9, 0 |||
 40 |          | out10    |  0.06445 |  0.24510 | o  | 19,10, 0 |||
 41 |          | con1     |  0.40828 |  0.50000 | sh  |  4,12, 0 | Act_Identity |          | 
 42 |          | con2     |  0.70896 |  0.50000 | sh  |  5,12, 0 | Act_Identity |          | 
 43 |          | con3     |  2.66259 |  0.50000 | sh  |  6,12, 0 | Act_Identity |          | 
 44 |          | con4     |  1.56555 |  0.50000 | sh  |  7,12, 0 | Act_Identity |          | 
 45 |          | con5     |  2.43482 |  0.50000 | sh  |  4,13, 0 | Act_Identity |          | 
 46 |          | con6     |  1.37274 |  0.50000 | sh  |  5,13, 0 | Act_Identity |          | 
 47 |          | con7     |  2.38367 |  0.50000 | sh  |  6,13, 0 | Act_Identity |          | 
 48 |          | con8     |  2.43185 |  0.50000 | sh  |  7,13, 0 | Act_Identity |          | 
 49 |          | con9     |  1.58177 |  0.50000 | sh  |  4,14, 0 | Act_Identity |          | 
 50 |          | con10    |  0.90202 |  0.50000 | sh  |  5,14, 0 | Act_Identity |          | 
 51 |          | con11    |  2.30309 |  0.50000 | sh  |  6,14, 0 | Act_Identity |          | 
 52 |          | con12    |  1.44040 |  0.50000 | sh  |  7,14, 0 | Act_Identity |          | 
 53 |          | con13    |  0.21356 |  0.50000 | sh  |  4,15, 0 | Act_Identity |          | 
 54 |          | con14    |  1.09290 |  0.50000 | sh  |  5,15, 0 | Act_Identity |          | 
 55 |          | con15    |  2.34141 |  0.50000 | sh  |  6,15, 0 | Act_Identity |          | 
 56 |          | con16    |  1.30696 |  0.50000 | sh  |  7,15, 0 | Act_Identity |          | 
 57 |          | con17    |  0.74355 |  0.50000 | sh  |  4,16, 0 | Act_Identity |          | 
 58 |          | con18    |  0.62282 |  0.50000 | sh  |  5,16, 0 | Act_Identity |          | 
 59 |          | con19    |  2.40249 |  0.50000 | sh  |  6,16, 0 | Act_Identity |          | 
 60 |          | con20    |  1.43199 |  0.50000 | sh  |  7,16, 0 | Act_Identity |          | 
----|----------|----------|----------|----------|----|----------|--------------|----------|-------


connection definition section :

target | site | source:weight
-------|------|---------------------------------------------------------------------------------------------------------------------
    11 |      |  1:-0.73370,  2:-0.51143,  3: 0.94545,  4: 0.72775,  5: 0.54358,  6:-0.80063,  7:-0.87644,  8:-0.39943,  9:-0.94579,
                10:-0.77829, 41:-0.95580, 42: 0.24471, 43:-0.68673, 44:-0.37336, 45: 0.04555, 46: 0.89085, 47:-0.26511, 48:-0.19475,
                49:-0.84744, 50:-0.30405, 51: 0.06072, 52: 0.73042, 53:-0.89305, 54:-0.79122, 55: 0.63880, 56:-0.65936, 57: 0.92462,
                58:-0.43846, 59:-0.14738, 60: 0.29700
    12 |      |  1:-0.49835,  2: 0.96162,  3: 0.80636,  4: 0.78790,  5:-0.46975,  6: 0.73504,  7: 0.42113,  8: 0.29614,  9:-0.96337,
                10:-0.30695, 41:-0.56798, 42:-0.21323, 43:-1.01601, 44: 0.18166, 45:-0.28202, 46:-0.04516, 47: 0.71813, 48:-0.13586,
                49:-0.91539, 50:-0.08680, 51:-0.05829, 52:-0.96439, 53: 0.20823, 54: 0.40845, 55: 0.30404, 56:-1.04793, 57:-0.22882,
                58: 0.24042, 59:-0.39318, 60:-0.98131
    13 |      |  1:-0.76652,  2:-0.18916,  3:-0.10391,  4:-0.39810,  5:-0.75142,  6:-0.75796,  7:-0.95546,  8: 0.79398,  9:-0.45985,
                10:-0.74078, 41: 0.92153, 42: 0.07220, 43: 0.50506, 44: 0.64562, 45: 0.70477, 46:-0.34403, 47: 0.17330, 48:-0.53762,
                49: 0.77555, 50:-0.49001, 51: 0.69093, 52: 0.62842, 53: 0.63120, 54: 0.57700, 55:-0.00135, 56: 0.22932, 57:-0.07608,
                58:-0.11254, 59:-0.18380, 60:-0.25356
    14 |      |  1:-0.78625,  2: 0.04664,  3: 0.25245,  4:-0.17044,  5: 0.86152,  6:-0.45256,  7:-1.00614,  8: 0.61373,  9: 0.63317,
                10: 0.78010, 41: 1.05085, 42:-0.25004, 43: 0.15198, 44: 1.00036, 45:-0.84048, 46: 0.48323, 47:-0.26652, 48:-0.33075,
                49:-0.25777, 50:-0.70908, 51: 0.35380, 52:-0.19475, 53: 0.72332, 54:-0.47492, 55:-0.55080, 56:-0.08141, 57: 0.01108,
                58:-0.21204, 59:-0.48248, 60:-0.11122
    15 |      |  1:-0.13079,  2:-0.36776,  3: 0.86502,  4: 0.76878,  5: 0.05887,  6: 0.71224,  7: 0.32579,  8: 0.39580,  9: 0.27865,
                10:-0.06953, 41:-0.00600, 42: 0.98706, 43:-0.12637, 44: 0.60630, 45:-0.62670, 46: 0.05989, 47: 0.65138, 48: 0.62144,
                49:-0.26360, 50: 1.01376, 51:-0.09972, 52:-0.84392, 53:-0.63528, 54: 0.86617, 55:-0.12597, 56:-0.19246, 57: 0.63444,
                58: 0.29465, 59: 0.02392, 60: 0.99322
    16 |      |  1: 0.29020,  2: 0.08641,  3: 0.24215,  4:-0.56587,  5: 0.14676,  6:-0.62465,  7:-1.18816,  8: 0.06987,  9: 0.72869,
                10:-0.86957, 41: 0.07950, 42: 0.36127, 43: 0.29646, 44:-0.39693, 45:-0.70833, 46:-0.17717, 47: 0.00605, 48:-0.86496,
                49: 1.03129, 50:-0.89549, 51:-0.25809, 52: 0.27948, 53:-0.88590, 54: 0.25000, 55: 0.76518, 56:-0.03947, 57: 0.69097,
                58: 0.32048, 59:-0.33762, 60:-0.47545
    17 |      |  1:-0.80940,  2: 0.30409,  3: 0.51122,  4: 0.17527,  5:-0.44754,  6:-0.96054,  7: 0.71164,  8: 0.24171,  9:-0.85654,
                10: 0.87096, 41: 0.20978, 42: 0.49003, 43: 0.61116, 44:-0.87931, 45: 0.43807, 46:-0.23740, 47: 0.60723, 48: 0.17086,
                49:-0.03019, 50:-0.81632, 51: 0.94048, 52:-0.30491, 53:-0.88594, 54:-0.17823, 55:-0.33185, 56: 0.74322, 57: 0.93797,
                58: 0.64606, 59:-0.12190, 60:-0.94223
    18 |      |  1: 0.38667,  2: 0.13920,  3:-0.21407,  4:-0.33743,  5: 0.83611,  6:-0.76413,  7:-0.09761,  8:-0.04714,  9: 0.75482,
                10: 0.94187, 41:-0.09388, 42: 0.61592, 43:-0.52345, 44: 0.97016, 45:-0.05551, 46:-0.59615, 47:-0.83448, 48:-0.55718,
                49: 0.72509, 50: 0.58014, 51:-0.22006, 52: 0.66037, 53: 0.43832, 54: 0.02890, 55: 0.86606, 56: 0.45238, 57: 0.08587,
                58: 0.99677, 59: 0.79762, 60: 0.60813
    19 |      |  1:-0.51214,  2: 0.73412,  3:-0.84626,  4:-0.51794,  5:-1.14627,  6:-0.96373,  7: 0.72214,  8: 0.88838,  9:-0.82891,
                10:-0.02403, 41:-0.06170, 42:-0.61946, 43: 0.89967, 44:-0.14179, 45:-0.75494, 46: 0.80885, 47: 0.54204, 48:-0.96004,
                49:-0.03419, 50: 0.23860, 51:-0.75937, 52:-0.30616, 53:-0.55650, 54: 0.70225, 55:-0.82783, 56:-0.45773, 57:-0.37245,
                58:-0.26889, 59: 0.36821, 60:-0.30653
    20 |      |  1: 0.92426,  2:-0.06265,  3: 0.53162,  4:-0.02535,  5:-0.51056,  6:-0.41062,  7: 0.77402,  8: 0.84926,  9:-0.37425,
                10:-0.36997, 41:-1.00164, 42:-0.56644, 43:-1.00901, 44:-0.83487, 45: 0.96799, 46: 0.40539, 47:-0.98717, 48: 0.38594,
                49:-0.12235, 50:-0.88980, 51: 0.08572, 52: 0.48640, 53:-0.77786, 54:-0.03950, 55: 0.56265, 56: 0.35114, 57:-0.43432,
                58: 0.54490, 59:-0.38311, 60: 0.23135
    21 |      |  1:-0.26450,  2:-0.62718,  3: 0.30122,  4:-0.76764,  5:-0.12289,  6: 0.53109,  7: 0.48749,  8:-0.02544,  9: 0.61563,
                10: 0.05924, 41: 0.74808, 42: 0.54011, 43: 0.29610, 44:-0.79774, 45: 0.32435, 46:-0.82282, 47:-0.09040, 48:-0.61283,
                49: 0.53498, 50:-0.88835, 51: 0.77302, 52:-0.72855, 53: 0.21994, 54: 1.14876, 55: 0.20470, 56: 0.67771, 57:-0.90487,
                58: 0.38257, 59:-0.07969, 60: 0.01909
    22 |      |  1: 0.03361,  2:-0.24696,  3:-0.54068,  4:-0.36803,  5:-1.15572,  6:-0.21360,  7: 0.60206,  8: 0.23366,  9: 0.07474,
                10:-0.42406, 41: 0.59011, 42:-1.04623, 43:-0.55749, 44:-0.52833, 45:-0.29576, 46: 0.57510, 47: 0.57102, 48:-0.09095,
                49:-0.54455, 50: 0.08696, 51: 0.71729, 52: 0.72470, 53:-0.58869, 54: 0.79822, 55:-0.66567, 56: 1.04283, 57: 0.31161,
                58: 0.40449, 59: 0.86931, 60:-0.32484
    23 |      |  1: 0.81179,  2:-0.46904,  3: 0.45025,  4:-0.88026,  5:-0.32850,  6:-0.26976,  7: 0.41541,  8:-0.52092,  9: 0.58659,
                10: 0.75436, 41:-0.44534, 42:-0.69968, 43:-0.38182, 44: 0.84400, 45:-0.89380, 46:-0.07686, 47: 0.19214, 48:-0.71013,
                49:-0.73801, 50:-0.49435, 51:-0.20975, 52:-0.56286, 53:-0.49064, 54:-0.18261, 55: 0.21401, 56: 0.84342, 57:-0.67037,
                58:-0.77623, 59:-0.94073, 60: 0.04087
    24 |      |  1: 0.18006,  2: 0.90147,  3: 0.93971,  4: 0.49667,  5:-1.03698,  6:-0.63729,  7:-0.15210,  8:-0.42734,  9: 0.88539,
                10: 0.73980, 41:-0.19916, 42: 0.38837, 43: 0.55275, 44: 0.32077, 45: 0.57050, 46:-0.98816, 47:-0.58250, 48:-0.60783,
                49:-0.75967, 50:-0.35439, 51: 0.35095, 52: 0.06313, 53: 0.00582, 54: 0.71997, 55:-0.38736, 56:-0.61368, 57: 0.63183,
                58:-0.52913, 59:-0.09564, 60:-0.93191
    25 |      |  1: 0.42623,  2:-0.61179,  3:-0.59899,  4: 0.82239,  5: 0.17488,  6: 0.45779,  7:-0.39485,  8: 0.50685,  9: 0.30915,
                10:-0.82332, 41:-0.21663, 42: 1.04153, 43: 0.61556, 44:-0.26283, 45: 0.20318, 46: 0.52849, 47:-0.73197, 48: 0.79335,
                49: 0.23240, 50:-0.49292, 51:-0.39453, 52:-0.72056, 53: 0.72351, 54: 0.94052, 55:-0.38728, 56: 0.22100, 57:-0.82006,
                58: 0.12373, 59: 0.59120, 60:-0.27745
    26 |      |  1: 0.76006,  2: 0.02232,  3: 0.95743,  4: 0.28823,  5: 1.78723,  6: 0.98976,  7:-1.00920,  8: 0.99654,  9:-0.00415,
                10: 0.25099, 41: 0.85462, 42:-0.42311, 43: 0.31437, 44: 0.33227, 45: 0.13637, 46: 0.37527, 47:-0.30812, 48: 0.90423,
                49:-0.60755, 50:-0.22801, 51:-0.67888, 52:-0.24088, 53:-0.01760, 54:-0.23861, 55:-0.74328, 56:-0.12965, 57:-0.41104,
                58: 0.83964, 59: 0.32179, 60:-0.38974
    27 |      |  1:-0.92334,  2:-0.38602,  3: 0.47980,  4:-0.87788,  5: 0.12765,  6:-0.21334,  7: 0.21966,  8:-0.82507,  9:-0.21361,
                10:-0.29135, 41:-0.03856, 42:-0.02141, 43: 0.11640, 44:-0.82359, 45: 0.91872, 46:-0.66697, 47: 0.49479, 48:-0.32322,
                49:-0.50187, 50: 0.85485, 51: 0.10196, 52: 0.06193, 53:-0.59027, 54:-0.19909, 55:-0.07474, 56:-0.23062, 57:-0.33362,
                58:-0.64655, 59: 0.97797, 60:-0.06616
    28 |      |  1:-0.05628,  2: 0.63755,  3:-0.33579,  4: 0.61252,  5: 0.00674,  6: 0.16645,  7: 0.73949,  8:-0.10304,  9:-0.26588,
                10: 0.13315, 41: 0.23600, 42:-0.72432, 43: 0.34175, 44: 0.80939, 45:-0.03656, 46: 0.67521, 47:-0.04307, 48: 0.18083,
                49:-0.75204, 50:-0.41192, 51:-0.98850, 52:-0.73582, 53: 0.88521, 54:-0.19056, 55:-0.15525, 56:-0.98534, 57:-0.58381,
                58:-0.59304, 59:-0.63118, 60: 0.16970
    29 |      |  1:-0.65293,  2: 0.99320,  3: 0.99072,  4: 0.34958,  5:-0.73611,  6: 0.25306,  7:-0.55668,  8: 0.83405,  9:-0.69025,
                10: 0.51192, 41: 0.41456, 42:-0.50006, 43: 0.66014, 44: 0.27381, 45:-0.75944, 46:-0.54541, 47: 0.89833, 48: 0.11468,
                49: 0.70508, 50: 0.09803, 51: 0.03943, 52: 0.60802, 53: 0.33163, 54: 1.02756, 55:-0.79434, 56:-0.39374, 57:-0.38316,
                58:-0.76697, 59: 1.09823, 60:-0.66456
    30 |      |  1: 0.94162,  2:-0.13398,  3: 0.56138,  4: 0.20280,  5:-0.66247,  6:-0.75387,  7:-0.06432,  8: 0.93265,  9: 0.89736,
                10:-0.70843, 41: 0.71985, 42:-0.12552, 43:-0.27084, 44:-0.35943, 45:-0.40883, 46: 0.33910, 47: 0.97142, 48:-0.41994,
                49: 0.71834, 50: 0.16523, 51:-0.57925, 52:-0.41977, 53:-0.20369, 54: 0.24996, 55: 1.08077, 56: 0.38538, 57:-0.70953,
                58:-1.08614, 59: 0.96358, 60: 0.77457
    31 |      | 11:-0.92262, 12:-0.67962, 13:-0.49925, 14:-1.53006, 15: 0.75070, 16:-1.14046, 17:-0.15854, 18:-0.68795, 19: 0.05174,
                20: 0.01105, 21: 0.66398, 22: 1.13378, 23: 0.15676, 24:-0.27391, 25: 0.26579, 26:-1.27423, 27: 0.89730, 28:-0.92968,
                29:-0.35089, 30: 0.80380
    32 |      | 11: 0.91361, 12:-0.41655, 13:-0.37071, 14: 0.24452, 15: 0.55185, 16:-0.87803, 17:-0.45949, 18:-0.45988, 19: 0.66159,
                20: 0.21719, 21:-0.88550, 22:-0.96830, 23:-0.39911, 24: 0.59459, 25:-0.31318, 26: 0.83759, 27:-0.71053, 28:-0.14788,
                29:-1.10907, 30: 0.69522
    33 |      | 11:-1.05284, 12:-0.31298, 13:-0.75931, 14:-0.02676, 15:-0.05324, 16: 0.71420, 17:-0.77884, 18:-0.70719, 19:-0.60002,
                20:-0.14219, 21: 0.00815, 22: 0.49441, 23:-0.02261, 24: 0.28135, 25:-0.35188, 26: 0.30730, 27: 0.12095, 28: 0.30243,
                29:-0.36738, 30: 0.77697
    34 |      | 11: 0.65237, 12: 0.57340, 13:-0.61733, 14:-0.37546, 15:-0.90863, 16: 0.17640, 17:-0.83815, 18: 0.23155, 19:-0.57466,
                20:-0.62068, 21:-0.68746, 22:-0.58248, 23:-0.70456, 24: 0.54943, 25:-0.66242, 26:-0.70490, 27:-0.13297, 28: 0.28443,
                29:-0.55881, 30:-0.80526
    35 |      | 11: 0.01833, 12: 1.08727, 13: 0.45077, 14: 0.80863, 15:-0.69930, 16: 0.18119, 17:-0.84973, 18:-0.65790, 19: 0.68769,
                20: 1.41166, 21:-0.56727, 22:-0.47951, 23: 0.16336, 24: 1.08777, 25:-0.93243, 26:-0.72294, 27: 0.61196, 28: 0.19395,
                29:-0.67393, 30:-0.28484
    36 |      | 11: 0.78294, 12: 0.41407, 13:-1.11420, 14: 0.25364, 15:-1.21063, 16:-0.69149, 17:-1.24525, 18: 0.46499, 19:-0.34171,
                20: 0.42581, 21:-0.13625, 22: 0.62891, 23: 0.17172, 24: 0.11678, 25: 0.11535, 26: 0.32363, 27: 0.83726, 28:-0.04090,
                29:-0.37653, 30:-0.29044
    37 |      | 11:-0.77385, 12:-1.39759, 13: 0.23095, 14: 1.10737, 15: 0.57548, 16: 0.57555, 17:-0.92345, 18: 0.62406, 19:-0.56725,
                20:-1.19466, 21: 0.60388, 22:-1.42024, 23: 0.58396, 24:-0.70221, 25: 0.49055, 26: 1.28674, 27: 0.25277, 28:-0.78782,
                29:-1.17898, 30:-1.05721
    38 |      | 11: 0.54346, 12:-0.41847, 13:-0.46994, 14: 0.43909, 15:-0.04108, 16: 0.30303, 17:-0.63072, 18:-0.75526, 19: 0.40333,
                20:-0.51965, 21: 0.37980, 22:-0.92636, 23: 0.56217, 24:-0.18445, 25: 0.20063, 26:-0.69880, 27:-0.48458, 28: 0.13360,
                29:-0.60984, 30: 0.63712
    39 |      | 11: 0.20870, 12: 0.91872, 13: 0.60752, 14:-0.53004, 15:-0.77259, 16: 0.58698, 17:-0.24833, 18:-0.57841, 19:-0.27347,
                20:-0.02938, 21: 0.34916, 22:-0.90017, 23:-0.40640, 24:-1.01153, 25:-0.01944, 26:-0.98760, 27: 0.30488, 28:-0.44295,
                29:-1.07931, 30:-0.57366
    40 |      | 11:-0.30754, 12:-0.05528, 13:-0.54700, 14:-0.04291, 15:-0.67389, 16: 0.00036, 17: 0.75825, 18:-0.92862, 19:-1.02934,
                20: 0.39786, 21:-0.27461, 22: 0.08826, 23: 0.81767, 24:-0.87577, 25:-0.90217, 26:-0.78037, 27: 0.94736, 28: 0.67647,
                29:-0.06925, 30:-0.30865
    41 |      | 11: 1.00000, 41: 1.00000
    42 |      | 12: 1.00000, 42: 1.00000
    43 |      | 13: 1.00000, 43: 1.00000
    44 |      | 14: 1.00000, 44: 1.00000
    45 |      | 15: 1.00000, 45: 1.00000
    46 |      | 16: 1.00000, 46: 1.00000
    47 |      | 17: 1.00000, 47: 1.00000
    48 |      | 18: 1.00000, 48: 1.00000
    49 |      | 19: 1.00000, 49: 1.00000
    50 |      | 20: 1.00000, 50: 1.00000
    51 |      | 21: 1.00000, 51: 1.00000
    52 |      | 22: 1.00000, 52: 1.00000
    53 |      | 23: 1.00000, 53: 1.00000
    54 |      | 24: 1.00000, 54: 1.00000
    55 |      | 25: 1.00000, 55: 1.00000
    56 |      | 26: 1.00000, 56: 1.00000
    57 |      | 27: 1.00000, 57: 1.00000
    58 |      | 28: 1.00000, 58: 1.00000
    59 |      | 29: 1.00000, 59: 1.00000
    60 |      | 30: 1.00000, 60: 1.00000
-------|------|---------------------------------------------------------------------------------------------------------------------
