SNNS network definition file V1.4-3D
generated at Tue Aug 22 20:04:32 2023

network name : som_cube_dan1
source files :
no. of units : 259
no. of connections : 768
no. of unit types : 0
no. of site types : 0


learning function : Kohonen
update function   : Kohonen_Order
init function     : Kohonen_Weights_v3.2


unit default section :

act      | bias     | st | subnet | layer | act func     | out func
---------|----------|----|--------|-------|--------------|-------------
 0.00000 |  0.00000 | h  |      0 |     1 | Act_Logistic | Out_Identity 
---------|----------|----|--------|-------|--------------|-------------


unit definition section :

no. | typeName | unitName | act      | bias     | st | position | act func   | out func | sites
----|----------|----------|----------|----------|----|----------|------------|----------|-------
  1 |          |          | -1.00000 |  0.00000 | i  |  1, 7, 0 |||
  2 |          |          |  1.00000 |  0.00000 | i  |  1, 8, 0 |||
  3 |          |          | -1.00000 |  0.00000 | i  |  1, 9, 0 |||
  4 |          |          |  1.86776 |  0.00000 | h  |  5, 1, 0 | Act_Euclid |          | 
  5 |          |          |  2.16815 |  0.00000 | h  |  6, 1, 0 | Act_Euclid |          | 
  6 |          |          |  2.28889 |  0.00000 | h  |  7, 1, 0 | Act_Euclid |          | 
  7 |          |          |  1.50652 |  0.00000 | h  |  8, 1, 0 | Act_Euclid |          | 
  8 |          |          |  1.42637 |  0.00000 | h  |  9, 1, 0 | Act_Euclid |          | 
  9 |          |          |  1.06198 |  0.00000 | h  | 10, 1, 0 | Act_Euclid |          | 
 10 |          |          |  2.23067 |  0.00000 | h  | 11, 1, 0 | Act_Euclid |          | 
 11 |          |          |  0.99611 |  0.00000 | h  | 12, 1, 0 | Act_Euclid |          | 
 12 |          |          |  1.36165 |  0.00000 | h  | 13, 1, 0 | Act_Euclid |          | 
 13 |          |          |  1.65518 |  0.00000 | h  | 14, 1, 0 | Act_Euclid |          | 
 14 |          |          |  0.98855 |  0.00000 | h  | 15, 1, 0 | Act_Euclid |          | 
 15 |          |          |  2.04427 |  0.00000 | h  | 16, 1, 0 | Act_Euclid |          | 
 16 |          |          |  2.10214 |  0.00000 | h  | 17, 1, 0 | Act_Euclid |          | 
 17 |          |          |  1.66324 |  0.00000 | h  | 18, 1, 0 | Act_Euclid |          | 
 18 |          |          |  1.42861 |  0.00000 | h  | 19, 1, 0 | Act_Euclid |          | 
 19 |          |          |  1.79205 |  0.00000 | h  | 20, 1, 0 | Act_Euclid |          | 
 20 |          |          |  1.25651 |  0.00000 | h  |  5, 2, 0 | Act_Euclid |          | 
 21 |          |          |  1.23087 |  0.00000 | h  |  6, 2, 0 | Act_Euclid |          | 
 22 |          |          |  1.54389 |  0.00000 | h  |  7, 2, 0 | Act_Euclid |          | 
 23 |          |          |  2.18188 |  0.00000 | h  |  8, 2, 0 | Act_Euclid |          | 
 24 |          |          |  2.44231 |  0.00000 | h  |  9, 2, 0 | Act_Euclid |          | 
 25 |          |          |  1.82651 |  0.00000 | h  | 10, 2, 0 | Act_Euclid |          | 
 26 |          |          |  2.32277 |  0.00000 | h  | 11, 2, 0 | Act_Euclid |          | 
 27 |          |          |  1.08723 |  0.00000 | h  | 12, 2, 0 | Act_Euclid |          | 
 28 |          |          |  1.69760 |  0.00000 | h  | 13, 2, 0 | Act_Euclid |          | 
 29 |          |          |  1.94340 |  0.00000 | h  | 14, 2, 0 | Act_Euclid |          | 
 30 |          |          |  1.81440 |  0.00000 | h  | 15, 2, 0 | Act_Euclid |          | 
 31 |          |          |  2.61018 |  0.00000 | h  | 16, 2, 0 | Act_Euclid |          | 
 32 |          |          |  1.92952 |  0.00000 | h  | 17, 2, 0 | Act_Euclid |          | 
 33 |          |          |  2.43940 |  0.00000 | h  | 18, 2, 0 | Act_Euclid |          | 
 34 |          |          |  1.53938 |  0.00000 | h  | 19, 2, 0 | Act_Euclid |          | 
 35 |          |          |  1.78340 |  0.00000 | h  | 20, 2, 0 | Act_Euclid |          | 
 36 |          |          |  0.76075 |  0.00000 | h  |  5, 3, 0 | Act_Euclid |          | 
 37 |          |          |  0.97777 |  0.00000 | h  |  6, 3, 0 | Act_Euclid |          | 
 38 |          |          |  2.07911 |  0.00000 | h  |  7, 3, 0 | Act_Euclid |          | 
 39 |          |          |  1.41431 |  0.00000 | h  |  8, 3, 0 | Act_Euclid |          | 
 40 |          |          |  1.86105 |  0.00000 | h  |  9, 3, 0 | Act_Euclid |          | 
 41 |          |          |  2.69154 |  0.00000 | h  | 10, 3, 0 | Act_Euclid |          | 
 42 |          |          |  2.16240 |  0.00000 | h  | 11, 3, 0 | Act_Euclid |          | 
 43 |          |          |  1.66105 |  0.00000 | h  | 12, 3, 0 | Act_Euclid |          | 
 44 |          |          |  2.72252 |  0.00000 | h  | 13, 3, 0 | Act_Euclid |          | 
 45 |          |          |  1.71499 |  0.00000 | h  | 14, 3, 0 | Act_Euclid |          | 
 46 |          |          |  0.76083 |  0.00000 | h  | 15, 3, 0 | Act_Euclid |          | 
 47 |          |          |  0.92469 |  0.00000 | h  | 16, 3, 0 | Act_Euclid |          | 
 48 |          |          |  1.39811 |  0.00000 | h  | 17, 3, 0 | Act_Euclid |          | 
 49 |          |          |  2.31834 |  0.00000 | h  | 18, 3, 0 | Act_Euclid |          | 
 50 |          |          |  2.66328 |  0.00000 | h  | 19, 3, 0 | Act_Euclid |          | 
 51 |          |          |  1.65574 |  0.00000 | h  | 20, 3, 0 | Act_Euclid |          | 
 52 |          |          |  2.12739 |  0.00000 | h  |  5, 4, 0 | Act_Euclid |          | 
 53 |          |          |  1.80434 |  0.00000 | h  |  6, 4, 0 | Act_Euclid |          | 
 54 |          |          |  1.84269 |  0.00000 | h  |  7, 4, 0 | Act_Euclid |          | 
 55 |          |          |  1.75996 |  0.00000 | h  |  8, 4, 0 | Act_Euclid |          | 
 56 |          |          |  2.05985 |  0.00000 | h  |  9, 4, 0 | Act_Euclid |          | 
 57 |          |          |  2.10909 |  0.00000 | h  | 10, 4, 0 | Act_Euclid |          | 
 58 |          |          |  2.58433 |  0.00000 | h  | 11, 4, 0 | Act_Euclid |          | 
 59 |          |          |  1.91318 |  0.00000 | h  | 12, 4, 0 | Act_Euclid |          | 
 60 |          |          |  1.65715 |  0.00000 | h  | 13, 4, 0 | Act_Euclid |          | 
 61 |          |          |  1.96873 |  0.00000 | h  | 14, 4, 0 | Act_Euclid |          | 
 62 |          |          |  2.13103 |  0.00000 | h  | 15, 4, 0 | Act_Euclid |          | 
 63 |          |          |  2.42628 |  0.00000 | h  | 16, 4, 0 | Act_Euclid |          | 
 64 |          |          |  1.86187 |  0.00000 | h  | 17, 4, 0 | Act_Euclid |          | 
 65 |          |          |  2.31817 |  0.00000 | h  | 18, 4, 0 | Act_Euclid |          | 
 66 |          |          |  2.72773 |  0.00000 | h  | 19, 4, 0 | Act_Euclid |          | 
 67 |          |          |  1.48387 |  0.00000 | h  | 20, 4, 0 | Act_Euclid |          | 
 68 |          |          |  2.66398 |  0.00000 | h  |  5, 5, 0 | Act_Euclid |          | 
 69 |          |          |  1.38771 |  0.00000 | h  |  6, 5, 0 | Act_Euclid |          | 
 70 |          |          |  2.09569 |  0.00000 | h  |  7, 5, 0 | Act_Euclid |          | 
 71 |          |          |  1.79201 |  0.00000 | h  |  8, 5, 0 | Act_Euclid |          | 
 72 |          |          |  1.17724 |  0.00000 | h  |  9, 5, 0 | Act_Euclid |          | 
 73 |          |          |  2.43622 |  0.00000 | h  | 10, 5, 0 | Act_Euclid |          | 
 74 |          |          |  1.81177 |  0.00000 | h  | 11, 5, 0 | Act_Euclid |          | 
 75 |          |          |  2.42562 |  0.00000 | h  | 12, 5, 0 | Act_Euclid |          | 
 76 |          |          |  1.20184 |  0.00000 | h  | 13, 5, 0 | Act_Euclid |          | 
 77 |          |          |  2.62318 |  0.00000 | h  | 14, 5, 0 | Act_Euclid |          | 
 78 |          |          |  2.72605 |  0.00000 | h  | 15, 5, 0 | Act_Euclid |          | 
 79 |          |          |  2.17744 |  0.00000 | h  | 16, 5, 0 | Act_Euclid |          | 
 80 |          |          |  1.85601 |  0.00000 | h  | 17, 5, 0 | Act_Euclid |          | 
 81 |          |          |  2.35286 |  0.00000 | h  | 18, 5, 0 | Act_Euclid |          | 
 82 |          |          |  1.66019 |  0.00000 | h  | 19, 5, 0 | Act_Euclid |          | 
 83 |          |          |  2.73012 |  0.00000 | h  | 20, 5, 0 | Act_Euclid |          | 
 84 |          |          |  2.12928 |  0.00000 | h  |  5, 6, 0 | Act_Euclid |          | 
 85 |          |          |  2.02679 |  0.00000 | h  |  6, 6, 0 | Act_Euclid |          | 
 86 |          |          |  1.62348 |  0.00000 | h  |  7, 6, 0 | Act_Euclid |          | 
 87 |          |          |  1.93700 |  0.00000 | h  |  8, 6, 0 | Act_Euclid |          | 
 88 |          |          |  1.47003 |  0.00000 | h  |  9, 6, 0 | Act_Euclid |          | 
 89 |          |          |  2.34330 |  0.00000 | h  | 10, 6, 0 | Act_Euclid |          | 
 90 |          |          |  2.59621 |  0.00000 | h  | 11, 6, 0 | Act_Euclid |          | 
 91 |          |          |  0.89018 |  0.00000 | h  | 12, 6, 0 | Act_Euclid |          | 
 92 |          |          |  2.38850 |  0.00000 | h  | 13, 6, 0 | Act_Euclid |          | 
 93 |          |          |  2.60823 |  0.00000 | h  | 14, 6, 0 | Act_Euclid |          | 
 94 |          |          |  1.40864 |  0.00000 | h  | 15, 6, 0 | Act_Euclid |          | 
 95 |          |          |  2.20477 |  0.00000 | h  | 16, 6, 0 | Act_Euclid |          | 
 96 |          |          |  2.64846 |  0.00000 | h  | 17, 6, 0 | Act_Euclid |          | 
 97 |          |          |  2.25379 |  0.00000 | h  | 18, 6, 0 | Act_Euclid |          | 
 98 |          |          |  1.30649 |  0.00000 | h  | 19, 6, 0 | Act_Euclid |          | 
 99 |          |          |  2.19216 |  0.00000 | h  | 20, 6, 0 | Act_Euclid |          | 
100 |          |          |  2.66216 |  0.00000 | h  |  5, 7, 0 | Act_Euclid |          | 
101 |          |          |  1.71839 |  0.00000 | h  |  6, 7, 0 | Act_Euclid |          | 
102 |          |          |  2.67405 |  0.00000 | h  |  7, 7, 0 | Act_Euclid |          | 
103 |          |          |  1.74464 |  0.00000 | h  |  8, 7, 0 | Act_Euclid |          | 
104 |          |          |  2.01972 |  0.00000 | h  |  9, 7, 0 | Act_Euclid |          | 
105 |          |          |  2.67491 |  0.00000 | h  | 10, 7, 0 | Act_Euclid |          | 
106 |          |          |  1.20406 |  0.00000 | h  | 11, 7, 0 | Act_Euclid |          | 
107 |          |          |  2.43014 |  0.00000 | h  | 12, 7, 0 | Act_Euclid |          | 
108 |          |          |  2.73176 |  0.00000 | h  | 13, 7, 0 | Act_Euclid |          | 
109 |          |          |  1.68895 |  0.00000 | h  | 14, 7, 0 | Act_Euclid |          | 
110 |          |          |  1.50348 |  0.00000 | h  | 15, 7, 0 | Act_Euclid |          | 
111 |          |          |  1.08308 |  0.00000 | h  | 16, 7, 0 | Act_Euclid |          | 
112 |          |          |  2.25219 |  0.00000 | h  | 17, 7, 0 | Act_Euclid |          | 
113 |          |          |  1.60908 |  0.00000 | h  | 18, 7, 0 | Act_Euclid |          | 
114 |          |          |  0.88502 |  0.00000 | h  | 19, 7, 0 | Act_Euclid |          | 
115 |          |          |  1.90232 |  0.00000 | h  | 20, 7, 0 | Act_Euclid |          | 
116 |          |          |  2.54038 |  0.00000 | h  |  5, 8, 0 | Act_Euclid |          | 
117 |          |          |  1.15619 |  0.00000 | h  |  6, 8, 0 | Act_Euclid |          | 
118 |          |          |  1.74509 |  0.00000 | h  |  7, 8, 0 | Act_Euclid |          | 
119 |          |          |  1.89776 |  0.00000 | h  |  8, 8, 0 | Act_Euclid |          | 
120 |          |          |  1.77532 |  0.00000 | h  |  9, 8, 0 | Act_Euclid |          | 
121 |          |          |  1.99419 |  0.00000 | h  | 10, 8, 0 | Act_Euclid |          | 
122 |          |          |  2.69976 |  0.00000 | h  | 11, 8, 0 | Act_Euclid |          | 
123 |          |          |  1.97157 |  0.00000 | h  | 12, 8, 0 | Act_Euclid |          | 
124 |          |          |  1.69454 |  0.00000 | h  | 13, 8, 0 | Act_Euclid |          | 
125 |          |          |  1.62928 |  0.00000 | h  | 14, 8, 0 | Act_Euclid |          | 
126 |          |          |  2.07591 |  0.00000 | h  | 15, 8, 0 | Act_Euclid |          | 
127 |          |          |  2.29341 | 500.00000 | h  | 16, 8, 0 | Act_Euclid |          | 
128 |          |          |  1.51904 |  0.00000 | h  | 17, 8, 0 | Act_Euclid |          | 
129 |          |          |  2.29782 |  0.00000 | h  | 18, 8, 0 | Act_Euclid |          | 
130 |          |          |  1.47178 |  0.00000 | h  | 19, 8, 0 | Act_Euclid |          | 
131 |          |          |  1.14450 |  0.00000 | h  | 20, 8, 0 | Act_Euclid |          | 
132 |          |          |  2.13421 |  0.00000 | h  |  5, 9, 0 | Act_Euclid |          | 
133 |          |          |  2.65983 |  0.00000 | h  |  6, 9, 0 | Act_Euclid |          | 
134 |          |          |  1.96202 |  0.00000 | h  |  7, 9, 0 | Act_Euclid |          | 
135 |          |          |  1.47019 |  0.00000 | h  |  8, 9, 0 | Act_Euclid |          | 
136 |          |          |  2.07543 |  0.00000 | h  |  9, 9, 0 | Act_Euclid |          | 
137 |          |          |  1.86190 |  0.00000 | h  | 10, 9, 0 | Act_Euclid |          | 
138 |          |          |  2.58750 |  0.00000 | h  | 11, 9, 0 | Act_Euclid |          | 
139 |          |          |  1.57253 |  0.00000 | h  | 12, 9, 0 | Act_Euclid |          | 
140 |          |          |  1.02182 |  0.00000 | h  | 13, 9, 0 | Act_Euclid |          | 
141 |          |          |  1.17953 |  0.00000 | h  | 14, 9, 0 | Act_Euclid |          | 
142 |          |          |  2.62871 |  0.00000 | h  | 15, 9, 0 | Act_Euclid |          | 
143 |          |          |  1.12491 |  0.00000 | h  | 16, 9, 0 | Act_Euclid |          | 
144 |          |          |  1.92990 |  0.00000 | h  | 17, 9, 0 | Act_Euclid |          | 
145 |          |          |  1.86502 |  0.00000 | h  | 18, 9, 0 | Act_Euclid |          | 
146 |          |          |  2.16999 |  0.00000 | h  | 19, 9, 0 | Act_Euclid |          | 
147 |          |          |  1.68043 |  0.00000 | h  | 20, 9, 0 | Act_Euclid |          | 
148 |          |          |  2.51004 |  0.00000 | h  |  5,10, 0 | Act_Euclid |          | 
149 |          |          |  1.28779 |  0.00000 | h  |  6,10, 0 | Act_Euclid |          | 
150 |          |          |  1.97280 |  0.00000 | h  |  7,10, 0 | Act_Euclid |          | 
151 |          |          |  1.93601 |  0.00000 | h  |  8,10, 0 | Act_Euclid |          | 
152 |          |          |  2.64640 |  0.00000 | h  |  9,10, 0 | Act_Euclid |          | 
153 |          |          |  1.18197 |  0.00000 | h  | 10,10, 0 | Act_Euclid |          | 
154 |          |          |  2.48843 |  0.00000 | h  | 11,10, 0 | Act_Euclid |          | 
155 |          |          |  0.97763 |  0.00000 | h  | 12,10, 0 | Act_Euclid |          | 
156 |          |          |  1.94159 |  0.00000 | h  | 13,10, 0 | Act_Euclid |          | 
157 |          |          |  2.54734 |  0.00000 | h  | 14,10, 0 | Act_Euclid |          | 
158 |          |          |  1.89050 |  0.00000 | h  | 15,10, 0 | Act_Euclid |          | 
159 |          |          |  1.81736 |  0.00000 | h  | 16,10, 0 | Act_Euclid |          | 
160 |          |          |  1.27628 |  0.00000 | h  | 17,10, 0 | Act_Euclid |          | 
161 |          |          |  1.04280 |  0.00000 | h  | 18,10, 0 | Act_Euclid |          | 
162 |          |          |  2.68548 |  0.00000 | h  | 19,10, 0 | Act_Euclid |          | 
163 |          |          |  2.40689 |  0.00000 | h  | 20,10, 0 | Act_Euclid |          | 
164 |          |          |  1.69044 |  0.00000 | h  |  5,11, 0 | Act_Euclid |          | 
165 |          |          |  2.60962 |  0.00000 | h  |  6,11, 0 | Act_Euclid |          | 
166 |          |          |  1.88378 |  0.00000 | h  |  7,11, 0 | Act_Euclid |          | 
167 |          |          |  0.80183 |  0.00000 | h  |  8,11, 0 | Act_Euclid |          | 
168 |          |          |  2.34854 |  0.00000 | h  |  9,11, 0 | Act_Euclid |          | 
169 |          |          |  2.60094 |  0.00000 | h  | 10,11, 0 | Act_Euclid |          | 
170 |          |          |  1.88606 |  0.00000 | h  | 11,11, 0 | Act_Euclid |          | 
171 |          |          |  1.15457 |  0.00000 | h  | 12,11, 0 | Act_Euclid |          | 
172 |          |          |  1.99364 |  0.00000 | h  | 13,11, 0 | Act_Euclid |          | 
173 |          |          |  0.91559 |  0.00000 | h  | 14,11, 0 | Act_Euclid |          | 
174 |          |          |  1.66506 |  0.00000 | h  | 15,11, 0 | Act_Euclid |          | 
175 |          |          |  1.67596 |  0.00000 | h  | 16,11, 0 | Act_Euclid |          | 
176 |          |          |  2.37333 |  0.00000 | h  | 17,11, 0 | Act_Euclid |          | 
177 |          |          |  1.56688 |  0.00000 | h  | 18,11, 0 | Act_Euclid |          | 
178 |          |          |  1.38320 |  0.00000 | h  | 19,11, 0 | Act_Euclid |          | 
179 |          |          |  2.08958 |  0.00000 | h  | 20,11, 0 | Act_Euclid |          | 
180 |          |          |  2.21202 |  0.00000 | h  |  5,12, 0 | Act_Euclid |          | 
181 |          |          |  1.25012 |  0.00000 | h  |  6,12, 0 | Act_Euclid |          | 
182 |          |          |  2.18380 |  0.00000 | h  |  7,12, 0 | Act_Euclid |          | 
183 |          |          |  2.54227 |  0.00000 | h  |  8,12, 0 | Act_Euclid |          | 
184 |          |          |  2.22201 |  0.00000 | h  |  9,12, 0 | Act_Euclid |          | 
185 |          |          |  2.65439 |  0.00000 | h  | 10,12, 0 | Act_Euclid |          | 
186 |          |          |  1.61258 |  0.00000 | h  | 11,12, 0 | Act_Euclid |          | 
187 |          |          |  1.99450 |  0.00000 | h  | 12,12, 0 | Act_Euclid |          | 
188 |          |          |  2.55752 |  0.00000 | h  | 13,12, 0 | Act_Euclid |          | 
189 |          |          |  1.05740 |  0.00000 | h  | 14,12, 0 | Act_Euclid |          | 
190 |          |          |  1.32574 |  0.00000 | h  | 15,12, 0 | Act_Euclid |          | 
191 |          |          |  2.71486 |  0.00000 | h  | 16,12, 0 | Act_Euclid |          | 
192 |          |          |  2.20815 |  0.00000 | h  | 17,12, 0 | Act_Euclid |          | 
193 |          |          |  2.21483 |  0.00000 | h  | 18,12, 0 | Act_Euclid |          | 
194 |          |          |  2.71271 |  0.00000 | h  | 19,12, 0 | Act_Euclid |          | 
195 |          |          |  1.39021 |  0.00000 | h  | 20,12, 0 | Act_Euclid |          | 
196 |          |          |  1.99509 |  0.00000 | h  |  5,13, 0 | Act_Euclid |          | 
197 |          |          |  2.04727 |  0.00000 | h  |  6,13, 0 | Act_Euclid |          | 
198 |          |          |  2.71022 |  0.00000 | h  |  7,13, 0 | Act_Euclid |          | 
199 |          |          |  1.04327 |  0.00000 | h  |  8,13, 0 | Act_Euclid |          | 
200 |          |          |  1.92215 |  0.00000 | h  |  9,13, 0 | Act_Euclid |          | 
201 |          |          |  2.43827 |  0.00000 | h  | 10,13, 0 | Act_Euclid |          | 
202 |          |          |  1.45243 |  0.00000 | h  | 11,13, 0 | Act_Euclid |          | 
203 |          |          |  2.12168 |  0.00000 | h  | 12,13, 0 | Act_Euclid |          | 
204 |          |          |  2.71083 |  0.00000 | h  | 13,13, 0 | Act_Euclid |          | 
205 |          |          |  1.69286 |  0.00000 | h  | 14,13, 0 | Act_Euclid |          | 
206 |          |          |  1.68989 |  0.00000 | h  | 15,13, 0 | Act_Euclid |          | 
207 |          |          |  1.33368 |  0.00000 | h  | 16,13, 0 | Act_Euclid |          | 
208 |          |          |  2.38987 |  0.00000 | h  | 17,13, 0 | Act_Euclid |          | 
209 |          |          |  2.45418 |  0.00000 | h  | 18,13, 0 | Act_Euclid |          | 
210 |          |          |  0.86663 |  0.00000 | h  | 19,13, 0 | Act_Euclid |          | 
211 |          |          |  0.83892 |  0.00000 | h  | 20,13, 0 | Act_Euclid |          | 
212 |          |          |  2.37340 |  0.00000 | h  |  5,14, 0 | Act_Euclid |          | 
213 |          |          |  1.36000 |  0.00000 | h  |  6,14, 0 | Act_Euclid |          | 
214 |          |          |  2.44957 |  0.00000 | h  |  7,14, 0 | Act_Euclid |          | 
215 |          |          |  0.95259 |  0.00000 | h  |  8,14, 0 | Act_Euclid |          | 
216 |          |          |  1.24109 |  0.00000 | h  |  9,14, 0 | Act_Euclid |          | 
217 |          |          |  2.69527 |  0.00000 | h  | 10,14, 0 | Act_Euclid |          | 
218 |          |          |  0.93267 |  0.00000 | h  | 11,14, 0 | Act_Euclid |          | 
219 |          |          |  2.04270 |  0.00000 | h  | 12,14, 0 | Act_Euclid |          | 
220 |          |          |  1.61887 |  0.00000 | h  | 13,14, 0 | Act_Euclid |          | 
221 |          |          |  0.78093 |  0.00000 | h  | 14,14, 0 | Act_Euclid |          | 
222 |          |          |  2.36566 |  0.00000 | h  | 15,14, 0 | Act_Euclid |          | 
223 |          |          |  2.17712 |  0.00000 | h  | 16,14, 0 | Act_Euclid |          | 
224 |          |          |  2.09349 |  0.00000 | h  | 17,14, 0 | Act_Euclid |          | 
225 |          |          |  1.85067 |  0.00000 | h  | 18,14, 0 | Act_Euclid |          | 
226 |          |          |  1.89522 |  0.00000 | h  | 19,14, 0 | Act_Euclid |          | 
227 |          |          |  1.65099 |  0.00000 | h  | 20,14, 0 | Act_Euclid |          | 
228 |          |          |  2.63995 |  0.00000 | h  |  5,15, 0 | Act_Euclid |          | 
229 |          |          |  2.40057 |  0.00000 | h  |  6,15, 0 | Act_Euclid |          | 
230 |          |          |  2.61930 |  0.00000 | h  |  7,15, 0 | Act_Euclid |          | 
231 |          |          |  1.15308 |  0.00000 | h  |  8,15, 0 | Act_Euclid |          | 
232 |          |          |  0.94517 |  0.00000 | h  |  9,15, 0 | Act_Euclid |          | 
233 |          |          |  1.20898 |  0.00000 | h  | 10,15, 0 | Act_Euclid |          | 
234 |          |          |  2.10026 |  0.00000 | h  | 11,15, 0 | Act_Euclid |          | 
235 |          |          |  2.67375 |  0.00000 | h  | 12,15, 0 | Act_Euclid |          | 
236 |          |          |  1.78912 |  0.00000 | h  | 13,15, 0 | Act_Euclid |          | 
237 |          |          |  1.96138 |  0.00000 | h  | 14,15, 0 | Act_Euclid |          | 
238 |          |          |  1.85312 |  0.00000 | h  | 15,15, 0 | Act_Euclid |          | 
239 |          |          |  1.84905 |  0.00000 | h  | 16,15, 0 | Act_Euclid |          | 
240 |          |          |  2.36285 |  0.00000 | h  | 17,15, 0 | Act_Euclid |          | 
241 |          |          |  1.15738 |  0.00000 | h  | 18,15, 0 | Act_Euclid |          | 
242 |          |          |  2.08819 |  0.00000 | h  | 19,15, 0 | Act_Euclid |          | 
243 |          |          |  2.00691 |  0.00000 | h  | 20,15, 0 | Act_Euclid |          | 
244 |          |          |  2.43573 |  0.00000 | h  |  5,16, 0 | Act_Euclid |          | 
245 |          |          |  2.65592 |  0.00000 | h  |  6,16, 0 | Act_Euclid |          | 
246 |          |          |  0.91765 |  0.00000 | h  |  7,16, 0 | Act_Euclid |          | 
247 |          |          |  2.30021 |  0.00000 | h  |  8,16, 0 | Act_Euclid |          | 
248 |          |          |  2.47118 |  0.00000 | h  |  9,16, 0 | Act_Euclid |          | 
249 |          |          |  1.90595 |  0.00000 | h  | 10,16, 0 | Act_Euclid |          | 
250 |          |          |  2.17486 |  0.00000 | h  | 11,16, 0 | Act_Euclid |          | 
251 |          |          |  2.17832 |  0.00000 | h  | 12,16, 0 | Act_Euclid |          | 
252 |          |          |  1.86023 |  0.00000 | h  | 13,16, 0 | Act_Euclid |          | 
253 |          |          |  1.27985 |  0.00000 | h  | 14,16, 0 | Act_Euclid |          | 
254 |          |          |  2.55709 |  0.00000 | h  | 15,16, 0 | Act_Euclid |          | 
255 |          |          |  1.72409 |  0.00000 | h  | 16,16, 0 | Act_Euclid |          | 
256 |          |          |  2.49789 |  0.00000 | h  | 17,16, 0 | Act_Euclid |          | 
257 |          |          |  2.16573 |  0.00000 | h  | 18,16, 0 | Act_Euclid |          | 
258 |          |          |  2.31109 |  0.00000 | h  | 19,16, 0 | Act_Euclid |          | 
259 |          |          |  1.95905 |  0.00000 | h  | 20,16, 0 | Act_Euclid |          | 
----|----------|----------|----------|----------|----|----------|------------|----------|-------


connection definition section :

target | site | source:weight
-------|------|----------------------------------------------------------------------------------------------------------------
     4 |      |   3: 0.54903,   2:-0.03048,   1:-0.83525
     5 |      |   3:-0.38567,   2:-0.90672,   1:-0.17062
     6 |      |   3: 0.92008,   2:-0.08241,   1:-0.38297
     7 |      |   3: 0.02922,   2:-0.10013,   1:-0.99455
     8 |      |   3:-0.71772,   2: 0.60672,   1: 0.34171
     9 |      |   3:-0.60866,   2: 0.03477,   1:-0.79267
    10 |      |   3: 0.46798,   2: 0.61483,   1: 0.63480
    11 |      |   3:-0.12141,   2: 0.81299,   1:-0.56948
    12 |      |   3:-0.74524,   2:-0.27825,   1:-0.60596
    13 |      |   3:-0.86072,   2: 0.22576,   1: 0.45629
    14 |      |   3:-0.19373,   2: 0.87604,   1:-0.44161
    15 |      |   3:-0.77821,   2:-0.33923,   1: 0.52850
    16 |      |   3: 0.25457,   2:-0.66090,   1:-0.70598
    17 |      |   3:-0.68308,   2:-0.54850,   1:-0.48223
    18 |      |   3:-0.32006,   2: 0.91288,   1: 0.25340
    19 |      |   3:-0.37917,   2:-0.64671,   1:-0.66182
    20 |      |   3: 0.02330,   2: 0.96206,   1:-0.27183
    21 |      |   3: 0.05270,   2: 0.36611,   1:-0.92908
    22 |      |   3:-0.37511,   2:-0.40212,   1:-0.83522
    23 |      |   3:-0.66162,   2:-0.42232,   1: 0.61960
    24 |      |   3: 0.81765,   2: 0.31627,   1: 0.48105
    25 |      |   3:-0.33031,   2: 0.66823,   1: 0.66661
    26 |      |   3: 0.23339,   2: 0.41509,   1: 0.87933
    27 |      |   3:-0.15912,   2: 0.93607,   1:-0.31378
    28 |      |   3: 0.29162,   2: 0.95124,   1: 0.10055
    29 |      |   3:-0.37388,   2:-0.77372,   1:-0.51144
    30 |      |   3:-0.20148,   2: 0.76464,   1: 0.61215
    31 |      |   3: 0.49315,   2:-0.04457,   1: 0.86880
    32 |      |   3:-0.83607,   2:-0.51860,   1: 0.17899
    33 |      |   3:-0.34959,   2:-0.66845,   1: 0.65648
    34 |      |   3: 0.43373,   2: 0.49791,   1:-0.75097
    35 |      |   3:-0.14141,   2:-0.55286,   1:-0.82119
    36 |      |   3:-0.60919,   2: 0.65632,   1:-0.44512
    37 |      |   3:-0.74645,   2: 0.12122,   1:-0.65431
    38 |      |   3:-0.03527,   2: 0.60148,   1: 0.79811
    39 |      |   3:-0.82109,   2:-0.30421,   1:-0.48299
    40 |      |   3:-0.61104,   2: 0.36146,   1: 0.70425
    41 |      |   3: 0.38841,   2:-0.40710,   1: 0.82668
    42 |      |   3: 0.53323,   2: 0.68779,   1: 0.49255
    43 |      |   3:-0.15253,   2: 0.89247,   1: 0.42454
    44 |      |   3: 0.44135,   2:-0.58010,   1: 0.68461
    45 |      |   3:-0.71141,   2: 0.39754,   1: 0.57954
    46 |      |   3:-0.64385,   2: 0.62422,   1:-0.44250
    47 |      |   3:-0.80990,   2: 0.21804,   1:-0.54454
    48 |      |   3: 0.04175,   2: 0.99684,   1:-0.06756
    49 |      |   3: 0.55229,   2: 0.51807,   1: 0.65313
    50 |      |   3: 0.17239,   2:-0.57276,   1: 0.80139
    51 |      |   3: 0.54319,   2: 0.68010,   1:-0.49236
    52 |      |   3: 0.88970,   2: 0.39085,   1:-0.23595
    53 |      |   3: 0.63852,   2: 0.70725,   1:-0.30345
    54 |      |   3: 0.70135,   2: 0.54924,   1:-0.45436
    55 |      |   3: 0.18694,   2:-0.29791,   1:-0.93611
    56 |      |   3: 0.21101,   2: 0.73450,   1: 0.64497
    57 |      |   3:-0.51173,   2:-0.85135,   1:-0.11549
    58 |      |   3: 0.55236,   2:-0.83237,   1:-0.04536
    59 |      |   3:-0.26560,   2:-0.72789,   1:-0.63216
    60 |      |   3: 0.53490,   2: 0.72050,   1:-0.44133
    61 |      |   3:-0.15965,   2: 0.64753,   1: 0.74513
    62 |      |   3: 0.13016,   2: 0.62732,   1: 0.76780
    63 |      |   3: 0.49729,   2:-0.79455,   1:-0.34842
    64 |      |   3:-0.84046,   2:-0.03287,   1: 0.54087
    65 |      |   3: 0.92173,   2: 0.36522,   1: 0.13046
    66 |      |   3: 0.53542,   2:-0.66792,   1: 0.51692
    67 |      |   3: 0.12565,   2: 0.03320,   1:-0.99152
    68 |      |   3: 0.15794,   2:-0.63056,   1: 0.75990
    69 |      |   3: 0.29240,   2: 0.54088,   1:-0.78864
    70 |      |   3: 0.87529,   2: 0.30010,   1:-0.37922
    71 |      |   3:-0.20582,   2: 0.77978,   1: 0.59125
    72 |      |   3:-0.87664,   2: 0.47872,   1: 0.04830
    73 |      |   3:-0.28921,   2:-0.87999,   1: 0.37680
    74 |      |   3:-0.87482,   2:-0.48334,   1: 0.03274
    75 |      |   3:-0.30326,   2:-0.36473,   1: 0.88034
    76 |      |   3:-0.69050,   2:-0.12513,   1:-0.71243
    77 |      |   3: 0.73543,   2:-0.02810,   1: 0.67702
    78 |      |   3: 0.62941,   2:-0.62635,   1: 0.45992
    79 |      |   3:-0.65752,   2:-0.65394,   1: 0.37421
    80 |      |   3: 0.11196,   2: 0.86991,   1: 0.48034
    81 |      |   3:-0.19794,   2:-0.98011,   1:-0.01419
    82 |      |   3: 0.47954,   2: 0.26482,   1:-0.83661
    83 |      |   3: 0.63774,   2:-0.55645,   1: 0.53259
    84 |      |   3: 0.57240,   2: 0.71207,   1: 0.40659
    85 |      |   3:-0.51546,   2:-0.81958,   1:-0.25017
    86 |      |   3: 0.47300,   2: 0.34405,   1:-0.81111
    87 |      |   3: 0.03414,   2:-0.62318,   1:-0.78133
    88 |      |   3: 0.33016,   2: 0.39012,   1:-0.85954
    89 |      |   3: 0.85593,   2:-0.30624,   1:-0.41665
    90 |      |   3: 0.95530,   2:-0.18149,   1: 0.23336
    91 |      |   3:-0.68874,   2: 0.68881,   1:-0.22624
    92 |      |   3: 0.46791,   2: 0.40233,   1: 0.78689
    93 |      |   3: 0.49943,   2:-0.03641,   1: 0.86559
    94 |      |   3: 0.21598,   2: 0.29219,   1:-0.93165
    95 |      |   3: 0.77470,   2: 0.58478,   1: 0.24058
    96 |      |   3: 0.10747,   2:-0.76644,   1: 0.63326
    97 |      |   3: 0.91303,   2:-0.03330,   1:-0.40654
    98 |      |   3:-0.56579,   2: 0.79597,   1: 0.21521
    99 |      |   3: 0.66707,   2:-0.37780,   1:-0.64209
   100 |      |   3: 0.83628,   2:-0.19468,   1: 0.51259
   101 |      |   3:-0.67451,   2:-0.59202,   1:-0.44108
   102 |      |   3: 0.44875,   2:-0.84971,   1: 0.27681
   103 |      |   3:-0.65068,   2:-0.61625,   1:-0.44367
   104 |      |   3: 0.82115,   2: 0.49154,   1:-0.28999
   105 |      |   3: 0.19626,   2:-0.62947,   1: 0.75183
   106 |      |   3:-0.36166,   2:-0.01866,   1:-0.93212
   107 |      |   3:-0.26367,   2:-0.29953,   1: 0.91693
   108 |      |   3: 0.59607,   2:-0.55366,   1: 0.58151
   109 |      |   3:-0.29792,   2:-0.52285,   1:-0.79867
   110 |      |   3: 0.40569,   2: 0.53281,   1:-0.74265
   111 |      |   3:-0.56671,   2: 0.82359,   1:-0.02317
   112 |      |   3:-0.59419,   2:-0.50165,   1: 0.62872
   113 |      |   3:-0.44642,   2:-0.48984,   1:-0.74885
   114 |      |   3:-0.23537,   2: 0.71834,   1:-0.65467
   115 |      |   3: 0.71849,   2: 0.64238,   1:-0.26669
   116 |      |   3: 0.18036,   2:-0.98145,   1: 0.06494
   117 |      |   3:-0.79696,   2: 0.60044,   1: 0.06579
   118 |      |   3: 0.62497,   2: 0.58169,   1:-0.52062
   119 |      |   3:-0.70435,   2:-0.68633,   1:-0.18123
   120 |      |   3: 0.51149,   2: 0.85555,   1:-0.08005
   121 |      |   3:-0.73301,   2:-0.04254,   1: 0.67888
   122 |      |   3: 0.31314,   2:-0.75467,   1: 0.57655
   123 |      |   3:-0.16892,   2:-0.75091,   1:-0.63844
   124 |      |   3:-0.89879,   2: 0.09373,   1: 0.42825
   125 |      |   3:-0.85349,   2:-0.44761,   1:-0.26684
   126 |      |   3: 0.11415,   2: 0.68191,   1: 0.72247
   127 |      |   3: 0.55142,   2: 0.54936,   1: 0.62781
   128 |      |   3: 0.38783,   2: 0.40716,   1:-0.82693
   129 |      |   3: 0.80590,   2:-0.32740,   1:-0.49330
   130 |      |   3: 0.38517,   2: 0.60682,   1:-0.69528
   131 |      |   3:-0.77336,   2:-0.05947,   1:-0.63117
   132 |      |   3: 0.37340,   2:-0.60622,   1:-0.70219
   133 |      |   3: 0.74618,   2:-0.65077,   1: 0.14039
   134 |      |   3: 0.71188,   2: 0.69642,   1:-0.09070
   135 |      |   3:-0.96093,   2: 0.17377,   1: 0.21544
   136 |      |   3: 0.32966,   2: 0.74973,   1: 0.57378
   137 |      |   3:-0.14633,   2:-0.63674,   1:-0.75707
   138 |      |   3: 0.78157,   2: 0.05535,   1: 0.62136
   139 |      |   3: 0.46800,   2: 0.50952,   1:-0.72206
   140 |      |   3:-0.41294,   2: 0.89469,   1:-0.17030
   141 |      |   3: 0.08678,   2: 0.80702,   1:-0.58411
   142 |      |   3: 0.07636,   2:-0.54144,   1: 0.83726
   143 |      |   3:-0.61096,   2:-0.03458,   1:-0.79091
   144 |      |   3: 0.72393,   2: 0.20207,   1:-0.65962
   145 |      |   3: 0.67599,   2: 0.24018,   1:-0.69667
   146 |      |   3: 0.74109,   2:-0.24028,   1:-0.62694
   147 |      |   3: 0.57196,   2: 0.58295,   1:-0.57709
   148 |      |   3:-0.13577,   2:-0.92113,   1: 0.36480
   149 |      |   3:-0.52102,   2: 0.83353,   1: 0.18375
   150 |      |   3: 0.18468,   2:-0.56526,   1:-0.80397
   151 |      |   3:-0.03563,   2:-0.66006,   1:-0.75037
   152 |      |   3: 0.81887,   2:-0.12197,   1: 0.56087
   153 |      |   3:-0.01810,   2: 0.34492,   1:-0.93846
   154 |      |   3: 0.50400,   2: 0.23809,   1: 0.83024
   155 |      |   3:-0.36116,   2: 0.26771,   1:-0.89325
   156 |      |   3:-0.77836,   2:-0.03649,   1: 0.62675
   157 |      |   3:-0.08922,   2:-0.89342,   1: 0.44026
   158 |      |   3:-0.81975,   2:-0.03508,   1: 0.57165
   159 |      |   3:-0.90606,   2:-0.38753,   1: 0.16994
   160 |      |   3:-0.90835,   2: 0.39983,   1: 0.12263
   161 |      |   3:-0.49496,   2: 0.86338,   1:-0.09795
   162 |      |   3: 0.75078,   2:-0.61560,   1: 0.23951
   163 |      |   3: 0.83723,   2:-0.41521,   1:-0.35588
   164 |      |   3:-0.47705,   2:-0.57260,   1:-0.66675
   165 |      |   3: 0.52286,   2:-0.85188,   1: 0.03031
   166 |      |   3: 0.66517,   2: 0.16193,   1:-0.72893
   167 |      |   3:-0.39299,   2: 0.74086,   1:-0.54468
   168 |      |   3: 0.83571,   2:-0.34742,   1:-0.42530
   169 |      |   3: 0.73172,   2: 0.03021,   1: 0.68093
   170 |      |   3:-0.82001,   2:-0.02691,   1: 0.57172
   171 |      |   3: 0.05963,   2: 0.58238,   1:-0.81073
   172 |      |   3:-0.19728,   2:-0.77933,   1:-0.59475
   173 |      |   3:-0.70976,   2: 0.67725,   1:-0.19383
   174 |      |   3: 0.55600,   2: 0.52725,   1:-0.64255
   175 |      |   3:-0.55932,   2: 0.60401,   1: 0.56775
   176 |      |   3: 0.54715,   2:-0.71096,   1:-0.44176
   177 |      |   3:-0.66217,   2: 0.58213,   1: 0.47186
   178 |      |   3:-0.83245,   2: 0.48281,   1: 0.27188
   179 |      |   3: 0.71390,   2:-0.15267,   1:-0.68340
   180 |      |   3: 0.78912,   2: 0.57042,   1: 0.22781
   181 |      |   3: 0.17404,   2: 0.69697,   1:-0.69567
   182 |      |   3: 0.00245,   2:-0.87184,   1:-0.48979
   183 |      |   3: 0.83289,   2:-0.53610,   1:-0.13743
   184 |      |   3: 0.38237,   2:-0.69509,   1:-0.60880
   185 |      |   3: 0.62398,   2:-0.12804,   1: 0.77088
   186 |      |   3:-0.52490,   2: 0.68293,   1: 0.50803
   187 |      |   3: 0.34613,   2:-0.46036,   1:-0.81747
   188 |      |   3: 0.97046,   2:-0.06872,   1: 0.23126
   189 |      |   3:-0.51593,   2: 0.07137,   1:-0.85365
   190 |      |   3: 0.23816,   2: 0.58132,   1:-0.77804
   191 |      |   3: 0.65949,   2:-0.65253,   1: 0.37320
   192 |      |   3: 0.44977,   2: 0.63743,   1: 0.62561
   193 |      |   3: 0.91058,   2: 0.41063,   1:-0.04721
   194 |      |   3: 0.51725,   2:-0.41203,   1: 0.75012
   195 |      |   3:-0.55900,   2: 0.77346,   1: 0.29880
   196 |      |   3: 0.43842,   2: 0.81881,   1: 0.37058
   197 |      |   3: 0.82251,   2: 0.53565,   1:-0.19120
   198 |      |   3: 0.37525,   2:-0.55495,   1: 0.74244
   199 |      |   3:-0.92690,   2: 0.24222,   1:-0.28667
   200 |      |   3: 0.72364,   2: 0.22321,   1:-0.65309
   201 |      |   3: 0.13347,   2: 0.14175,   1: 0.98086
   202 |      |   3:-0.68497,   2: 0.62859,   1: 0.36835
   203 |      |   3: 0.14080,   2:-0.75288,   1:-0.64292
   204 |      |   3: 0.50739,   2:-0.40781,   1: 0.75911
   205 |      |   3:-0.65382,   2: 0.48993,   1: 0.57662
   206 |      |   3:-0.95376,   2:-0.09720,   1: 0.28443
   207 |      |   3: 0.03347,   2: 0.15711,   1:-0.98701
   208 |      |   3: 0.52866,   2: 0.41397,   1: 0.74105
   209 |      |   3:-0.15996,   2:-0.96537,   1: 0.20609
   210 |      |   3:-0.62348,   2: 0.26568,   1:-0.73532
   211 |      |   3:-0.52114,   2: 0.77957,   1:-0.34740
   212 |      |   3:-0.12972,   2: 0.04433,   1: 0.99056
   213 |      |   3:-0.70106,   2: 0.65532,   1: 0.28119
   214 |      |   3: 0.84087,   2:-0.45399,   1:-0.29466
   215 |      |   3:-0.14785,   2: 0.71197,   1:-0.68646
   216 |      |   3:-0.76606,   2:-0.15901,   1:-0.62279
   217 |      |   3: 0.39103,   2:-0.81655,   1: 0.42467
   218 |      |   3:-0.53124,   2: 0.81972,   1:-0.21411
   219 |      |   3:-0.50673,   2: 0.23611,   1: 0.82914
   220 |      |   3: 0.29354,   2: 0.02762,   1:-0.95555
   221 |      |   3:-0.48772,   2: 0.73267,   1:-0.47469
   222 |      |   3:-0.45857,   2:-0.62881,   1: 0.62794
   223 |      |   3:-0.43855,   2: 0.08609,   1: 0.89457
   224 |      |   3: 0.33327,   2:-0.59193,   1:-0.73386
   225 |      |   3: 0.56184,   2: 0.82694,   1:-0.02241
   226 |      |   3:-0.70356,   2:-0.68578,   1:-0.18630
   227 |      |   3:-0.50550,   2: 0.67236,   1: 0.54074
   228 |      |   3: 0.74697,   2:-0.07735,   1: 0.66035
   229 |      |   3: 0.83686,   2: 0.36419,   1: 0.40869
   230 |      |   3: 0.06805,   2:-0.86474,   1: 0.49758
   231 |      |   3:-0.41718,   2: 0.00924,   1:-0.90878
   232 |      |   3:-0.61857,   2: 0.16697,   1:-0.76779
   233 |      |   3:-0.52006,   2:-0.09923,   1:-0.84835
   234 |      |   3:-0.61997,   2:-0.78350,   1: 0.04201
   235 |      |   3: 0.20882,   2:-0.79212,   1: 0.57353
   236 |      |   3:-0.89973,   2:-0.43091,   1: 0.06929
   237 |      |   3:-0.84115,   2:-0.37487,   1: 0.38979
   238 |      |   3:-0.45820,   2:-0.70999,   1:-0.53475
   239 |      |   3:-0.05202,   2:-0.57676,   1:-0.81525
   240 |      |   3: 0.55033,   2:-0.69854,   1:-0.45735
   241 |      |   3:-0.04421,   2: 0.35052,   1:-0.93551
   242 |      |   3: 0.63225,   2: 0.72505,   1: 0.27307
   243 |      |   3: 0.57092,   2: 0.78789,   1: 0.23082
   244 |      |   3: 0.60604,   2:-0.71299,   1:-0.35265
   245 |      |   3: 0.15386,   2:-0.81621,   1: 0.55689
   246 |      |   3:-0.77036,   2: 0.20477,   1:-0.60383
   247 |      |   3: 0.52837,   2:-0.65604,   1:-0.53892
   248 |      |   3:-0.22475,   2:-0.38148,   1: 0.89664
   249 |      |   3:-0.76689,   2: 0.05611,   1: 0.63932
   250 |      |   3:-0.58627,   2:-0.15640,   1: 0.79488
   251 |      |   3: 0.89108,   2: 0.07017,   1:-0.44838
   252 |      |   3:-0.82874,   2: 0.00067,   1: 0.55964
   253 |      |   3:-0.93905,   2: 0.33183,   1: 0.08989
   254 |      |   3: 0.40140,   2:-0.91471,   1:-0.04674
   255 |      |   3:-0.42922,   2:-0.59499,   1:-0.67953
   256 |      |   3: 0.31146,   2: 0.13269,   1: 0.94095
   257 |      |   3:-0.65072,   2:-0.29716,   1: 0.69876
   258 |      |   3:-0.11520,   2: 0.18935,   1: 0.97513
   259 |      |   3:-0.24202,   2:-0.76183,   1:-0.60087
-------|------|----------------------------------------------------------------------------------------------------------------
