SNNS network definition file V1.4-3D
generated at Tue Aug 22 19:15:23 2023

network name : laser_DAN2
source files :
no. of units : 34
no. of connections : 240
no. of unit types : 0
no. of site types : 0


learning function : JE_BP_Momentum
update function   : JE_Order
init function     : JE_Weights


unit default section :

act      | bias     | st | subnet | layer | act func     | out func
---------|----------|----|--------|-------|--------------|-------------
 0.00000 |  0.00000 | h  |      0 |     1 | Act_Logistic | Out_Identity 
---------|----------|----|--------|-------|--------------|-------------


unit definition section :

no. | typeName | unitName | act      | bias     | st | position | act func     | out func | sites
----|----------|----------|----------|----------|----|----------|--------------|----------|-------
  1 |          | inp1     |  0.30980 |  0.31281 | i  |  1, 1, 0 | Act_Identity |          | 
  2 |          | hid11    |  0.83106 | -0.05393 | h  |  7, 1, 0 |||
  3 |          | hid12    |  0.78636 | -0.14588 | h  |  7, 2, 0 |||
  4 |          | hid13    |  0.55062 |  0.09007 | h  |  7, 3, 0 |||
  5 |          | hid14    |  0.57962 | -0.41768 | h  |  7, 4, 0 |||
  6 |          | hid15    |  0.68214 |  0.36024 | h  |  7, 5, 0 |||
  7 |          | hid16    |  0.21239 | -0.68862 | h  |  7, 6, 0 |||
  8 |          | hid17    |  0.16993 |  0.55632 | h  |  7, 7, 0 |||
  9 |          | hid18    |  0.18762 | -0.13000 | h  |  7, 8, 0 |||
 10 |          | hid21    |  0.07750 | -1.45900 | h  | 13, 1, 0 |||
 11 |          | hid22    |  0.00233 | -0.87457 | h  | 13, 2, 0 |||
 12 |          | hid23    |  0.00785 | -0.57409 | h  | 13, 3, 0 |||
 13 |          | hid24    |  0.04258 | -1.01621 | h  | 13, 4, 0 |||
 14 |          | hid25    |  0.33688 | -0.45932 | h  | 13, 5, 0 |||
 15 |          | hid26    |  0.04200 | -0.42445 | h  | 13, 6, 0 |||
 16 |          | hid27    |  0.07492 | -0.64044 | h  | 13, 7, 0 |||
 17 |          | hid28    |  0.05906 | -1.05196 | h  | 13, 8, 0 |||
 18 |          | out1     |  0.32698 | -0.85908 | o  | 19, 1, 0 |||
 19 |          | con11    |  0.00000 |  0.50000 | sh  |  4,10, 0 | Act_Identity |          | 
 20 |          | con12    |  0.00000 |  0.50000 | sh  |  4,11, 0 | Act_Identity |          | 
 21 |          | con13    |  0.00000 |  0.50000 | sh  |  4,12, 0 | Act_Identity |          | 
 22 |          | con14    |  0.00000 |  0.50000 | sh  |  4,13, 0 | Act_Identity |          | 
 23 |          | con15    |  0.00000 |  0.50000 | sh  |  4,14, 0 | Act_Identity |          | 
 24 |          | con16    |  0.00000 |  0.50000 | sh  |  4,15, 0 | Act_Identity |          | 
 25 |          | con17    |  0.00000 |  0.50000 | sh  |  4,16, 0 | Act_Identity |          | 
 26 |          | con18    |  0.00000 |  0.50000 | sh  |  4,17, 0 | Act_Identity |          | 
 27 |          | con21    |  0.00000 |  0.50000 | sh  | 10,10, 0 | Act_Identity |          | 
 28 |          | con22    |  0.00000 |  0.50000 | sh  | 10,11, 0 | Act_Identity |          | 
 29 |          | con23    |  0.00000 |  0.50000 | sh  | 10,12, 0 | Act_Identity |          | 
 30 |          | con24    |  0.00000 |  0.50000 | sh  | 10,13, 0 | Act_Identity |          | 
 31 |          | con25    |  0.00000 |  0.50000 | sh  | 10,14, 0 | Act_Identity |          | 
 32 |          | con26    |  0.00000 |  0.50000 | sh  | 10,15, 0 | Act_Identity |          | 
 33 |          | con27    |  0.00000 |  0.50000 | sh  | 10,16, 0 | Act_Identity |          | 
 34 |          | con28    |  0.00000 |  0.50000 | sh  | 10,17, 0 | Act_Identity |          | 
----|----------|----------|----------|----------|----|----------|--------------|----------|-------


connection definition section :

target | site | source:weight
-------|------|---------------------------------------------------------------------------------------------------------------------
     2 |      | 26:-0.44579, 25: 0.59866, 24:-0.91214, 23: 0.03221, 22:-0.82361, 21:-0.89141, 20:-0.67065, 19:-0.16529,  1: 5.31655
     3 |      | 26: 0.89468, 25: 0.93695, 24: 0.88336, 23:-0.89367, 22:-0.09142, 21: 0.13771, 20: 0.16646, 19: 0.07249,  1: 4.67719
     4 |      | 26: 0.97600, 25:-0.82774, 24:-0.63475, 23:-0.76259, 22:-0.88572, 21: 0.18749, 20: 0.47269, 19:-0.90800,  1: 0.36503
     5 |      | 26: 0.98654, 25:-0.93506, 24:-0.67788, 23: 0.84518, 22:-0.80276, 21: 0.71615, 20: 0.54496, 19: 0.00342,  1: 2.38507
     6 |      | 26:-0.40732, 25: 0.90045, 24:-0.39647, 23: 0.37911, 22:-0.83648, 21:-0.49700, 20: 0.08530, 19:-0.78947,  1: 1.30204
     7 |      | 26:-0.70716, 25: 0.51119, 24:-0.23106, 23:-0.86794, 22:-0.65780, 21: 0.01805, 20: 0.47403, 19:-0.92235,  1:-2.00768
     8 |      | 26: 0.16757, 25: 0.47752, 24:-0.84235, 23:-0.13522, 22:-0.19102, 21: 0.68884, 20:-0.03441, 19:-0.93459,  1:-6.91551
     9 |      | 26: 0.40541, 25: 0.89046, 24: 0.83581, 23: 0.15953, 22:-0.66919, 21: 0.46043, 20: 0.36177, 19:-0.17509,  1:-4.31085
    10 |      | 34:-0.11006, 33: 0.12582, 32: 0.33218, 31:-0.72994, 30: 0.64331, 29: 0.43230, 28:-0.86026, 27:-0.32004,  9: 0.49373,
                 8:-0.97034,  7: 0.20081,  6: 0.17351,  5:-1.29766,  4: 0.33061,  3:-0.16635,  2:-0.48803
    11 |      | 34:-0.53600, 33: 0.35910, 32: 0.50986, 31: 0.15282, 30:-0.67711, 29:-0.66045, 28:-0.36576, 27: 0.68923,  9: 2.80334,
                 8: 3.98435,  7: 1.00007,  6:-0.32548,  5:-2.02061,  4: 0.30082,  3:-3.14464,  2:-3.49185
    12 |      | 34:-0.61125, 33:-0.12692, 32: 0.15342, 31:-0.59852, 30: 0.46803, 29: 0.24711, 28:-0.13016, 27:-0.69746,  9: 1.80590,
                 8: 3.16272,  7: 0.73996,  6:-0.97504,  5:-1.58287,  4:-0.70949,  3:-1.33558,  2:-2.73811
    13 |      | 34:-0.14927, 33:-0.73113, 32:-0.42592, 31: 0.33298, 30: 0.85609, 29:-0.06524, 28:-0.43027, 27: 0.27244,  9: 0.13472,
                 8: 1.56988,  7:-0.08700,  6:-1.17985,  5: 0.13534,  4:-0.82591,  3:-0.37563,  2:-1.07546
    14 |      | 34:-0.35448, 33: 0.12918, 32: 0.50705, 31:-0.04625, 30: 0.62021, 29: 0.97846, 28: 0.56225, 27: 0.96171,  9:-1.17996,
                 8:-3.06444,  7:-1.34690,  6: 0.52819,  5:-1.05053,  4:-1.05064,  3: 1.27707,  2: 0.76188
    15 |      | 34: 0.45188, 33:-0.67146, 32:-0.67004, 31: 0.55733, 30:-0.20757, 29:-0.00766, 28: 0.07614, 27:-0.93044,  9: 1.10182,
                 8: 2.04932,  7: 0.25199,  6: 0.10840,  5:-0.68137,  4:-0.80492,  3:-1.87294,  2:-1.29248
    16 |      | 34: 0.81842, 33:-0.33768, 32:-0.64378, 31:-0.67054, 30:-0.67895, 29:-0.29946, 28:-0.99246, 27: 0.42085,  9:-1.04350,
                 8:-0.56534,  7:-0.64258,  6:-0.98813,  5:-0.77091,  4:-0.49715,  3:-0.97943,  2: 0.86654
    17 |      | 34:-0.32819, 33:-0.37888, 32:-0.10129, 31:-0.35064, 30: 0.16122, 29: 0.11246, 28:-0.31400, 27:-0.92515,  9:-0.25094,
                 8:-0.28123,  7:-0.75371,  6: 0.16604,  5:-0.67248,  4:-0.30670,  3: 0.02999,  2:-1.25089
    18 |      | 17:-0.25236, 16: 0.35077, 15:-2.04402, 14: 0.72876, 13:-0.93944, 12:-3.02419, 11:-4.20876, 10: 0.51223
    19 |      | 19: 0.00000,  2: 0.00000
    20 |      | 20: 0.00000,  3: 0.00000
    21 |      | 21: 0.00000,  4: 0.00000
    22 |      | 22: 0.00000,  5: 0.00000
    23 |      | 23: 0.00000,  6: 0.00000
    24 |      | 24: 0.00000,  7: 0.00000
    25 |      | 25: 0.00000,  8: 0.00000
    26 |      | 26: 0.00000,  9: 0.00000
    27 |      | 27: 0.00000, 10: 0.00000
    28 |      | 28: 0.00000, 11: 0.00000
    29 |      | 29: 0.00000, 12: 0.00000
    30 |      | 30: 0.00000, 13: 0.00000
    31 |      | 31: 0.00000, 14: 0.00000
    32 |      | 32: 0.00000, 15: 0.00000
    33 |      | 33: 0.00000, 16: 0.00000
    34 |      | 34: 0.00000, 17: 0.00000
-------|------|---------------------------------------------------------------------------------------------------------------------
