SNNS network definition file V1.4-3D
generated at Tue Oct 24 08:43:10 2023

network name : letseq_elman_untrained_2
source files :
no. of units : 52
no. of connections : 680
no. of unit types : 0
no. of site types : 0


learning function : JE_BP
update function   : JE_Order
init function     : JE_Weights


unit default section :

act      | bias     | st | subnet | layer | act func     | out func
---------|----------|----|--------|-------|--------------|-------------
 0.00000 |  0.00000 | h  |      0 |     1 | Act_Logistic | Out_Identity 
---------|----------|----|--------|-------|--------------|-------------


unit definition section :

no. | typeName | unitName    | act      | bias     | st | position | act func     | out func | sites
----|----------|-------------|----------|----------|----|----------|--------------|----------|-------
  1 |          | consonant   |  1.00000 |  0.33955 | i  |  1, 1, 0 | Act_Identity |          | 
  2 |          | vowel       |  0.00000 |  0.08393 | i  |  1, 2, 0 | Act_Identity |          | 
  3 |          | interrupted |  1.00000 | -0.82686 | i  |  1, 3, 0 | Act_Identity |          | 
  4 |          | high        |  0.00000 | -0.71048 | i  |  1, 4, 0 | Act_Identity |          | 
  5 |          | back        |  1.00000 | -0.16824 | i  |  1, 5, 0 | Act_Identity |          | 
  6 |          | voiced      |  1.00000 |  0.48120 | i  |  1, 6, 0 | Act_Identity |          | 
  7 |          | hid1        |  0.11569 | -1.14563 | h  | 10, 1, 0 |||
  8 |          | hid2        |  0.03469 |  0.24634 | h  | 11, 1, 0 |||
  9 |          | hid3        |  0.09055 |  0.58176 | h  | 12, 1, 0 |||
 10 |          | hid4        |  0.01307 |  1.05282 | h  | 13, 1, 0 |||
 11 |          | hid5        |  0.93279 | -1.49340 | h  | 10, 2, 0 |||
 12 |          | hid6        |  0.02569 |  0.01261 | h  | 11, 2, 0 |||
 13 |          | hid7        |  0.00449 | -1.25479 | h  | 12, 2, 0 |||
 14 |          | hid8        |  0.89362 | -0.97945 | h  | 13, 2, 0 |||
 15 |          | hid9        |  0.07247 | -2.18762 | h  | 10, 3, 0 |||
 16 |          | hid10       |  0.74582 | -1.79810 | h  | 11, 3, 0 |||
 17 |          | hid11       |  0.78424 | -1.66898 | h  | 12, 3, 0 |||
 18 |          | hid12       |  0.98166 | -0.38410 | h  | 13, 3, 0 |||
 19 |          | hid13       |  0.04214 | -0.45712 | h  | 10, 4, 0 |||
 20 |          | hid14       |  0.00127 | -0.33614 | h  | 11, 4, 0 |||
 21 |          | hid15       |  0.00690 | -0.40962 | h  | 12, 4, 0 |||
 22 |          | hid16       |  0.40290 | -0.02655 | h  | 13, 4, 0 |||
 23 |          | hid17       |  0.20898 | -0.23653 | h  | 10, 5, 0 |||
 24 |          | hid18       |  0.03449 | -1.14675 | h  | 11, 5, 0 |||
 25 |          | hid19       |  0.04536 | -0.29098 | h  | 12, 5, 0 |||
 26 |          | hid20       |  0.25248 | -1.69163 | h  | 13, 5, 0 |||
 27 |          | consonant   |  0.00284 |  1.57888 | o  | 19, 1, 0 |||
 28 |          | vowel       |  0.99770 | -0.56129 | o  | 19, 2, 0 |||
 29 |          | interrupted |  0.00232 |  0.89042 | o  | 19, 3, 0 |||
 30 |          | high        |  0.99346 |  0.72735 | o  | 19, 4, 0 |||
 31 |          | back        |  0.99700 | -0.46433 | o  | 19, 5, 0 |||
 32 |          | voiced      |  0.99968 |  2.92358 | o  | 19, 6, 0 |||
 33 |          | con1        |  0.00000 |  0.50000 | sh  |  4, 8, 0 | Act_Identity |          | 
 34 |          | con2        |  0.00000 |  0.50000 | sh  |  5, 8, 0 | Act_Identity |          | 
 35 |          | con3        |  0.00000 |  0.50000 | sh  |  6, 8, 0 | Act_Identity |          | 
 36 |          | con4        |  0.00000 |  0.50000 | sh  |  7, 8, 0 | Act_Identity |          | 
 37 |          | con5        |  0.00000 |  0.50000 | sh  |  4, 9, 0 | Act_Identity |          | 
 38 |          | con6        |  0.00000 |  0.50000 | sh  |  5, 9, 0 | Act_Identity |          | 
 39 |          | con7        |  0.00000 |  0.50000 | sh  |  6, 9, 0 | Act_Identity |          | 
 40 |          | con8        |  0.00000 |  0.50000 | sh  |  7, 9, 0 | Act_Identity |          | 
 41 |          | con9        |  0.00000 |  0.50000 | sh  |  4,10, 0 | Act_Identity |          | 
 42 |          | con10       |  0.00000 |  0.50000 | sh  |  5,10, 0 | Act_Identity |          | 
 43 |          | con11       |  0.00000 |  0.50000 | sh  |  6,10, 0 | Act_Identity |          | 
 44 |          | con12       |  0.00000 |  0.50000 | sh  |  7,10, 0 | Act_Identity |          | 
 45 |          | con13       |  0.00000 |  0.50000 | sh  |  4,11, 0 | Act_Identity |          | 
 46 |          | con14       |  0.00000 |  0.50000 | sh  |  5,11, 0 | Act_Identity |          | 
 47 |          | con15       |  0.00000 |  0.50000 | sh  |  6,11, 0 | Act_Identity |          | 
 48 |          | con16       |  0.00000 |  0.50000 | sh  |  7,11, 0 | Act_Identity |          | 
 49 |          | con17       |  0.00000 |  0.50000 | sh  |  4,12, 0 | Act_Identity |          | 
 50 |          | con18       |  0.00000 |  0.50000 | sh  |  5,12, 0 | Act_Identity |          | 
 51 |          | con19       |  0.00000 |  0.50000 | sh  |  6,12, 0 | Act_Identity |          | 
 52 |          | con20       |  0.00000 |  0.50000 | sh  |  7,12, 0 | Act_Identity |          | 
----|----------|-------------|----------|----------|----|----------|--------------|----------|-------


connection definition section :

target | site | source:weight
-------|------|---------------------------------------------------------------------------------------------------------------------
     7 |      | 52: 0.63298, 51:-0.96635, 50: 0.14781, 49: 0.09274, 48:-0.43481, 47:-0.56564, 46:-0.07225, 45:-0.96529, 44:-0.66603,
                43:-0.28276, 42:-0.58601, 41:-0.28473, 40:-0.86042, 39:-0.50591, 38:-0.63908, 37: 0.44152, 36:-0.47536, 35: 0.06601,
                34: 0.86316, 33:-0.79999,  6:-1.41795,  5:-0.05524,  4:-0.56282,  3: 0.86944,  2:-1.17637,  1:-0.28456
     8 |      | 52: 0.45440, 51:-0.96941, 50:-0.63892, 49:-0.43490, 48:-0.97189, 47:-0.34348, 46: 0.24334, 45:-0.56977, 44: 0.91358,
                43:-0.64438, 42: 0.45193, 41: 0.74854, 40:-0.08645, 39: 0.82200, 38: 0.30873, 37: 0.74006, 36:-0.54560, 35:-0.30519,
                34:-0.82261, 33:-0.11381,  6:-0.11099,  5:-0.79956,  4:-3.34411,  3:-1.33531,  2:-0.57358,  1:-1.32648
     9 |      | 52: 0.57495, 51:-0.01791, 50: 0.00605, 49: 0.26475, 48: 0.77934, 47:-0.66830, 46: 0.17471, 45:-0.08862, 44:-0.88293,
                43: 0.64838, 42: 0.67066, 41:-0.26959, 40:-0.24795, 39:-0.55463, 38:-0.86675, 37: 0.75581, 36:-0.58565, 35: 0.28870,
                34:-0.12844, 33:-0.18354,  6:-0.68780,  5:-3.82008,  4:-3.17192,  3: 1.58366,  2:-0.59982,  1: 0.03556
    10 |      | 52: 0.52246, 51:-0.06203, 50: 0.46593, 49:-0.46141, 48:-0.33382, 47: 0.29473, 46: 0.00607, 45: 0.69838, 44:-0.60372,
                43: 0.62753, 42: 0.98909, 41:-0.59423, 40: 0.53169, 39:-0.00474, 38: 0.17871, 37:-0.41400, 36: 0.31484, 35: 0.79196,
                34: 0.36893, 33: 0.20046,  6: 0.75873,  5:-1.45308,  4: 0.34719,  3:-2.19253,  2: 1.73910,  1:-2.48999
    11 |      | 52:-0.32935, 51:-0.04584, 50:-0.45791, 49: 0.74884, 48: 0.56823, 47: 0.47856, 46: 0.28888, 45:-0.03857, 44: 0.04814,
                43: 0.80759, 42:-0.30285, 41:-0.47780, 40: 0.36987, 39:-0.46175, 38: 0.73033, 37:-0.37335, 36:-0.07744, 35: 0.89145,
                34: 0.33678, 33:-0.01177,  6:-1.41031,  5: 1.00214,  4: 0.19782,  3: 1.95764,  2:-2.23311,  1: 2.57431
    12 |      | 52:-0.67069, 51: 0.33108, 50: 0.67545, 49: 0.10880, 48: 0.31100, 47:-0.70112, 46:-0.96721, 45: 0.71242, 44:-0.02841,
                43:-0.79393, 42:-0.69609, 41: 0.02960, 40: 0.97193, 39:-0.34606, 38: 0.32974, 37: 0.92108, 36: 0.47136, 35: 0.75128,
                34: 0.51211, 33: 0.29886,  6: 0.62987,  5:-1.01398,  4:-5.66660,  3:-1.97693,  2: 0.93614,  1:-1.28737
    13 |      | 52:-0.52616, 51: 0.38611, 50: 0.55117, 49:-0.55304, 48: 0.49109, 47:-0.57156, 46:-0.25471, 45:-0.44851, 44: 0.44184,
                43:-0.43800, 42: 0.82251, 41: 0.77684, 40: 0.53139, 39:-0.97548, 38: 0.12662, 37:-0.17809, 36: 0.04744, 35:-0.17789,
                34:-0.96892, 33:-0.27864,  6:-1.69397,  5:-3.26543,  4: 2.86019,  3: 0.21325,  2:-1.28008,  1: 0.59917
    14 |      | 52: 0.08083, 51: 0.46685, 50:-0.03740, 49:-0.78973, 48:-0.75870, 47:-0.40785, 46: 0.66073, 45:-0.60618, 44: 0.46641,
                43:-0.87469, 42: 0.43166, 41: 0.69616, 40: 0.57340, 39:-0.98841, 38: 0.57766, 37: 0.04647, 36:-0.43905, 35:-0.99854,
                34: 0.18040, 33: 0.34248,  6:-0.58081,  5: 0.07892,  4:-2.33653,  3: 1.53568,  2:-2.30844,  1: 2.07390
    15 |      | 52: 0.36055, 51: 0.83885, 50:-0.20670, 49: 0.56064, 48: 0.63804, 47:-0.51526, 46:-0.99467, 45: 0.28985, 44:-0.00234,
                43:-0.88185, 42:-0.37959, 41: 0.06740, 40:-0.05893, 39: 0.81811, 38: 0.44172, 37: 0.22074, 36:-0.87713, 35: 0.56771,
                34: 0.89870, 33:-0.22191,  6:-2.09029,  5:-0.79216,  4: 2.75466,  3: 1.20091,  2:-2.78490,  1: 1.31988
    16 |      | 52:-0.48213, 51:-0.88020, 50:-0.21017, 49: 0.55477, 48:-0.66903, 47: 0.38738, 46:-0.57898, 45:-0.61651, 44: 0.99112,
                43: 0.82620, 42:-0.49830, 41:-0.90815, 40: 0.28100, 39:-0.62490, 38:-0.73235, 37:-0.92634, 36: 0.24116, 35: 0.33996,
                34: 0.66044, 33: 0.92558,  6:-1.51859,  5: 1.31779,  4: 2.17854,  3: 1.77122,  2:-3.05071,  1: 1.30412
    17 |      | 52:-0.42446, 51:-0.19697, 50: 0.11994, 49:-0.25791, 48:-0.50490, 47: 0.22674, 46:-0.45950, 45:-0.37739, 44:-0.30283,
                43:-0.03223, 42:-0.28786, 41:-0.97158, 40: 0.41723, 39:-0.22809, 38: 0.27557, 37: 0.21148, 36:-0.90626, 35: 0.90913,
                34:-0.77432, 33: 0.55958,  6:-1.34668,  5: 1.84588,  4: 1.62357,  3: 0.89497,  2:-3.97909,  1: 1.56536
    18 |      | 52:-0.01206, 51:-0.10629, 50:-0.60612, 49:-0.82363, 48:-0.40770, 47:-0.92380, 46:-0.71506, 45:-0.39679, 44:-0.18300,
                43:-0.57347, 42:-0.62767, 41: 0.09597, 40:-0.52503, 39: 0.81616, 38: 0.93625, 37: 0.37336, 36: 0.27309, 35:-0.70443,
                34: 0.25510, 33:-0.95528,  6:-0.91127,  5: 1.27771,  4: 7.16188,  3: 2.35286,  2:-2.54508,  1: 1.64468
    19 |      | 52:-0.72696, 51:-0.99183, 50:-0.56114, 49:-0.97661, 48: 0.29612, 47:-0.40395, 46: 0.42685, 45:-0.27374, 44: 0.01116,
                43: 0.53765, 42:-0.05794, 41:-0.42276, 40:-0.90581, 39:-0.50323, 38: 0.13528, 37:-0.89531, 36: 0.65582, 35: 0.52888,
                34:-0.48651, 33: 0.21359,  6: 0.71263,  5:-3.10441,  4:-4.17919,  3: 0.07231,  2: 1.12985,  1:-0.34702
    20 |      | 52: 0.29425, 51: 0.62463, 50: 0.83272, 49:-0.84116, 48: 0.78331, 47:-0.39499, 46:-0.63590, 45: 0.78345, 44:-0.86470,
                43:-0.80841, 42:-0.66964, 41: 0.73802, 40:-0.09500, 39: 0.08535, 38: 0.31945, 37:-0.67037, 36:-0.54630, 35: 0.10901,
                34:-0.99108, 33: 0.58204,  6:-1.30432,  5:-4.40042,  4: 3.29422,  3:-0.55423,  2:-1.93842,  1:-0.07243
    21 |      | 52:-0.33958, 51: 0.77486, 50:-0.12756, 49:-0.20893, 48: 0.09965, 47:-0.69257, 46: 0.58243, 45: 0.85836, 44: 0.77161,
                43:-0.04687, 42:-0.52216, 41:-0.07035, 40:-0.55572, 39: 0.10380, 38:-0.88271, 37: 0.91481, 36: 0.00254, 35: 0.90954,
                34:-0.62869, 33: 0.14872,  6:-1.41269,  5:-0.78920,  4:-1.86658,  3:-1.14225,  2: 0.39829,  1:-1.21483
    22 |      | 52:-0.82694, 51: 0.61815, 50: 0.13652, 49: 0.25644, 48: 0.89908, 47:-0.82170, 46:-0.23661, 45:-0.86986, 44:-0.18389,
                43:-0.15253, 42:-0.73569, 41: 0.47471, 40:-0.04447, 39: 0.59134, 38: 0.13269, 37: 0.82315, 36:-0.54919, 35: 0.80657,
                34: 0.51915, 33:-0.15534,  6:-1.02287,  5:-1.04242,  4:-1.86332,  3: 1.18833,  2:-1.54565,  1: 0.51012
    23 |      | 52:-0.87125, 51: 0.83689, 50:-0.77904, 49: 0.30521, 48:-0.61968, 47:-0.92313, 46:-0.08167, 45:-0.52937, 44:-0.71361,
                43:-0.74073, 42: 0.67470, 41: 0.42797, 40:-0.23411, 39: 0.16714, 38:-0.34136, 37: 0.83095, 36: 0.75519, 35:-0.18048,
                34: 0.75196, 33:-0.27709,  6:-0.85203,  5:-2.81735,  4:-2.34036,  3: 0.43672,  2:-1.71646,  1: 2.13812
    24 |      | 52: 0.36036, 51: 0.42254, 50:-0.99737, 49:-0.38988, 48:-0.03351, 47:-0.92252, 46: 0.48329, 45:-0.41512, 44:-0.84572,
                43:-0.78369, 42: 0.50691, 41: 0.18693, 40: 0.67948, 39:-0.78310, 38: 0.44692, 37:-0.00654, 36: 0.57754, 35:-0.09961,
                34:-0.76136, 33:-0.51635,  6:-1.19151,  5:-0.25832,  4:-0.71002,  3: 0.01109,  2:-0.71010,  1:-0.74641
    25 |      | 52: 0.43476, 51: 0.54103, 50:-0.68191, 49:-0.07920, 48: 0.40705, 47: 0.38543, 46:-0.32916, 45: 0.51135, 44: 0.60350,
                43:-0.04983, 42: 0.35352, 41:-0.73189, 40:-0.11332, 39:-0.73247, 38: 0.16399, 37:-0.31237, 36:-0.47181, 35:-0.95907,
                34: 0.45597, 33: 0.34372,  6:-0.54927,  5:-3.14933,  4:-0.42320,  3: 0.84222,  2:-0.74404,  1: 0.10057
    26 |      | 52:-0.39397, 51:-0.64917, 50:-0.87956, 49: 0.13820, 48:-0.91965, 47:-0.02023, 46: 0.06967, 45: 0.19819, 44:-0.68122,
                43: 0.87141, 42: 0.20577, 41: 0.65546, 40:-0.27841, 39:-0.34822, 38:-0.00594, 37:-0.86776, 36: 0.22910, 35: 0.90641,
                34:-0.82262, 33: 0.07281,  6:-1.29671,  5: 0.77781,  4: 1.21275,  3: 1.09620,  2:-1.95054,  1: 0.02891
    27 |      | 26:-0.49368, 25:-0.70576, 24: 0.61119, 23:-0.80190, 22:-1.22107, 21: 1.34461, 20: 0.79129, 19: 0.89370, 18:-2.92835,
                17:-1.40989, 16:-0.59557, 15:-0.50857, 14:-0.95615, 13: 0.75508, 12: 2.76624, 11:-1.52913, 10: 0.79867,  9:-0.46169,
                 8: 1.21132,  7:-0.31821
    28 |      | 26:-0.09652, 25:-0.41080, 24:-0.15507, 23: 1.57521, 22: 0.07806, 21: 0.34849, 20:-0.58440, 19:-1.02188, 18: 2.92775,
                17: 0.86896, 16:-0.01142, 15: 0.54712, 14: 1.46174, 13:-0.52007, 12:-2.77164, 11: 1.62776, 10:-1.84832,  9: 0.41718,
                 8:-2.22534,  7: 0.77571
    29 |      | 26:-0.47831, 25: 0.84494, 24: 0.08423, 23:-1.53310, 22: 0.26408, 21: 1.18978, 20: 0.38053, 19: 0.46388, 18:-2.88027,
                17:-0.89479, 16:-0.89453, 15:-0.49247, 14:-1.35397, 13: 0.59574, 12: 3.07619, 11:-1.42739, 10: 1.49613,  9:-0.23111,
                 8: 0.84126,  7:-0.23240
    30 |      | 26: 1.38389, 25:-2.05024, 24:-0.00134, 23:-3.52372, 22:-1.37958, 21: 0.41528, 20:-0.31949, 19:-0.70311, 18: 1.11067,
                17: 3.66475, 16: 0.89005, 15: 1.86731, 14: 0.21540, 13:-0.05908, 12:-0.84174, 11: 0.94014, 10:-0.79015,  9:-5.14657,
                 8:-0.07644,  7: 0.23707
    31 |      | 26:-0.98223, 25:-2.33588, 24: 0.26959, 23: 0.70296, 22: 1.52799, 21: 0.23715, 20:-4.41506, 19: 0.24241, 18: 2.11137,
                17:-0.40482, 16: 0.42014, 15:-3.35222, 14: 3.57014, 13:-3.87753, 12:-0.45869, 11: 0.83343, 10:-0.51636,  9: 0.18121,
                 8: 0.06312,  7: 0.61769
    32 |      | 26: 1.64674, 25: 0.71983, 24:-0.70886, 23: 0.69520, 22:-0.59683, 21: 1.55281, 20: 0.05204, 19: 1.63843, 18: 1.20213,
                17: 1.19038, 16: 2.20249, 15:-0.15986, 14: 0.64722, 13:-0.21272, 12: 1.27403, 11: 0.16848, 10: 1.51535,  9: 0.99253,
                 8:-0.33668,  7: 0.92150
    33 |      | 33: 1.00000,  7: 0.00000
    34 |      | 34: 1.00000,  8: 0.00000
    35 |      | 35: 1.00000,  9: 0.00000
    36 |      | 36: 1.00000, 10: 0.00000
    37 |      | 37: 1.00000, 11: 0.00000
    38 |      | 38: 1.00000, 12: 0.00000
    39 |      | 39: 1.00000, 13: 0.00000
    40 |      | 40: 1.00000, 14: 0.00000
    41 |      | 41: 1.00000, 15: 0.00000
    42 |      | 42: 1.00000, 16: 0.00000
    43 |      | 43: 1.00000, 17: 0.00000
    44 |      | 44: 1.00000, 18: 0.00000
    45 |      | 45: 1.00000, 19: 0.00000
    46 |      | 46: 1.00000, 20: 0.00000
    47 |      | 47: 1.00000, 21: 0.00000
    48 |      | 48: 1.00000, 22: 0.00000
    49 |      | 49: 1.00000, 23: 0.00000
    50 |      | 50: 1.00000, 24: 0.00000
    51 |      | 51: 1.00000, 25: 0.00000
    52 |      | 52: 1.00000, 26: 0.00000
-------|------|---------------------------------------------------------------------------------------------------------------------
