SNNS network definition file V1.4-3D
generated at Mon Aug 21 17:38:25 2023

network name : loter
source files :
no. of units : 36
no. of connections : 240
no. of unit types : 0
no. of site types : 0


learning function : JE_BP
update function   : JE_Order
init function     : JE_Weights


unit default section :

act      | bias     | st | subnet | layer | act func     | out func
---------|----------|----|--------|-------|--------------|-------------
 0.00000 |  0.00000 | h  |      0 |     1 | Act_Logistic | Out_Identity 
---------|----------|----|--------|-------|--------------|-------------


unit definition section :

no. | typeName | unitName | act      | bias     | st | position | act func     | out func | sites
----|----------|----------|----------|----------|----|----------|--------------|----------|-------
  1 |          | inp1     |  0.00000 |  0.00000 | i  |  1, 1, 0 | Act_Identity |          | 
  2 |          | inp2     |  0.00000 |  0.00000 | i  |  1, 2, 0 | Act_Identity |          | 
  3 |          | inp3     |  0.00000 |  0.00000 | i  |  1, 3, 0 | Act_Identity |          | 
  4 |          | inp4     |  0.00000 |  0.00000 | i  |  1, 4, 0 | Act_Identity |          | 
  5 |          | inp5     |  0.00000 |  0.00000 | i  |  1, 5, 0 | Act_Identity |          | 
  6 |          | inp6     |  0.00000 |  0.00000 | i  |  1, 6, 0 | Act_Identity |          | 
  7 |          | inp7     |  0.00000 |  0.00000 | i  |  1, 7, 0 | Act_Identity |          | 
  8 |          | inp8     |  0.00000 |  0.00000 | i  |  1, 8, 0 | Act_Identity |          | 
  9 |          | inp9     |  0.00000 |  0.00000 | i  |  1, 9, 0 | Act_Identity |          | 
 10 |          | inp10    |  0.00000 |  0.00000 | i  |  1,10, 0 | Act_Identity |          | 
 11 |          | hid1     |  0.00000 |  0.00000 | h  |  7, 1, 0 |||
 12 |          | hid2     |  0.00000 |  0.00000 | h  |  7, 2, 0 |||
 13 |          | hid3     |  0.00000 |  0.00000 | h  |  7, 3, 0 |||
 14 |          | hid4     |  0.00000 |  0.00000 | h  |  7, 4, 0 |||
 15 |          | hid5     |  0.00000 |  0.00000 | h  |  7, 5, 0 |||
 16 |          | hid6     |  0.00000 |  0.00000 | h  |  7, 6, 0 |||
 17 |          | hid7     |  0.00000 |  0.00000 | h  |  7, 7, 0 |||
 18 |          | hid8     |  0.00000 |  0.00000 | h  |  7, 8, 0 |||
 19 |          | out1     |  0.00000 |  0.00000 | o  | 13, 1, 0 |||
 20 |          | out2     |  0.00000 |  0.00000 | o  | 13, 2, 0 |||
 21 |          | out3     |  0.00000 |  0.00000 | o  | 13, 3, 0 |||
 22 |          | out4     |  0.00000 |  0.00000 | o  | 13, 4, 0 |||
 23 |          | out5     |  0.00000 |  0.00000 | o  | 13, 5, 0 |||
 24 |          | out6     |  0.00000 |  0.00000 | o  | 13, 6, 0 |||
 25 |          | out7     |  0.00000 |  0.00000 | o  | 13, 7, 0 |||
 26 |          | out8     |  0.00000 |  0.00000 | o  | 13, 8, 0 |||
 27 |          | out9     |  0.00000 |  0.00000 | o  | 13, 9, 0 |||
 28 |          | out10    |  0.00000 |  0.00000 | o  | 13,10, 0 |||
 29 |          | con1     |  0.00000 |  0.00000 | sh  |  4,12, 0 | Act_Identity |          | 
 30 |          | con2     |  0.00000 |  0.00000 | sh  |  4,13, 0 | Act_Identity |          | 
 31 |          | con3     |  0.00000 |  0.00000 | sh  |  4,14, 0 | Act_Identity |          | 
 32 |          | con4     |  0.00000 |  0.00000 | sh  |  4,15, 0 | Act_Identity |          | 
 33 |          | con5     |  0.00000 |  0.00000 | sh  |  4,16, 0 | Act_Identity |          | 
 34 |          | con6     |  0.00000 |  0.00000 | sh  |  4,17, 0 | Act_Identity |          | 
 35 |          | con7     |  0.00000 |  0.00000 | sh  |  4,18, 0 | Act_Identity |          | 
 36 |          | con8     |  0.00000 |  0.00000 | sh  |  4,19, 0 | Act_Identity |          | 
----|----------|----------|----------|----------|----|----------|--------------|----------|-------


connection definition section :

target | site | source:weight
-------|------|---------------------------------------------------------------------------------------------------------------------
    11 |      | 36: 0.00000, 35: 0.00000, 34: 0.00000, 33: 0.00000, 32: 0.00000, 31: 0.00000, 30: 0.00000, 29: 0.00000, 10: 0.00000,
                 9: 0.00000,  8: 0.00000,  7: 0.00000,  6: 0.00000,  5: 0.00000,  4: 0.00000,  3: 0.00000,  2: 0.00000,  1: 0.00000
    12 |      | 36: 0.00000, 35: 0.00000, 34: 0.00000, 33: 0.00000, 32: 0.00000, 31: 0.00000, 30: 0.00000, 29: 0.00000, 10: 0.00000,
                 9: 0.00000,  8: 0.00000,  7: 0.00000,  6: 0.00000,  5: 0.00000,  4: 0.00000,  3: 0.00000,  2: 0.00000,  1: 0.00000
    13 |      | 36: 0.00000, 35: 0.00000, 34: 0.00000, 33: 0.00000, 32: 0.00000, 31: 0.00000, 30: 0.00000, 29: 0.00000, 10: 0.00000,
                 9: 0.00000,  8: 0.00000,  7: 0.00000,  6: 0.00000,  5: 0.00000,  4: 0.00000,  3: 0.00000,  2: 0.00000,  1: 0.00000
    14 |      | 36: 0.00000, 35: 0.00000, 34: 0.00000, 33: 0.00000, 32: 0.00000, 31: 0.00000, 30: 0.00000, 29: 0.00000, 10: 0.00000,
                 9: 0.00000,  8: 0.00000,  7: 0.00000,  6: 0.00000,  5: 0.00000,  4: 0.00000,  3: 0.00000,  2: 0.00000,  1: 0.00000
    15 |      | 36: 0.00000, 35: 0.00000, 34: 0.00000, 33: 0.00000, 32: 0.00000, 31: 0.00000, 30: 0.00000, 29: 0.00000, 10: 0.00000,
                 9: 0.00000,  8: 0.00000,  7: 0.00000,  6: 0.00000,  5: 0.00000,  4: 0.00000,  3: 0.00000,  2: 0.00000,  1: 0.00000
    16 |      | 36: 0.00000, 35: 0.00000, 34: 0.00000, 33: 0.00000, 32: 0.00000, 31: 0.00000, 30: 0.00000, 29: 0.00000, 10: 0.00000,
                 9: 0.00000,  8: 0.00000,  7: 0.00000,  6: 0.00000,  5: 0.00000,  4: 0.00000,  3: 0.00000,  2: 0.00000,  1: 0.00000
    17 |      | 36: 0.00000, 35: 0.00000, 34: 0.00000, 33: 0.00000, 32: 0.00000, 31: 0.00000, 30: 0.00000, 29: 0.00000, 10: 0.00000,
                 9: 0.00000,  8: 0.00000,  7: 0.00000,  6: 0.00000,  5: 0.00000,  4: 0.00000,  3: 0.00000,  2: 0.00000,  1: 0.00000
    18 |      | 36: 0.00000, 35: 0.00000, 34: 0.00000, 33: 0.00000, 32: 0.00000, 31: 0.00000, 30: 0.00000, 29: 0.00000, 10: 0.00000,
                 9: 0.00000,  8: 0.00000,  7: 0.00000,  6: 0.00000,  5: 0.00000,  4: 0.00000,  3: 0.00000,  2: 0.00000,  1: 0.00000
    19 |      | 18: 0.00000, 17: 0.00000, 16: 0.00000, 15: 0.00000, 14: 0.00000, 13: 0.00000, 12: 0.00000, 11: 0.00000
    20 |      | 18: 0.00000, 17: 0.00000, 16: 0.00000, 15: 0.00000, 14: 0.00000, 13: 0.00000, 12: 0.00000, 11: 0.00000
    21 |      | 18: 0.00000, 17: 0.00000, 16: 0.00000, 15: 0.00000, 14: 0.00000, 13: 0.00000, 12: 0.00000, 11: 0.00000
    22 |      | 18: 0.00000, 17: 0.00000, 16: 0.00000, 15: 0.00000, 14: 0.00000, 13: 0.00000, 12: 0.00000, 11: 0.00000
    23 |      | 18: 0.00000, 17: 0.00000, 16: 0.00000, 15: 0.00000, 14: 0.00000, 13: 0.00000, 12: 0.00000, 11: 0.00000
    24 |      | 18: 0.00000, 17: 0.00000, 16: 0.00000, 15: 0.00000, 14: 0.00000, 13: 0.00000, 12: 0.00000, 11: 0.00000
    25 |      | 18: 0.00000, 17: 0.00000, 16: 0.00000, 15: 0.00000, 14: 0.00000, 13: 0.00000, 12: 0.00000, 11: 0.00000
    26 |      | 18: 0.00000, 17: 0.00000, 16: 0.00000, 15: 0.00000, 14: 0.00000, 13: 0.00000, 12: 0.00000, 11: 0.00000
    27 |      | 18: 0.00000, 17: 0.00000, 16: 0.00000, 15: 0.00000, 14: 0.00000, 13: 0.00000, 12: 0.00000, 11: 0.00000
    28 |      | 18: 0.00000, 17: 0.00000, 16: 0.00000, 15: 0.00000, 14: 0.00000, 13: 0.00000, 12: 0.00000, 11: 0.00000
    29 |      | 29: 0.00000, 11: 0.00000
    30 |      | 30: 0.00000, 12: 0.00000
    31 |      | 31: 0.00000, 13: 0.00000
    32 |      | 32: 0.00000, 14: 0.00000
    33 |      | 33: 0.00000, 15: 0.00000
    34 |      | 34: 0.00000, 16: 0.00000
    35 |      | 35: 0.00000, 17: 0.00000
    36 |      | 36: 0.00000, 18: 0.00000
-------|------|---------------------------------------------------------------------------------------------------------------------
