SNNS network definition file V1.4-3D
generated at Sat Aug 26 04:22:02 2023

network name : loter3
source files :
no. of units : 36
no. of connections : 240
no. of unit types : 0
no. of site types : 0


learning function : JE_BP
update function   : JE_Order
init function     : JE_Weights


unit default section :

act      | bias     | st | subnet | layer | act func     | out func
---------|----------|----|--------|-------|--------------|-------------
 0.00000 |  0.00000 | h  |      0 |     1 | Act_Logistic | Out_Identity 
---------|----------|----|--------|-------|--------------|-------------


unit definition section :

no. | typeName | unitName | act      | bias     | st | position | act func     | out func | sites
----|----------|----------|----------|----------|----|----------|--------------|----------|-------
  1 |          | inp1     |  0.00000 | -0.82278 | i  |  1, 1, 0 | Act_Identity |          | 
  2 |          | inp2     |  0.00000 |  0.11788 | i  |  1, 2, 0 | Act_Identity |          | 
  3 |          | inp3     |  0.00000 | -0.18743 | i  |  1, 3, 0 | Act_Identity |          | 
  4 |          | inp4     |  0.00000 | -0.89478 | i  |  1, 4, 0 | Act_Identity |          | 
  5 |          | inp5     |  0.00000 | -0.85800 | i  |  1, 5, 0 | Act_Identity |          | 
  6 |          | inp6     |  0.00000 | -0.07788 | i  |  1, 6, 0 | Act_Identity |          | 
  7 |          | inp7     |  0.00000 |  0.09454 | i  |  1, 7, 0 | Act_Identity |          | 
  8 |          | inp8     |  0.00000 | -0.66183 | i  |  1, 8, 0 | Act_Identity |          | 
  9 |          | inp9     |  0.00000 |  0.72813 | i  |  1, 9, 0 | Act_Identity |          | 
 10 |          | inp10    |  1.00000 | -0.58369 | i  |  1,10, 0 | Act_Identity |          | 
 11 |          | hid1     |  0.99699 | -0.81615 | h  |  7, 1, 0 |||
 12 |          | hid2     |  0.24557 |  0.16851 | h  |  7, 2, 0 |||
 13 |          | hid3     |  0.01417 |  0.39739 | h  |  7, 3, 0 |||
 14 |          | hid4     |  0.81306 |  1.14800 | h  |  7, 4, 0 |||
 15 |          | hid5     |  0.17128 |  0.14425 | h  |  7, 5, 0 |||
 16 |          | hid6     |  0.92812 |  0.83225 | h  |  7, 6, 0 |||
 17 |          | hid7     |  0.80540 | -0.06921 | h  |  7, 7, 0 |||
 18 |          | hid8     |  0.23215 |  0.13353 | h  |  7, 8, 0 |||
 19 |          | out1     |  0.01333 | -1.49537 | o  | 13, 1, 0 |||
 20 |          | out2     |  0.02274 | -1.25398 | o  | 13, 2, 0 |||
 21 |          | out3     |  0.00689 | -0.53976 | o  | 13, 3, 0 |||
 22 |          | out4     |  0.94200 | -0.07738 | o  | 13, 4, 0 |||
 23 |          | out5     |  0.03696 | -2.67158 | o  | 13, 5, 0 |||
 24 |          | out6     |  0.03466 | -0.14124 | o  | 13, 6, 0 |||
 25 |          | out7     |  0.00154 | -1.02143 | o  | 13, 7, 0 |||
 26 |          | out8     |  0.04601 | -1.94744 | o  | 13, 8, 0 |||
 27 |          | out9     |  0.03775 | -0.79175 | o  | 13, 9, 0 |||
 28 |          | out10    |  0.00237 | -2.04543 | o  | 13,10, 0 |||
 29 |          | con1     |  1.99379 |  0.50000 | sh  |  4,12, 0 | Act_Identity |          | 
 30 |          | con2     |  0.51464 |  0.50000 | sh  |  4,13, 0 | Act_Identity |          | 
 31 |          | con3     |  0.40468 |  0.50000 | sh  |  4,14, 0 | Act_Identity |          | 
 32 |          | con4     |  0.95442 |  0.50000 | sh  |  4,15, 0 | Act_Identity |          | 
 33 |          | con5     |  0.67662 |  0.50000 | sh  |  4,16, 0 | Act_Identity |          | 
 34 |          | con6     |  1.71850 |  0.50000 | sh  |  4,17, 0 | Act_Identity |          | 
 35 |          | con7     |  1.07291 |  0.50000 | sh  |  4,18, 0 | Act_Identity |          | 
 36 |          | con8     |  0.89043 |  0.50000 | sh  |  4,19, 0 | Act_Identity |          | 
----|----------|----------|----------|----------|----|----------|--------------|----------|-------


connection definition section :

target | site | source:weight
-------|------|---------------------------------------------------------------------------------------------------------------------
    11 |      |  1:-1.92645,  2:-0.31457,  3: 0.15029,  4: 0.43766,  5: 0.61141,  6: 0.43682,  7:-0.18116,  8:-0.30826,  9:-0.57863,
                10: 0.71460, 29: 1.09055, 30: 1.01393, 31: 1.13944, 32: 1.50722, 33: 0.42906, 34: 0.02102, 35: 0.00657, 36: 1.06087
    12 |      |  1: 0.44541,  2: 2.17980,  3:-0.98350,  4: 1.30745,  5: 0.33422,  6: 0.05954,  7: 2.70603,  8:-1.76619,  9:-2.72846,
                10:-0.03961, 29: 0.48794, 30:-0.43560, 31: 0.21032, 32: 0.37639, 33:-0.06704, 34:-1.66387, 35:-0.52765, 36: 0.54681
    13 |      |  1:-0.29320,  2:-1.04715,  3:-2.27172,  4: 1.36472,  5:-0.24149,  6:-0.85363,  7: 1.90417,  8: 0.18688,  9: 2.02609,
                10:-2.62344, 29: 0.93197, 30: 1.07609, 31:-0.45323, 32: 0.31907, 33:-1.23906, 34:-1.01316, 35: 0.43343, 36:-1.19045
    14 |      |  1: 2.29823,  2:-0.38457,  3: 0.73648,  4:-0.19561,  5: 0.36024,  6:-1.85767,  7: 1.16934,  8:-0.24453,  9:-0.02142,
                10: 0.30419, 29:-0.48476, 30:-1.38137, 31:-0.67028, 32: 0.88892, 33:-1.58753, 34: 2.12247, 35: 0.14253, 36: 0.13131
    15 |      |  1: 1.45626,  2: 0.08577,  3:-0.51953,  4: 1.30602,  5: 0.65576,  6: 1.75556,  7:-3.10737,  8:-2.11951,  9: 2.08306,
                10:-1.13156, 29: 0.09877, 30: 0.00114, 31: 0.74214, 32:-0.59245, 33:-0.50777, 34:-0.78938, 35: 1.48199, 36:-0.17533
    16 |      |  1: 1.25126,  2:-3.35531,  3: 0.17925,  4: 1.36413,  5:-1.43552,  6:-0.66473,  7: 0.68417,  8: 1.35749,  9:-0.97682,
                10: 1.26033, 29:-0.36549, 30: 0.35982, 31:-0.43769, 32:-0.63289, 33: 2.35716, 34:-0.36910, 35:-1.35716, 36: 0.34076
    17 |      |  1:-0.46859,  2:-0.19146,  3: 1.82531,  4: 1.59157,  5:-1.92429,  6:-1.83535,  7:-0.64425,  8:-0.70181,  9: 0.33521,
                10: 1.49145, 29:-0.26111, 30: 0.55705, 31:-0.25855, 32: 0.87626, 33:-0.54399, 34:-1.10741, 35:-1.04925, 36: 2.30512
    18 |      |  1: 0.14694,  2: 0.67467,  3:-0.24327,  4:-2.73913,  5:-1.62484,  6:-1.52467,  7: 0.05815,  8: 2.32328,  9: 1.26630,
                10:-1.13108, 29: 0.73984, 30: 0.51550, 31: 1.82622, 32:-0.24924, 33:-0.72182, 34:-0.98928, 35:-0.73662, 36:-0.47047
    19 |      | 11:-0.98757, 12:-0.74522, 13:-1.07942, 14:-1.01797, 15:-0.78168, 16:-0.54385, 17: 0.06772, 18:-0.92224
    20 |      | 11:-5.40135, 12: 0.35891, 13: 0.44961, 14: 2.72458, 15: 0.72384, 16: 0.41739, 17: 0.10459, 18:-0.11533
    21 |      | 11:-0.10901, 12: 3.02742, 13:-2.08110, 14:-1.58058, 15:-0.22372, 16:-4.77428, 17: 0.54245, 18: 1.21067
    22 |      | 11: 0.16080, 12:-0.82167, 13:-5.15331, 14: 0.74587, 15:-2.78615, 16: 1.26356, 17: 2.78943, 18:-2.45123
    23 |      | 11:-1.01489, 12: 1.36291, 13: 1.34831, 14:-3.13249, 15: 0.79434, 16: 0.92957, 17: 2.85814, 18:-2.94816
    24 |      | 11: 0.50509, 12:-0.73668, 13:-0.15342, 14: 2.41518, 15: 0.29340, 16:-3.02309, 17:-2.39128, 18:-3.39542
    25 |      | 11: 1.11073, 12:-1.09749, 13:-0.28069, 14:-4.05393, 15: 3.29625, 16:-1.01946, 17:-2.95877, 18:-0.98193
    26 |      | 11:-0.34449, 12: 2.59232, 13: 2.79034, 14: 0.82428, 15:-5.04425, 16:-0.48154, 17:-0.73625, 18:-0.78943
    27 |      | 11:-0.33101, 12:-2.71300, 13:-0.73403, 14:-2.46941, 15:-2.60509, 16: 1.78748, 17:-1.73124, 18: 3.22756
    28 |      | 11:-1.21370, 12:-3.81602, 13: 3.11359, 14:-0.10408, 15: 1.15471, 16:-2.95064, 17: 0.29099, 18: 2.14020
    29 |      | 11: 1.00000, 29: 0.50000
    30 |      | 12: 1.00000, 30: 0.50000
    31 |      | 13: 1.00000, 31: 0.50000
    32 |      | 14: 1.00000, 32: 0.50000
    33 |      | 15: 1.00000, 33: 0.50000
    34 |      | 16: 1.00000, 34: 0.50000
    35 |      | 17: 1.00000, 35: 0.50000
    36 |      | 18: 1.00000, 36: 0.50000
-------|------|---------------------------------------------------------------------------------------------------------------------
