SNNS network definition file V1.4-3D
generated at Mon Aug 21 19:35:55 2023

network name : loter2
source files :
no. of units : 36
no. of connections : 240
no. of unit types : 0
no. of site types : 0


learning function : JE_BP
update function   : JE_Order
init function     : JE_Weights


unit default section :

act      | bias     | st | subnet | layer | act func     | out func
---------|----------|----|--------|-------|--------------|-------------
 0.00000 |  0.00000 | h  |      0 |     1 | Act_Logistic | Out_Identity 
---------|----------|----|--------|-------|--------------|-------------


unit definition section :

no. | typeName | unitName | act      | bias     | st | position | act func     | out func | sites
----|----------|----------|----------|----------|----|----------|--------------|----------|-------
  1 |          | inp1     |  0.00000 | -0.77632 | i  |  1, 1, 0 | Act_Identity |          | 
  2 |          | inp2     |  0.00000 |  0.16410 | i  |  1, 2, 0 | Act_Identity |          | 
  3 |          | inp3     |  0.00000 | -0.98539 | i  |  1, 3, 0 | Act_Identity |          | 
  4 |          | inp4     |  0.00000 | -0.09344 | i  |  1, 4, 0 | Act_Identity |          | 
  5 |          | inp5     |  0.00000 |  0.11736 | i  |  1, 5, 0 | Act_Identity |          | 
  6 |          | inp6     |  0.00000 | -0.89114 | i  |  1, 6, 0 | Act_Identity |          | 
  7 |          | inp7     |  0.00000 | -0.75638 | i  |  1, 7, 0 | Act_Identity |          | 
  8 |          | inp8     |  0.00000 |  0.70074 | i  |  1, 8, 0 | Act_Identity |          | 
  9 |          | inp9     |  0.00000 | -0.25351 | i  |  1, 9, 0 | Act_Identity |          | 
 10 |          | inp10    |  0.00000 |  0.54878 | i  |  1,10, 0 | Act_Identity |          | 
 11 |          | hid1     |  0.00000 | -0.21670 | h  |  7, 1, 0 |||
 12 |          | hid2     |  0.00000 |  0.25995 | h  |  7, 2, 0 |||
 13 |          | hid3     |  0.00000 |  0.15658 | h  |  7, 3, 0 |||
 14 |          | hid4     |  0.00000 |  0.19803 | h  |  7, 4, 0 |||
 15 |          | hid5     |  0.00000 | -0.89802 | h  |  7, 5, 0 |||
 16 |          | hid6     |  0.00000 | -0.56347 | h  |  7, 6, 0 |||
 17 |          | hid7     |  0.00000 |  0.52540 | h  |  7, 7, 0 |||
 18 |          | hid8     |  0.00000 |  0.26653 | h  |  7, 8, 0 |||
 19 |          | out1     |  0.00000 | -0.66875 | o  | 13, 1, 0 |||
 20 |          | out2     |  0.00000 |  0.45643 | o  | 13, 2, 0 |||
 21 |          | out3     |  0.00000 | -0.93030 | o  | 13, 3, 0 |||
 22 |          | out4     |  0.00000 |  0.27669 | o  | 13, 4, 0 |||
 23 |          | out5     |  0.00000 | -0.85323 | o  | 13, 5, 0 |||
 24 |          | out6     |  0.00000 | -0.03146 | o  | 13, 6, 0 |||
 25 |          | out7     |  0.00000 | -0.18788 | o  | 13, 7, 0 |||
 26 |          | out8     |  0.00000 |  0.09143 | o  | 13, 8, 0 |||
 27 |          | out9     |  0.00000 |  0.30359 | o  | 13, 9, 0 |||
 28 |          | out10    |  0.00000 |  0.57977 | o  | 13,10, 0 |||
 29 |          | con1     |  0.00000 |  0.50000 | sh  |  4,12, 0 | Act_Identity |          | 
 30 |          | con2     |  0.00000 |  0.50000 | sh  |  4,13, 0 | Act_Identity |          | 
 31 |          | con3     |  0.00000 |  0.50000 | sh  |  4,14, 0 | Act_Identity |          | 
 32 |          | con4     |  0.00000 |  0.50000 | sh  |  4,15, 0 | Act_Identity |          | 
 33 |          | con5     |  0.00000 |  0.50000 | sh  |  4,16, 0 | Act_Identity |          | 
 34 |          | con6     |  0.00000 |  0.50000 | sh  |  4,17, 0 | Act_Identity |          | 
 35 |          | con7     |  0.00000 |  0.50000 | sh  |  4,18, 0 | Act_Identity |          | 
 36 |          | con8     |  0.00000 |  0.50000 | sh  |  4,19, 0 | Act_Identity |          | 
----|----------|----------|----------|----------|----|----------|--------------|----------|-------


connection definition section :

target | site | source:weight
-------|------|---------------------------------------------------------------------------------------------------------------------
    11 |      | 36: 0.69831, 35: 0.01538, 34:-0.00373, 33:-0.39559, 32:-0.65820, 31:-0.76411, 30: 0.32743, 29: 0.22021, 10: 0.62870,
                 9: 0.46779,  8:-0.08602,  7:-0.51832,  6: 0.17959,  5: 0.37949,  4: 0.57268,  3: 0.05831,  2: 0.58764,  1:-0.44020
    12 |      | 36: 0.22427, 35: 0.50073, 34: 0.63269, 33:-0.23216, 32:-0.51168, 31: 0.29655, 30: 0.97443, 29: 0.98267, 10: 0.76755,
                 9:-0.16654,  8: 0.89115,  7:-0.79705,  6: 0.53129,  5:-0.70290,  4: 0.21155,  3:-0.79692,  2: 0.54094,  1: 0.03532
    13 |      | 36: 0.26388, 35: 0.49344, 34:-0.88052, 33:-0.32053, 32:-0.66737, 31:-0.36269, 30: 0.54692, 29:-0.81375, 10:-0.64861,
                 9: 0.96557,  8:-0.91666,  7: 0.44925,  6: 0.10295,  5:-0.81355,  4:-0.97052,  3:-0.23693,  2: 0.63354,  1:-0.28925
    14 |      | 36: 0.95219, 35: 0.35806, 34:-0.65090, 33: 0.33641, 32:-0.94290, 31: 0.73943, 30:-0.64808, 29: 0.58007, 10:-0.42124,
                 9: 0.33332,  8: 0.51054,  7:-0.56127,  6: 0.57103,  5: 0.84386,  4: 0.02713,  3:-0.30545,  2:-0.99769,  1: 0.45560
    15 |      | 36: 0.53208, 35: 0.37077, 34: 0.37189, 33:-0.87660, 32:-0.44699, 31:-0.89626, 30:-0.55265, 29:-0.98458, 10:-0.90241,
                 9:-0.30088,  8: 0.76892,  7:-0.16882,  6: 0.76440,  5: 0.61357,  4:-0.29712,  3: 0.80197,  2: 0.17134,  1: 0.65433
    16 |      | 36:-0.42053, 35: 0.03664, 34:-0.98453, 33: 0.52793, 32:-0.24411, 31: 0.49742, 30: 0.38679, 29:-0.97428, 10:-0.58204,
                 9:-0.63502,  8:-0.12932,  7: 0.89444,  6: 0.58634,  5: 0.59643,  4:-0.77377,  3:-0.19117,  2: 0.10536,  1:-0.28020
    17 |      | 36: 0.86030, 35: 0.66549, 34:-0.92322, 33:-0.70182, 32: 0.81789, 31: 0.04452, 30:-0.44029, 29:-0.84663, 10: 0.73954,
                 9:-0.18306,  8:-0.25186,  7: 0.52240,  6: 0.84190,  5: 0.27276,  4: 0.94741,  3: 0.26396,  2:-0.51867,  1: 0.26976
    18 |      | 36: 0.40757, 35:-0.78332, 34: 0.47216, 33:-0.56575, 32: 0.17075, 31: 0.52673, 30:-0.24634, 29:-0.85208, 10: 0.76552,
                 9: 0.62105,  8:-0.59241,  7: 0.20546,  6: 0.46892,  5: 0.66043,  4:-0.25240,  3: 0.03198,  2: 0.36457,  1:-0.19097
    19 |      | 18: 0.24209, 17: 0.30955, 16:-0.94027, 15:-0.38118, 14: 0.06048, 13:-0.37414, 12:-0.63720, 11: 0.71091
    20 |      | 18:-0.81313, 17:-0.13333, 16:-0.19853, 15:-0.84596, 14:-0.26231, 13: 0.14243, 12:-0.85532, 11: 0.89663
    21 |      | 18: 0.16936, 17:-0.73650, 16: 0.82917, 15: 0.02213, 14: 0.13797, 13: 0.51886, 12: 0.19240, 11: 0.01113
    22 |      | 18: 0.29759, 17: 0.99179, 16: 0.03458, 15: 0.89620, 14:-0.65421, 13:-0.57292, 12: 0.86049, 11: 0.60626
    23 |      | 18: 0.87624, 17: 0.71077, 16:-0.40143, 15: 0.78757, 14: 0.57300, 13: 0.37968, 12:-0.62170, 11: 0.13691
    24 |      | 18:-0.10250, 17:-0.79113, 16:-0.87326, 15: 0.51524, 14:-0.06899, 13:-0.38104, 12:-0.16131, 11: 0.36020
    25 |      | 18: 0.88813, 17: 0.38900, 16:-0.48463, 15: 0.95640, 14: 0.72432, 13: 0.31788, 12:-0.47643, 11:-0.62766
    26 |      | 18: 0.45329, 17:-0.26956, 16: 0.70815, 15:-0.97786, 14: 0.75810, 13:-0.01748, 12: 0.92199, 11: 0.41525
    27 |      | 18:-0.89667, 17: 0.11915, 16:-0.60868, 15: 0.65193, 14:-0.22825, 13: 0.64974, 12:-0.64395, 11:-0.91813
    28 |      | 18: 0.31559, 17: 0.05960, 16:-0.64403, 15: 0.93577, 14: 0.95689, 13:-0.33008, 12:-0.70422, 11: 0.18296
    29 |      | 29: 0.00000, 11: 0.00000
    30 |      | 30: 0.00000, 12: 0.00000
    31 |      | 31: 0.00000, 13: 0.00000
    32 |      | 32: 0.00000, 14: 0.00000
    33 |      | 33: 0.00000, 15: 0.00000
    34 |      | 34: 0.00000, 16: 0.00000
    35 |      | 35: 0.00000, 17: 0.00000
    36 |      | 36: 0.00000, 18: 0.00000
-------|------|---------------------------------------------------------------------------------------------------------------------
